tree
version=v3
num_class=1
num_tree_per_iteration=1
label_index=0
max_feature_idx=15
objective=binary sigmoid:1
feature_names=account_length international_plan number_vmail_messages total_intl_minutes total_intl_calls number_customer_service_calls total_minutes total_calls area_code_area_code_408 area_code_area_code_415 area_code_area_code_510 state_other avg_mt_charge avg_call_charge avg_intl_call_charge both_plans
feature_infos=[1:232] [0:1] [0:50] [0:20] [0:18] [0:9] [300.89999999999998:871.69999999999993] [188:410] [0:1] [0:1] [0:1] [0:1] [0.17518914439216754:68.060000000000002] [0.063580901856763919:0.40254807692307693] [0:4.54] [0:1]
tree_sizes=1454 1500 1474 1503 1496 1508 1504 1507 1506 1500 1509 1516 1499 1472 1507 1482 1515 1521 1515 1505 1519 1515 1523 1490 1492 1486 1486 1494 1502 1518 1518 1505 1515 1493 1519 1513 1500 1520 1509 1522 1485 1487 1486 1496 1513 1486 1519 1516 1487 1504 1520 1498 1491 1499 1467 1515 1529 1491 1507 1512 1517 1459 1508 1514 1476 1471 1528 1508 1516 1530 1487 1508 1518 1511 1519 1516 1482 1486 1495 1510 1484 1512 1521 1499 1518 1501 1504 1517 1477 1528 1512 1517 1515 1522 1497 1518 1514 1518 1506 1488 1517 1524 1526 1520 1484 1503 1511 1525 1482 1487 1516 1498 1518 1498 1489 1479 1495 1520 1470 1526 1468 1482 1482 1494 1521 1499 1497 1491 1523 1507 1498 1491 1505 1508 1521 1508 1505 1524 1505 1467 1487 1486 1531 1530 1516 1459 1501 1505 1504 1498 1505 1491 1460 1486 1482 1446 1448 1483 1503 1486 1496 1519 1508 1512 1499 1486 1525 1520 1521 1508 1458 1498 1502 1515 1511 1495 1498 1494 1498 1514 1515 1474 1497 1497 1467 1525 1533 1507 1505 1508 1511 1527 1472 1524 1527 1538 1526 1516 1527 1470 1499 1497 1525 1490 1440 1500 1496 1487 1481 1528 1497 1495 1529 1475 1489 1505 1462 1485 1473 1459 1476 1498 1477 1497 1536 1502 1510 1489 1507 1525 1485 1511 1514 1479 1530 1468 1460 1520 1475 1526 1508 1472 1518 1497 1506 1473 1504 1487 1520 1446 1487 1465 1489 1508 1516 1503 1485 1512 1489 1494 1521 1491 1490 1494 1520 1512 1515 1513 1478 1511 1487 1477 1507 1526 1527 1504 1524 1525 1492 1491 1503 1483 1494 1462 1506 1442 1433 1490 1482 1511 1514 1508 1498 1514 1475 1513 1514 1464 1496 1490 1512 1488 1497 1495 1487 1458 1519 1481 1503 1494 1483 1495 1508 1488 1510 1527 1489 1497 1523 1475 1516 1474 1498 1450 1507 1499 1480 1489 1496 1483 1445 1498 1471 1489 1478 1471 1518 1497 1499 1523 1499 1496 1500 1510 1492 1489 1469 1492 1504 1518 1513 1476 1503 1523 1506 1497 1492 1498 1494 1503 1512 1468 1510 1502 1534 1484 1520 1492 1486 1474 1525 1465 1505 1433 1490 1469 1481 1480 1475 1489 1525 1499 1500 1497 1463 1515 1470 1463 1468 1468 1480 1488 1513 1468 1511 1514 1441 1439 1493 1516 1450 1510 1482 1470 1479 1482 1489 1497 1444 1490 1504 1481 1454 1446 1451 1479 1367 1511 1488 1497 1468 1503 1472 1486 1503 1495 1477 1510 1488 1488 1509 1492 1484 1486 1512 1453 1511 1473 1496 1492 1511 1494 1485 1494 1487 1488 1492 1491 1521 1482 1479 1495 1494 1490 1514 1508 1470 1477 1484 1445 1494 1461 1483 1490 1511 1494 1521 1526 1495 1517 1513 1519 1493 1491 1468 1516 1490 1492 1467 1513 1483 1506 1519 1479 1500 1486 1507 1498 1510 1433 1477 1475 1481 1465 1471 1488 1499 1460 1471 1487 1508 1464 1504 1504 1512 1502 1506 1513 1507 1503 1474 1480 1496 1515 1490 1468 1486 1477 1460 1488 1502 1480 1490 1494 1482 1496 1470 1463 1495 1519 1479 1515 1515 1493 1504 1473 1503 1434 1495 1433 1463 1444 1486 1485 1474 1472 1448 1471 1474 1475 1454 1468 1478 1488 1489 1457 1471 1446 1263 1468 1440 1431 1498 1510 1478 1458 1451 1457 1486 1474 1453 1487 1498 1465 1486 1458 1521 1509 1498 1507 1477 1496 1519 1453 1499 1476 1462 1415 1459 1474 1501 1479 1479 1498 1495 1445 1474 1463 1483 1473 1513 1517 1516 1468 1446 1454 1444 1453 1470 1473 1485 1473 1439 1488 1513 1471 1488 1421 1505 1478 1486 1414 1518 1479 1449 1460 1449 1431 1442 1480 1462 1450 1469 1483 1456 1449 1435 1473 1501 1488 1489 1485 1502 1453 1449 1455 1494 1516 1492 1467 1469 1476 1485 1518 1483 1506 1495 1490 1466 1512 1516 1496 1489 1502 1484 1486 1455 1499 1471 1483 1475 1504 1465 1454 1493 1473 1485 1458 1508 1415 1471 1462 1479 1513 1473 1481 1497 1499 1428 1487 1462 1466 1481 1452 1476 1480 1412 1416 1495 1423 1488 1464 1420 1444 1482 1439 1476 1476 1475 1499 1517 1478 1505 1496 1430 1491 1503 1504 1483 1504 1473 1434 1459 1499 1453 1486 1394 1426 1474 1479 1502 1454 1482 1486 1483 1449 1443 1481 1426 1437 1405 1483 1436 1499 1475 1445 1397 1409 1464 1459 1408 1456 1451 1506 1513 1486 1483 1484 1480 1484 1471 1480 1418 1526 1489 1486 1466 1500 1493 1479 1449 1459 1451 1407 1471 1457 1483 1482 1484 1449 1486 1467 1492 1480 1469 1463 1471 1465 1439 1456 1465 1464 1473 1491 1514 1458 1499 1482 1401 1495 1462 1498 1447 1469 1431 1488 1485 1462 1479 1491 1489 1474 1458 1499 1468 1459 1506 1459 1473 1487 1494 1469 1440 1477 1477 1517 1478 1475 1423 1490 1492 1487 1438 1472 1480 1476 1509 1474 1487 1475 1398 1442 1423 1433 1465 1464 1474 1444 1447 1475 1475 1518 1438 1476 1509 1493 1481 1457 1470 1458 1457 1453 1450 1483 1464 1490 1479 1494 1477 1463 1504 1459 1482 1451 1455 1492 1464 1479 1469 1507 1487 1501 1466 1487 1470 1452 1482 1497 1417 1468 1466 1464 1490 1515 1486 1465 1509 1484 1480 1480 1477 1498 1499 1498 1477 1470 1463 1515 1484 1518 1482 1472 1428 1471 1476 1489 1454 1477 1451 1482 1495 1500 1446 1449 1479 1458 1454 1481 1530 1478 1473 1442 1480 1447 1505 1480 1453 1484 1421 1394 1396 1423 1466 1442 1491 1455 1479 1427 1484 1443 1449 1488 1503 1506 1509 1473 1472 1494 1509 1506 1430 1498 1430 1449 1493 1481 1426 1496 1502 1474 1473 1475 1478 1482 1490 1486 1441 1474 1469 1467 1489 1514 1454 1448 1443 1472 1463 1440 1430 1467 1460 1491 1443 1464 1463 1454 1432 1466 1479 1427 1469 1519 1498 1513 1454 1492 1464 1466 1432 1435 1434 1471 1438 1505 1428 1463 1420 1497 1449 1491 1463 1480 1454 1465 1469 1443 1484 1404 1517 1526 1506 1487 1489 1458 1470 1481 1487 1445 1476 1447 1467 1487 1484 1412 1472 1467 1482 1489 1498 1434 1505 1487 1494 1465 1516 1480 1482 1484 1506 1438 1451 1469 1444 1440 1446 1480 1458 1469 1482 1476 1436 1490 1465 1427 1476 1474 1470 1489 1478 1451 1471 1496 1471 1483 1467 1412 1465 1409 1470 1461 1470 1488 1475 1479 1481 1467 1509 1505 1430 1460 1468 1483 1449 1520 1449 1412 1452 1423 1449 1432 1506 1487 1449 1401 1445 1407 1472 1411 1484 1436 1451 1495 1440 1512 1475 1506 1510 1489 1450 1451 1433 1472 1466 1474 1515 1491 1468 1480 1470 1498 1435 1447 1487 1451 1478 1462 1443 1466 1446 1458 1486 1472 1470 1449 1473 1456 1436 1505 1437 1499 1460 1406 1490 1474 1477 1424 1438 1435 1400 1453 1454 1472 1396 1461 1496 1477 1457 1449 1467 1449 1453 1434 1494 1494 1454 1443 1488 1439 1444 1433 1497 1499 1427 1451 1421 1453 1479 1473 1454 1464 1456 1389 1454 1462 1463 1453 1446 1481 1449 1493 1468 1462 1473 1485 1450 1466 1442 1470 1507 1496 1402 1440 1443 1499 1490 1462 1433 1490 1461 1466 1518 1451 1440 1447 1494 1473 1475 1455

Tree=0
num_leaves=13
num_cat=0
split_feature=6 2 6 14 11 7 0 7 7 13 14 8
split_gain=330.414 118.027 75.8348 39.5702 39.5015 19.9751 18.7355 17.512 12.0095 13.1906 11.9851 9.27437
threshold=654.37219949938697 18.500000000000004 544.69561408318509 1.0991397563852079 1.0000000180025095e-35 267.50000000000006 89.500000000000014 315.50000000000006 332.50000000000006 0.17159165838191717 0.82487496462091914 1.0000000180025095e-35
decision_type=2 2 2 2 2 2 2 2 2 2 2 2
left_child=2 -2 4 11 10 -6 7 -7 9 -8 -1 -4
right_child=1 -3 3 -5 5 6 8 -9 -10 -11 -12 -13
leaf_value=0.36344386012039709 0.38441578246656433 0.34441713252989348 0.34499455482677688 0.35841912044404262 0.37006859808787651 0.33531793646056873 0.36679379087056296 0.35844677890731103 0.34641720648892327 0.3489636202823872 0.38140686649078875 0.33381793456340847
leaf_weight=12.338553518056871 119.75654885172844 14.999810159206389 79.353834390640259 42.580106258392334 17.419134378433228 15.241742581129076 31.93507969379425 11.8546886742115 10.645026564598082 9.9192292988300306 19.112661331892014 21.531985551118851
leaf_count=51 495 62 328 176 72 63 132 49 44 41 79 89
internal_value=0.36322 0.379888 0.353938 0.347158 0.361587 0.357242 0.354311 0.345062 0.359279 0.362792 0.374675 0.342504
internal_weight=0 134.756 271.932 143.466 128.466 97.0149 79.5958 27.0964 52.4993 41.8543 31.4512 100.886
internal_count=1681 557 1124 593 531 401 329 112 217 173 130 417
is_linear=0
shrinkage=1


Tree=1
num_leaves=13
num_cat=0
split_feature=6 5 2 14 3 8 6 6 4 5 3 6
split_gain=321.949 261.588 115.286 59.2113 29.3438 18.2879 12.0949 9.39522 8.33266 7.36798 6.61201 6.05639
threshold=654.37219949938697 3.5000000000000004 18.500000000000004 0.89077969638554622 13.10907529329071 1.0000000180025095e-35 544.69561408318509 544.69561408318509 1.5000000000000002 2.5000000000000004 13.706968021324693 548.50000000000011
decision_type=2 2 2 2 2 2 2 2 2 2 2 2
left_child=1 3 -2 4 7 8 -3 9 -5 -1 11 -10
right_child=2 6 -4 5 -6 -7 -8 -9 10 -11 -12 -13
leaf_value=-0.021210263079409514 0.020991168212250458 0.022295216176182131 -0.018487295028842915 0.0045426457540556058 -0.0015755675897933235 -0.020955192161890832 0.0066170130525811067 -0.027160916652530544 -0.0029088137954896786 -0.0066405673639725622 0.0011259321244653821 -0.013631468480239561
leaf_weight=39.254724770784378 119.28848527371883 37.465718910098076 15.049272418022154 15.2399915009737 13.336087495088575 14.540691405534742 14.555485531687735 68.717370480298996 20.563126549124718 10.171242147684096 14.048508152365683 24.472549006342888
leaf_count=162 495 155 62 63 55 60 60 283 85 42 58 101
internal_value=0 -0.00914238 0.016493 -0.0156201 -0.0214316 -0.00690811 0.0181016 -0.0235899 -0.00402157 -0.0184143 -0.0063958 -0.00895624
internal_weight=0 272.365 134.338 220.344 131.479 88.8649 52.0212 118.143 74.3242 49.426 59.0842 45.0357
internal_count=1681 1124 557 909 542 367 215 487 307 204 244 186
is_linear=0
shrinkage=0.0135542


Tree=2
num_leaves=13
num_cat=0
split_feature=13 5 2 14 11 7 1 7 13 9 10 7
split_gain=190.974 219.89 96.0874 62.1743 28.2602 23.2573 16.673 18.6632 46.1152 13.5293 15.9364 9.40477
threshold=0.23171711712595097 3.5000000000000004 16.500000000000004 0.6801036209679997 1.0000000180025095e-35 243.50000000000003 1.0000000180025095e-35 318.50000000000006 0.17983876836252935 1.0000000180025095e-35 1.0000000180025095e-35 322.50000000000006
decision_type=2 2 2 2 2 2 2 2 2 2 2 2
left_child=1 3 5 9 -5 -2 7 -6 -9 10 11 -1
right_child=2 -3 -4 4 6 -7 -8 8 -10 -11 -12 -13
leaf_value=-0.01455884999019056 0 0.018472847762941461 -0.024873499362786773 0.0049206633974594365 -0.016334061406118625 0.020091205645159354 0.0038081239576340672 -0.017818160397322563 0.013468598662775855 -0.02605483299580702 -0.026247834661892566 0
leaf_weight=22.631615698337555 12.787466526031492 52.321914777159691 10.467407077550886 31.230771631002426 58.748630329966545 94.413943290710449 13.828635618090628 18.931842997670174 15.655570209026335 46.728108048439026 17.025706306099892 11.884621828794478
leaf_count=93 53 217 43 129 242 393 57 78 65 192 70 49
internal_value=0 -0.00659158 0.0138859 -0.0121755 -0.00621805 0.0177673 -0.00955508 -0.0116394 -0.00337738 -0.0204621 -0.0151905 -0.00943597
internal_weight=0 288.987 117.669 236.666 138.395 107.201 107.165 93.336 34.5874 98.2701 51.5419 34.5162
internal_count=1681 1192 489 975 571 446 442 385 143 404 212 142
is_linear=0
shrinkage=0.0135542


Tree=3
num_leaves=13
num_cat=0
split_feature=6 2 9 8 6 14 14 14 13 6 6 7
split_gain=307.951 110.548 74.1886 138.156 29.8058 22.7108 9.54943 8.2561 7.97173 7.87831 7.25864 6.39444
threshold=654.37219949938697 18.500000000000004 1.0000000180025095e-35 1.0000000180025095e-35 562.00736155176492 1.0991397563852079 0.92690255125876542 0.6801036209679997 0.16034128037832188 493.03176199842085 510.37700553629139 294.50000000000006
decision_type=2 2 2 2 2 2 2 2 2 2 2 2
left_child=2 -2 3 4 7 9 11 8 -1 -4 -5 -6
right_child=1 -3 5 10 6 -7 -8 -9 -10 -11 -12 -13
leaf_value=0.010329982510904051 0.020650769387164283 -0.017921930984485232 -0.011994831484796371 -0.012842936954917441 -0.0023383292940152354 -0.0071868578871084436 0.002698941703231351 0.013561211127544994 -0.0057583004664168227 -0.023835702443385863 -0.025477166593847227 -0.018544585874395222
leaf_weight=12.574898749589922 118.43107175827026 15.132712677121161 17.013645634055138 16.266426667571068 11.207398265600206 31.018822148442268 18.423319131135941 50.663602814078331 9.4746067076921445 62.218861803412437 34.398040369153023 9.7565997391939145
leaf_count=52 495 62 70 67 46 128 76 210 39 255 141 40
internal_value=0 0.0162046 -0.00890595 -0.0030175 0.00530881 -0.0175078 -0.00400847 0.0104885 0.00297985 -0.0214214 -0.0216229 -0.0103594
internal_weight=0 133.564 273.016 162.765 112.1 110.251 39.3873 72.7131 22.0495 79.2325 50.6645 20.964
internal_count=1681 557 1124 671 463 453 162 301 91 325 208 86
is_linear=0
shrinkage=0.0135542


Tree=4
num_leaves=13
num_cat=0
split_feature=13 2 9 8 10 11 14 7 3 7 14 4
split_gain=181.601 91.8055 82.2178 165.385 206.949 28.6033 27.111 22.5332 13.9825 9.4716 6.30646 4.06432
threshold=0.23171711712595097 16.500000000000004 1.0000000180025095e-35 1.0000000180025095e-35 1.0000000180025095e-35 1.0000000180025095e-35 1.0906958545553891 243.50000000000003 12.25126000532642 324.50000000000006 0.91722937229482604 2.5000000000000004
decision_type=2 2 2 2 2 2 2 2 2 2 2 2
left_child=2 7 3 4 -1 -6 8 -2 -4 -8 -7 -5
right_child=1 -3 6 11 5 10 9 -9 -10 -11 -12 -13
leaf_value=0.022610392597345211 0 -0.024131322595418992 -0.022312844018414699 -0.011953610930762672 0.0044064339800291494 -0.022855318993628727 -0.0095352847898898998 0.019733901629899797 -0.0052315412800159507 0.0060575370984360059 -0.010320585039844598 -0.023494731806634986
leaf_weight=72.6919025182724 12.769956678152083 10.535794422030447 67.005313605070114 11.209559872746466 13.020359739661215 24.370855808258057 23.764370322227478 93.665412411093712 11.945803031325338 9.4188349395990354 15.968474328517912 40.072080790996552
leaf_count=302 53 43 274 46 54 100 98 393 49 39 66 164
internal_value=0 0.0135988 -0.00640725 -0.000605418 0.00768743 -0.0124621 -0.0154932 0.0174309 -0.0198543 -0.00481604 -0.0181459 -0.0211701
internal_weight=0 116.971 289.468 177.333 126.052 53.3597 112.134 106.435 78.9511 33.1832 40.3393 51.2816
internal_count=1681 489 1192 732 522 220 460 446 323 137 166 210
is_linear=0
shrinkage=0.0135542


Tree=5
num_leaves=13
num_cat=0
split_feature=6 5 2 14 1 3 11 6 6 5 8 9
split_gain=294.477 242.065 105.97 52.6199 45.5726 27.3131 16.8824 11.554 8.27675 7.00854 5.72646 17.6407
threshold=654.37219949938697 3.5000000000000004 18.500000000000004 0.89077969638554622 1.0000000180025095e-35 13.10907529329071 1.0000000180025095e-35 544.69561408318509 544.69561408318509 2.5000000000000004 1.0000000180025095e-35 1.0000000180025095e-35
decision_type=2 2 2 2 2 2 2 2 2 2 2 2
left_child=1 3 -2 5 6 8 -5 -3 9 -1 11 -8
right_child=2 7 -4 4 -6 -7 10 -9 -10 -11 -12 -13
leaf_value=-0.020177288303475083 0.020318914022518921 0.021811048374386112 -0.017375559213072173 0.0014118307524504351 0.015494428352038254 -0.0011586685823158529 -0.0018965706066457269 0.0064251779690686186 -0.025702970015349033 -0.0060258233086500045 -0.023592610200311476 -0.018907861074932419
leaf_weight=39.631986305117607 117.49375578761101 37.074218809604645 15.206193596124647 14.965924546122549 14.026231437921522 13.399002045392988 21.321820482611656 14.511241525411604 69.569123759865761 10.240212321281431 11.514527693390844 27.297047600150108
leaf_count=162 495 155 62 62 58 55 88 60 283 42 47 112
internal_value=0 -0.00867753 0.0159232 -0.0148479 -0.00662498 -0.0202889 -0.0108902 0.0176775 -0.0223529 -0.0174716 -0.014112 -0.0116531
internal_weight=0 273.551 132.7 221.966 89.1256 132.84 75.0993 51.5855 119.441 49.8722 60.1334 48.6189
internal_count=1681 1124 557 909 367 542 309 215 487 204 247 200
is_linear=0
shrinkage=0.0135542


Tree=6
num_leaves=13
num_cat=0
split_feature=6 5 2 14 3 11 6 6 12 6 5 6
split_gain=287.151 235.554 103.599 50.9317 26.4012 20.4704 11.3439 10.0148 9.5118 7.95384 6.74804 6.14055
threshold=654.37219949938697 3.5000000000000004 18.500000000000004 0.89077969638554622 13.10907529329071 1.0000000180025095e-35 544.69561408318509 635.05000000000007 0.47933534671043415 544.69561408318509 2.5000000000000004 548.50000000000011
decision_type=2 2 2 2 2 2 2 2 2 2 2 2
left_child=1 3 -2 4 9 -5 -3 8 11 10 -1 -7
right_child=2 6 -4 5 -6 7 -8 -9 -10 -11 -12 -13
leaf_value=-0.019847476730566006 0.020137856002466929 0.021616227466599559 -0.017100862641733407 0.0057053591463643999 -0.0011427916104521172 -0.00037611397633712391 0.0063457015859980917 0.0018351960731888678 -0.017138517539260642 -0.025274676187358219 -0.0059388503702375124 -0.014330583926742311
leaf_weight=39.744222775101662 116.94729027152061 36.902778178453445 15.241322323679922 18.798395723104477 13.401459172368048 17.968478590250019 14.494362905621527 9.9585763663053495 32.718809872865677 69.788103684782982 10.249763399362562 9.7606136053800565
leaf_count=162 495 155 62 78 55 74 60 41 134 283 42 40
internal_value=0 -0.00855327 0.0157678 -0.014621 -0.019965 -0.00652928 0.0175051 -0.00993461 -0.0120338 -0.0219891 -0.0171954 -0.00564827
internal_weight=0 273.786 132.189 222.388 133.184 89.2049 51.3971 70.4065 60.4479 119.782 49.994 27.7291
internal_count=1681 1124 557 909 542 367 215 289 248 487 204 114
is_linear=0
shrinkage=0.0135542


Tree=7
num_leaves=13
num_cat=0
split_feature=6 5 2 4 3 9 8 10 13 6 6 10
split_gain=280.052 229.256 101.3 43.0349 38.2087 16.4867 20.1969 36.3986 11.6373 10.0239 9.37277 7.13748
threshold=654.37219949938697 3.5000000000000004 18.500000000000004 2.5000000000000004 13.401351625071593 1.0000000180025095e-35 1.0000000180025095e-35 1.0000000180025095e-35 0.18283855338879387 552.18527969625904 587.80293952196746 1.0000000180025095e-35
decision_type=2 2 2 2 2 2 2 2 2 2 2 2
left_child=1 3 -2 5 9 6 7 -1 -3 11 -6 -5
right_child=2 8 -4 4 10 -7 -8 -9 -10 -11 -12 -13
leaf_value=0.022013931215531902 0.019961442980117764 0.020636261617469058 -0.01683357523632097 -0.01384864640969524 -0.009497982861896178 -0.013098224977543566 -0.014537362436734962 -0.010061771699858165 0.0033050716441407313 -0.024588644698653492 0.0068645119377599723 -0.027022650435747513
leaf_weight=14.676181450486183 116.38580323755741 40.882757842540741 15.273761495947836 51.321489334106445 15.342692121863367 24.154583394527435 10.308860614895819 11.144555479288101 10.320116981863974 73.842574879527092 10.466308355331419 11.520690470933912
leaf_count=61 495 172 62 209 63 99 42 46 43 299 43 47
internal_value=0 -0.00843204 0.0156161 -0.0143998 -0.0180478 -0.00440183 0.00115089 0.00779971 0.0173366 -0.0209137 -0.00248728 -0.0164308
internal_weight=0 273.981 131.66 222.778 162.494 60.2842 36.1296 25.8207 51.2029 136.685 25.809 62.8422
internal_count=1681 1124 557 909 661 248 149 107 215 555 106 256
is_linear=0
shrinkage=0.0135542


Tree=8
num_leaves=13
num_cat=0
split_feature=6 11 2 6 9 14 6 6 13 14 3 13
split_gain=289.481 86.4779 75.1648 39.1358 25.393 24.414 18.9289 12.8946 14.6741 8.83154 7.55086 8.71249
threshold=667.62777068014077 1.0000000180025095e-35 20.500000000000004 507.16264966195814 1.0000000180025095e-35 0.82487496462091914 488.00079708916195 647.45000000000016 0.16855327091270886 0.6760503953839373 12.300588463710525 0.16659341684142862
decision_type=2 2 2 2 2 2 2 2 2 2 2 2
left_child=1 4 -2 6 9 10 -3 8 -7 -1 11 -5
right_child=2 3 -4 5 -6 7 -8 -9 -10 -11 -12 -13
leaf_value=0.001628701903116961 0.020681789241032877 -0.0078419610193344955 -0.014819050743298425 -0.012024103719516233 -0.0074889853477107075 -1.2477066217894262e-05 0.0077756091776685224 0.0045357035995942869 -0.015455984779461963 0.015913031396960594 -0.0089864926412807928 -0.023787749415949636
leaf_weight=12.875537142157553 107.9097226858139 41.615974798798561 11.845907434821127 18.87322524189949 16.604612320661545 17.00424262881279 21.193250551819801 10.283025041222571 43.299907758831978 30.763504311442375 13.7211926728487 64.884213671088219
leaf_count=53 461 171 48 77 68 70 88 43 177 129 56 263
internal_value=0 -0.00794359 0.0170861 -0.0117318 0.00641195 -0.0151542 -0.00241674 -0.00882432 -0.0112643 0.0119248 -0.019634 -0.0212584
internal_weight=0 291.119 119.756 230.875 60.2437 168.066 62.8092 70.5872 60.3042 43.639 97.4786 83.7574
internal_count=1704 1195 509 945 250 686 259 290 247 182 396 340
is_linear=0
shrinkage=0.0135542


Tree=9
num_leaves=13
num_cat=0
split_feature=6 5 2 11 4 14 3 6 0 6 12 14
split_gain=282.483 219.708 73.5916 65.3433 28.3744 24.2357 20.2017 14.8523 14.5694 9.06335 17.9658 4.85958
threshold=667.62777068014077 3.5000000000000004 20.500000000000004 1.0000000180025095e-35 2.5000000000000004 0.53511505853572949 12.200891527462629 544.69561408318509 73.500000000000014 635.05000000000007 0.47025575545019227 1.0991397563852079
decision_type=2 2 2 2 2 2 2 2 2 2 2 2
left_child=1 3 -2 5 9 -1 -6 -3 -8 10 -5 -7
right_child=2 7 -4 4 6 11 8 -9 -10 -11 -12 -13
leaf_value=-0.016535089809492007 0.020510863716389934 0.021677070273361004 -0.014595078459764791 -0.00027445628879295625 -0.022820529646257189 0.0015321849693737074 9.2283856947203042e-05 0.0046835883903375876 -0.016612566823241706 0.0027753211887128495 -0.020426848468311623 0.012571415995446093
leaf_weight=10.353079155087469 107.3383142054081 38.003928959369659 11.86503893136978 17.296624109148979 108.26167975366116 17.74751915037632 12.978194981813429 14.709501147270201 27.477743685245514 11.295163899660109 17.179080650210381 16.030123755335808
leaf_count=42 461 161 48 71 438 73 53 61 112 47 70 67
internal_value=0 -0.00783095 0.0169322 -0.0133861 -0.0167681 0.00130072 -0.0196783 0.0171247 -0.0110187 -0.0070934 -0.010607 0.00706489
internal_weight=0 291.333 119.203 238.619 194.488 44.1307 148.718 52.7134 40.4559 45.7709 34.4757 33.7776
internal_count=1704 1195 509 973 791 182 603 222 165 188 141 140
is_linear=0
shrinkage=0.0135542


Tree=10
num_leaves=13
num_cat=0
split_feature=13 5 2 14 8 9 10 7 13 7 13 13
split_gain=132.758 184.371 81.2718 51.3087 43.7549 59.1818 128.056 27.9593 12.6005 29.8715 8.88299 7.50884
threshold=0.22937261677150106 3.5000000000000004 16.500000000000004 0.53511505853572949 1.0000000180025095e-35 1.0000000180025095e-35 1.0000000180025095e-35 241.50000000000003 0.19606237062860879 305.50000000000006 0.17805465010425695 0.24133661297192924
decision_type=2 2 2 2 2 2 2 2 2 2 2 2
left_child=1 3 7 -1 5 6 -5 -2 -7 -10 -3 -9
right_child=2 10 -4 4 -6 8 -8 11 9 -11 -12 -13
leaf_value=-0.020096548915537797 -0.00407180865051929 0.020927288583417986 -0.020521235646148842 0.022253710034232464 -0.021326490855998779 -0.016904201960556225 -0.013533709353845107 0.010457546603689943 -0.017229388023066689 0.014283319892068167 0.0070051174191109056 0.020407490776457829
leaf_weight=72.88776108622551 11.079113841056822 38.635563611984253 12.631510287523268 38.662604987621307 29.62128584086895 42.565358996391296 34.650670886039734 23.431591540575027 13.072768077254297 9.2982453405857068 13.831821024417875 69.695098310709
leaf_count=295 46 164 51 162 120 173 142 100 53 39 58 301
internal_value=0 -0.00549827 0.0115815 -0.0105408 -0.00633102 -0.00304371 0.00520862 0.0155711 -0.0125077 -0.00369728 0.0174483 0.0180126
internal_weight=0 293.226 116.837 240.759 167.871 138.25 73.3133 104.206 64.9364 22.371 52.4674 93.1267
internal_count=1704 1206 498 984 689 569 304 447 265 92 222 401
is_linear=0
shrinkage=0.0135542


Tree=11
num_leaves=13
num_cat=0
split_feature=13 11 8 9 7 13 14 13 14 7 9 3
split_gain=129.478 81.6638 33.8542 69.7304 30.4195 33.4984 22.6165 11.8311 10.975 10.8007 9.04057 6.13223
threshold=0.22937261677150106 1.0000000180025095e-35 1.0000000180025095e-35 1.0000000180025095e-35 274.50000000000006 0.2761720151442697 0.46906077468923818 0.16659341684142862 1.0906958545553891 334.50000000000006 1.0000000180025095e-35 12.200891527462629
decision_type=2 2 2 2 2 2 2 2 2 2 2 2
left_child=1 6 3 7 5 -2 -1 -3 11 -9 -8 -5
right_child=4 2 -4 8 -6 -7 10 9 -10 -11 -12 -13
leaf_value=-0.00989984208410866 -0.011155219170211454 0.0086304032120770643 -0.019804068343097843 -0.019073958775218919 0.01666396271297399 0.01313912387331061 0.015136154757581677 -0.0045130413134367546 -0.0056843129976174222 0.010678074784030787 0.0013670088624620946 -0.007385253611692435
leaf_weight=10.042374551296232 18.862788185477257 32.314415201544762 45.155872955918312 60.520044103264809 74.653256759047508 22.901209980249405 39.359524756669998 46.073505237698555 23.015375971794128 10.329866632819174 13.341705009341238 13.018862351775168
leaf_count=41 78 135 183 245 322 98 166 189 95 44 55 53
internal_value=0 -0.00542443 -0.00917703 -0.00653158 0.0114651 0.00193458 0.00820035 0.00204782 -0.014513 -0.0015546 0.0118372 -0.0171406
internal_weight=0 293.172 230.428 185.272 116.417 41.764 62.7436 88.7178 96.5543 56.4034 52.7012 73.5389
internal_count=1704 1206 944 761 498 176 262 368 393 233 221 298
is_linear=0
shrinkage=0.0135542


Tree=12
num_leaves=13
num_cat=0
split_feature=6 5 2 1 11 14 14 6 6 14 13 7
split_gain=266.735 207.385 70.5595 61.534 44.3092 34.9597 16.2202 14.4764 8.83661 12.3445 9.777 6.44963
threshold=667.62777068014077 3.5000000000000004 20.500000000000004 1.0000000180025095e-35 1.0000000180025095e-35 1.017962084967037 0.56048793348198844 544.69561408318509 642.93220856714709 0.88428160710718573 0.20556668121103158 280.50000000000006
decision_type=2 2 2 2 2 2 2 2 2 2 2 2
left_child=1 3 -2 4 6 -5 -1 -3 10 -10 11 -6
right_child=2 7 -4 5 8 -7 -8 -9 9 -11 -12 -13
leaf_value=-0.01572354073300131 0.020138841373869978 0.02132888017698218 -0.01421327595126742 -0.0097223595256033732 -0.010113863545903816 0.020095834808065389 0.0036296510940587402 0.0045027698887149682 -0.019999307617855382 0.00023410428181779399 -0.027104538953025517 -0.019217375528450525
leaf_weight=11.128439500927923 105.95389421284199 37.597918331623077 11.892849564552305 13.547127157449724 22.71781875193119 14.84859189391136 26.473141744732857 14.664486572146414 9.8172844350338 10.574422687292097 30.231551378965378 99.814876601099968
leaf_count=45 461 161 48 55 92 62 110 61 40 44 122 403
internal_value=0 -0.00757317 0.0165869 -0.0129413 -0.015477 0.00553447 -0.00184936 0.0167987 -0.0183794 -0.00904915 -0.0195592 -0.0176118
internal_weight=0 291.416 117.847 239.153 210.758 28.3957 37.6016 52.2624 173.156 20.3917 152.764 122.533
internal_count=1704 1195 509 973 856 117 155 222 701 84 617 495
is_linear=0
shrinkage=0.0135542


Tree=13
num_leaves=13
num_cat=0
split_feature=6 11 2 6 1 9 6 13 6 13 7 3
split_gain=260.416 76.3591 69.1205 35.697 23.9335 23.4656 17.4775 14.3195 11.2304 9.58571 18.429 7.02049
threshold=667.62777068014077 1.0000000180025095e-35 20.500000000000004 507.16264966195814 1.0000000180025095e-35 1.0000000180025095e-35 491.10432438998799 0.16701655202385771 642.93220856714709 0.20556668121103158 281.50000000000006 9.2008361623687502
decision_type=2 2 2 2 2 2 2 2 2 2 2 2
left_child=1 5 -2 6 7 11 -3 -5 9 10 -9 -1
right_child=2 3 -4 4 -6 -7 -8 8 -10 -11 -12 -13
leaf_value=0 0.019982171466744487 -0.0066651940804574403 -0.014003374294132188 -0.0077675892498524808 0 -0.0072395266388395165 0.0091717906952255152 -0.0031712651985586321 -0.0081322234139366081 -0.027218105663239036 -0.020930859794650387 0.014321625195838131
leaf_weight=9.3221533596515638 105.34166647493839 45.317050293087959 11.907890811562536 34.001676052808762 18.019809260964394 16.611618056893349 17.481055051088333 15.269554212689398 19.668444231152534 30.273856803774834 51.63506418466568 33.813048869371414
leaf_count=39 461 186 48 139 74 68 73 62 81 122 208 143
internal_value=0 -0.00747039 0.016445 -0.0110086 -0.0142631 0.00608528 -0.00209996 -0.0160273 -0.018345 -0.0203089 -0.0170259 0.0114428
internal_weight=0 291.413 117.25 231.667 168.868 59.7468 62.7981 150.849 116.847 97.1785 66.9046 43.1352
internal_count=1704 1195 509 945 686 250 259 612 473 392 270 182
is_linear=0
shrinkage=0.0135542


Tree=14
num_leaves=13
num_cat=0
split_feature=6 5 2 1 4 9 8 10 6 6 12 0
split_gain=254.262 200.457 67.7218 58.7572 30.3279 20.1198 57.2499 203.447 14.0291 10.3059 3.45437 2.9135
threshold=667.62777068014077 3.5000000000000004 20.500000000000004 1.0000000180025095e-35 2.5000000000000004 1.0000000180025095e-35 1.0000000180025095e-35 1.0000000180025095e-35 544.69561408318509 642.93220856714709 0.46698809209206987 72.500000000000014
decision_type=2 2 2 2 2 2 2 2 2 2 2 2
left_child=1 3 -2 5 -5 6 7 -1 -3 11 -9 -7
right_child=2 8 -4 4 -6 9 -8 10 -10 -11 -12 -13
leaf_value=0.022662264331758605 0.019829473872385012 0.021144736949502228 -0.013798187545425002 0.021524438633284865 -0.0064400054355728811 -0.015096343916998985 -0.023603594535614 -0.015493772075701295 0.0045478355557814956 -0.0063827961358898788 -0.026265533156298152 -0.023270933469991671
leaf_weight=30.817263200879097 104.71852810680866 37.365286216139793 11.921560570597647 12.375216633081438 15.960167080163954 18.598304852843285 42.929948076605797 14.018146470189093 14.671340107917784 11.2336029112339 28.674241870641708 64.875873625278473
leaf_count=128 461 161 48 52 65 75 173 57 61 46 116 261
internal_value=0 -0.00736736 0.0163065 -0.0126296 0.00544248 -0.0151012 -0.0111301 -0.00370641 0.0166573 -0.0198758 -0.0229701 -0.0215723
internal_weight=0 291.519 116.64 239.483 28.3354 211.147 116.44 73.5097 52.0366 94.7078 42.6924 83.4742
internal_count=1704 1195 509 973 117 856 474 301 222 382 173 336
is_linear=0
shrinkage=0.0135542


Tree=15
num_leaves=13
num_cat=0
split_feature=6 5 11 4 14 3 6 12 6 12 8 3
split_gain=248.338 195.357 56.3386 25.4963 21.395 18.7158 13.8051 9.11077 8.05065 16.348 5.7485 4.67859
threshold=667.62777068014077 3.5000000000000004 1.0000000180025095e-35 2.5000000000000004 0.53511505853572949 12.200891527462629 544.69561408318509 0.7005098343685302 635.05000000000007 0.47025575545019227 1.0000000180025095e-35 12.200891527462629
decision_type=2 2 2 2 2 2 2 2 2 2 2 2
left_child=1 2 4 8 -1 -5 -3 -7 9 -4 -2 -6
right_child=10 6 3 5 11 7 -8 -9 -10 -11 -12 -13
leaf_value=-0.01544548992983474 0.017386201102099822 0.020978909209308474 0 -0.021333282548606641 0.0026551271348456873 -0.014739956968385839 0.0044902787869115484 -0.00055847212317972083 0.0028860907925457664 -0.019011111614592426 0.0069788701155291937 0.014260463311808233
leaf_weight=10.418213680386541 101.51714311540127 37.151890829205513 17.339534118771553 108.97055713832378 22.71207383275032 26.451901003718376 14.658502057194708 14.279478862881659 11.285105079412459 17.331604644656181 14.501905083656309 10.791294723749159
leaf_count=42 446 161 71 438 95 107 61 58 47 70 63 45
internal_value=0 -0.00727134 -0.0124554 -0.015573 0.00121322 -0.0183201 0.0165066 -0.0100104 -0.00640691 -0.00971075 0.0161712 0.00669242
internal_weight=0 291.39 239.58 195.658 43.9216 149.702 51.8104 40.7314 45.9562 34.6711 116.019 33.5034
internal_count=1704 1195 973 791 182 603 222 165 188 141 509 140
is_linear=0
shrinkage=0.0135542


Tree=16
num_leaves=13
num_cat=0
split_feature=6 5 14 2 1 6 9 8 10 2 14 0
split_gain=248.422 170.724 53.1367 42.1651 41.9873 26.4352 13.7154 37.5203 148.869 10.456 3.88037 3.68086
threshold=672.8839069022514 3.5000000000000004 1.0991397563852079 14.500000000000002 1.0000000180025095e-35 569.05873298594281 1.0000000180025095e-35 1.0000000180025095e-35 1.0000000180025095e-35 11.500000000000002 0.56048793348198844 105.50000000000001
decision_type=2 2 2 2 2 2 2 2 2 2 2 2
left_child=1 2 6 -2 9 -3 7 8 -1 -4 -8 -12
right_child=3 5 4 -5 -6 -7 10 -9 -10 -11 11 -13
leaf_value=0.022618516085099297 0.019456662399686415 0.019434525909542272 -0.0034361149084700905 -0.009519500706282635 0.019606762230138831 -0.0039389775613188089 -0.023634443954777942 -0.023001755184536603 -0.023641289828651064 -0.019724955695366735 -0.012331892274331064 -0.02225582173308991
leaf_weight=21.703178480267525 105.18318989872932 43.965786695480347 36.018169462680817 9.6244844645261747 13.996278598904608 10.310166418552397 39.149935901165009 33.333059653639793 30.753586739301682 9.8571940064430219 27.031284362077713 16.169367805123329
leaf_count=90 468 191 148 39 59 43 157 134 124 40 109 65
internal_value=0 -0.00670295 -0.0118693 0.0169411 -0.000732678 0.0148164 -0.0157763 -0.0116947 -0.00431523 -0.00715879 -0.0199044 -0.0162845
internal_weight=0 282.288 228.012 114.808 59.8716 54.276 168.14 85.7898 52.4568 45.8754 82.3506 43.2007
internal_count=1667 1160 926 507 247 234 679 348 214 188 331 174
is_linear=0
shrinkage=0.0135542


Tree=17
num_leaves=13
num_cat=0
split_feature=6 6 2 1 8 9 10 10 9 8 6 2
split_gain=242.798 78.9642 41.3877 28.8313 26.7394 51.8855 46.0967 12.0301 26.7653 124.646 11.202 8.46875
threshold=672.8839069022514 541.31837878967053 14.500000000000002 1.0000000180025095e-35 1.0000000180025095e-35 1.0000000180025095e-35 1.0000000180025095e-35 1.0000000180025095e-35 1.0000000180025095e-35 1.0000000180025095e-35 642.93220856714709 6.5000000000000009
decision_type=2 2 2 2 2 2 2 2 2 2 2 2
left_child=1 4 -2 7 5 6 -1 8 9 -3 -10 -7
right_child=2 3 -4 -5 -6 11 -8 -9 10 -11 -12 -13
leaf_value=0.021105801688115964 0.01931423244744877 0.022186711201045334 -0.0093820034148939593 0.0018195296108988225 -0.012603430464700659 -0.003221603373701718 -0.003949982882665075 -0.023289954849160202 -0.020748494356622692 -0.023312706964576008 -0.0052247616372806654 -0.018403809516399174
leaf_weight=39.90033595263958 104.52736262977123 18.670511603355408 9.6335916370153409 20.602605924010277 19.639188766479492 30.345712542533875 19.469123885035515 28.207616075873375 56.638026103377342 26.790135949850082 12.165670424699782 9.6575123220682126
leaf_count=173 468 78 39 85 80 124 81 114 228 108 50 39
internal_value=0 -0.00661851 0.0168058 -0.012751 0.0017043 0.00463267 0.0127285 -0.014926 -0.0127703 -0.00441076 -0.0181482 -0.00714102
internal_weight=0 282.086 114.161 163.075 119.012 99.3727 59.3695 142.472 114.264 45.4606 68.8037 40.0032
internal_count=1667 1160 507 663 497 417 254 578 464 186 278 163
is_linear=0
shrinkage=0.0135542


Tree=18
num_leaves=13
num_cat=0
split_feature=6 5 14 1 3 6 10 11 11 13 5 6
split_gain=237.306 164.209 51.1266 40.5092 26.3779 25.5461 11.6195 9.26879 8.21943 7.93281 5.1141 3.79902
threshold=672.8839069022514 3.5000000000000004 1.0991397563852079 1.0000000180025095e-35 12.66388957912673 569.05873298594281 1.0000000180025095e-35 1.0000000180025095e-35 1.0000000180025095e-35 0.14507998422038484 2.5000000000000004 587.80293952196746
decision_type=2 2 2 2 2 2 2 2 2 2 2 2
left_child=1 2 4 8 6 -3 7 -1 -4 -9 -11 -6
right_child=-2 5 3 -5 11 -7 -8 9 -10 10 -12 -13
leaf_value=-0.006050729479289205 0.016673424326419904 0.019224181855747632 0.0030334887645542823 0.019391443063097213 -0.0072505788834923181 -0.0037326075129444944 -0.026779409548890264 -0.0070573822603046095 -0.010093630632842101 -0.020893514876620414 -0.0097573833485104702 0.0022997082564824929
leaf_weight=18.036026909947395 113.5051754117012 43.610179096460342 10.24188821017742 13.91749185323715 18.421468019485477 10.33417424559593 25.400483503937721 14.163704216480253 35.673228293657303 68.528181180357933 12.615092739462851 11.014281406998633
leaf_count=74 507 191 43 59 75 43 102 57 145 275 51 45
internal_value=0 -0.00653354 -0.0115885 -0.000657112 -0.015419 0.0146472 -0.0179084 -0.0158277 -0.00695453 -0.0175736 -0.0192862 -0.00334968
internal_weight=0 281.956 228.012 59.8326 168.179 53.9444 138.743 113.343 45.9151 95.307 81.1433 29.4357
internal_count=1667 1160 926 247 679 234 559 457 188 383 326 120
is_linear=0
shrinkage=0.0135542


Tree=19
num_leaves=13
num_cat=0
split_feature=6 5 14 2 1 3 6 2 6 13 13 6
split_gain=231.886 159.994 49.7228 40.8761 39.5326 25.6603 25.0933 9.96294 9.63826 7.35274 3.86195 5.49054
threshold=672.8839069022514 3.5000000000000004 1.0991397563852079 14.500000000000002 1.0000000180025095e-35 12.66388957912673 569.05873298594281 11.500000000000002 470.05369324247812 0.1927888770372658 0.19994196752807789 642.93220856714709
decision_type=2 2 2 2 2 2 2 2 2 2 2 2
left_child=1 2 5 -2 7 8 -3 -4 -1 -10 -11 -12
right_child=3 6 4 -5 -6 -7 -8 -9 9 10 11 -13
leaf_value=-0.0076420136796168355 0.019056991077493438 0.019072498146598459 -0.0032130552241967036 -0.0094872698899883933 0.019216812072949351 -0.0032986539951331871 -0.0036795948302049681 -0.01909356477561289 -0.022491692218027104 -0.0061388963773729814 -0.019756400168293751 -0.0068511733121899591
leaf_weight=18.555087313055992 103.27916011214256 43.3631511926651 36.057729795575142 9.6266537606716138 13.854340016841887 29.446592152118683 10.341396123170851 9.8884056657552701 65.77525483071804 10.944147467613218 32.904203310608864 10.63331216573715
leaf_count=75 468 191 148 39 59 120 43 40 264 44 132 44
internal_value=0 -0.00645067 -0.0114308 0.0165354 -0.000643888 -0.0152061 0.0145115 -0.00685279 -0.0176609 -0.0191237 -0.0148687 -0.0168345
internal_weight=0 281.764 228.059 112.906 59.8005 168.259 53.7045 45.9461 138.812 120.257 54.4817 43.5375
internal_count=1667 1160 926 507 247 679 234 188 559 484 220 176
is_linear=0
shrinkage=0.0135542


Tree=20
num_leaves=13
num_cat=0
split_feature=6 5 14 3 6 8 10 9 10 9 8 9
split_gain=226.714 155.924 48.3411 24.9629 24.653 21.0231 17.4377 30.9992 11.3929 18.6206 99.8739 10.8706
threshold=672.8839069022514 3.5000000000000004 1.0991397563852079 12.9001666626028 569.05873298594281 1.0000000180025095e-35 1.0000000180025095e-35 1.0000000180025095e-35 1.0000000180025095e-35 1.0000000180025095e-35 1.0000000180025095e-35 1.0000000180025095e-35
decision_type=2 2 2 2 2 2 2 2 2 2 2 2
left_child=1 2 3 8 -3 6 7 -4 9 10 -1 -5
right_child=-2 4 5 11 -6 -7 -8 -9 -10 -11 -12 -13
leaf_value=0.022316292818032692 0.01640821140971107 0.018924307531680312 0.021095122551003497 0.0032016164570879903 -0.0036273952367379251 -0.018295375443680227 -0.01137653406673658 -0.0032102317713098905 -0.026124149632501512 -0.019612465727243966 -0.02200719522879438 -0.013989381630488851
leaf_weight=13.479437738656996 112.23607620596886 43.112324133515358 17.041418895125389 17.524077072739601 10.348452836275099 10.353727638721464 11.518394276499746 20.852911382913589 25.42958328127861 72.033937066793442 29.414526328444481 10.437125265598299
leaf_count=56 507 191 73 72 43 42 47 85 102 289 118 42
internal_value=0 -0.00637087 -0.0112781 -0.0149987 0.0143783 -0.000635366 0.00287881 0.00747347 -0.017343 -0.0153089 -0.00784637 -0.0028781
internal_weight=0 281.546 228.085 168.319 53.4608 59.7665 49.4127 37.8943 140.357 114.928 42.894 27.9612
internal_count=1667 1160 926 679 234 247 205 158 565 463 174 114
is_linear=0
shrinkage=0.0135542


Tree=21
num_leaves=13
num_cat=0
split_feature=6 5 14 2 1 3 6 10 9 8 9 2
split_gain=221.594 151.997 46.9992 40.385 38.3379 24.3317 24.2246 10.8327 19.0169 96.8373 9.88249 9.54752
threshold=672.8839069022514 3.5000000000000004 1.0991397563852079 14.500000000000002 1.0000000180025095e-35 12.66388957912673 569.05873298594281 1.0000000180025095e-35 1.0000000180025095e-35 1.0000000180025095e-35 1.0000000180025095e-35 11.500000000000002
decision_type=2 2 2 2 2 2 2 2 2 2 2 2
left_child=1 2 5 -2 11 7 -3 8 9 -1 -7 -4
right_child=3 6 4 -5 -6 10 -8 -9 -10 -11 -12 -13
leaf_value=0.022105160733191295 0.018811088977036632 0.01877947593140307 -0.0031576249024945391 -0.0095874868338794942 0.019007166768069819 0.0027287627065790791 -0.0035759930937896848 -0.025764580773802729 -0.019571638015494656 -0.021657863560728536 -0.013008419728099569 -0.018707817060457477
leaf_weight=13.424423098564146 102.00662863254547 42.85794098675251 36.047535210847855 9.6198403537273389 13.762304365634916 17.766067862510681 10.355348512530325 25.435399010777473 70.793545737862587 29.166630387306213 11.694728791713716 9.9029963314533216
leaf_count=56 468 191 148 39 59 73 43 102 284 117 47 40
internal_value=0 -0.00629336 -0.0111314 0.0162748 -0.000629331 -0.0147996 0.0142476 -0.0171907 -0.015175 -0.00763029 -0.0031973 -0.00673064
internal_weight=0 281.207 227.994 111.626 59.7128 168.281 53.2133 138.82 113.385 42.5911 29.4608 45.9505
internal_count=1667 1160 926 507 247 679 234 559 457 173 120 188
is_linear=0
shrinkage=0.0135542


Tree=22
num_leaves=13
num_cat=0
split_feature=6 6 2 1 8 9 10 14 10 9 8 6
split_gain=216.675 70.3763 39.6618 26.3586 24.558 47.0556 43.1815 16.3402 11.0852 24.659 116.265 10.8874
threshold=672.8839069022514 541.31837878967053 14.500000000000002 1.0000000180025095e-35 1.0000000180025095e-35 1.0000000180025095e-35 1.0000000180025095e-35 0.91722937229482604 1.0000000180025095e-35 1.0000000180025095e-35 1.0000000180025095e-35 642.93220856714709
decision_type=2 2 2 2 2 2 2 2 2 2 2 2
left_child=1 4 -2 8 5 6 -1 -5 9 10 -3 -11
right_child=2 3 -4 7 -6 -7 -8 -9 -10 11 -12 -13
leaf_value=0.020584330627819784 0.018683617874247372 0.021878995739199814 -0.0094487353030349459 -0.0094063726761862872 -0.012016930743315101 -0.0066576768361883585 -0.0037887175927805846 0.014594823510439317 -0.022098928655419979 -0.019708440909008532 -0.022154176847376583 -0.0044712556316641536
leaf_weight=39.006122380495071 101.31545799970627 18.528897687792778 9.6292196959257108 10.378101229667665 19.603633597493172 39.91150788962841 19.363066926598549 10.109057798981665 28.249503120779991 56.642244279384613 26.824629351496696 12.22989562153816
leaf_count=173 468 78 39 42 80 163 81 43 114 228 108 50
internal_value=0 -0.00621684 0.0161525 -0.0119942 0.00168873 0.00452421 0.0123355 0.00196887 -0.01407 -0.0119938 -0.00394839 -0.0171468
internal_weight=0 280.847 110.945 162.962 117.884 98.2807 58.3692 20.4872 142.475 114.226 45.3535 68.8721
internal_count=1667 1160 507 663 497 417 254 85 578 464 186 278
is_linear=0
shrinkage=0.0135542


Tree=23
num_leaves=13
num_cat=0
split_feature=6 5 2 11 6 1 10 8 4 3 6 6
split_gain=211.883 146.409 38.957 34.5549 23.509 22.9116 12.9933 19.161 12.6102 11.9409 11.5116 10.9246
threshold=672.8839069022514 3.5000000000000004 14.500000000000002 1.0000000180025095e-35 541.31837878967053 1.0000000180025095e-35 1.0000000180025095e-35 1.0000000180025095e-35 3.5000000000000004 10.001435723547399 642.93220856714709 533.73426597831087
decision_type=2 2 2 2 2 2 2 2 2 2 2 2
left_child=1 3 -2 9 -3 6 7 10 -7 -1 11 -5
right_child=2 4 -4 5 -6 8 -8 -9 -10 -11 -12 -13
leaf_value=-0.0081662703548905907 0.018558980228554029 0.019674380693087187 -0.00931253611099748 -0.0048671222166891846 0 0.0078780384136851386 -0.023158379077971605 -0.022424349816205173 -0.011072555985999176 0.0069022109743712614 0.0013825591650649658 -0.015520939249567723
leaf_weight=16.41344290971756 100.61835609376431 38.276629135012627 9.6380459666252118 31.12820740044117 14.578515484929083 13.121681213378908 33.093040019273758 31.923262625932693 12.391915395855902 23.12606406211853 12.878344118595122 53.630696162581444
leaf_count=68 468 173 39 126 61 55 133 128 50 97 53 216
internal_value=0 -0.00614054 0.0160327 -0.0108819 0.0140968 -0.0133039 -0.0151816 -0.013064 -0.000949371 0.000400618 -0.00989785 -0.0117259
internal_weight=0 280.562 110.256 227.707 52.8551 188.167 162.654 129.561 25.5136 39.5395 97.6372 84.7589
internal_count=1667 1160 507 926 234 761 656 523 105 165 395 342
is_linear=0
shrinkage=0.0135542


Tree=24
num_leaves=13
num_cat=0
split_feature=6 5 2 1 14 10 9 8 6 3 3 13
split_gain=189.239 156.456 70.0955 29.623 29.0038 20.0921 36.3762 172.028 13.5979 6.54222 3.65079 2.98377
threshold=672.8839069022514 3.5000000000000004 18.500000000000004 1.0000000180025095e-35 1.0281475836895742 1.0000000180025095e-35 1.0000000180025095e-35 1.0000000180025095e-35 581.85000000000002 12.200891527462629 11.901302129667377 0.14919257818890172
decision_type=2 2 2 2 2 2 2 2 2 2 2 2
left_child=1 3 -2 5 -5 6 7 -1 -3 11 -7 -8
right_child=2 8 -4 4 -6 10 9 -9 -10 -11 -12 -13
leaf_value=0.021974524984635362 0.018395561919060961 0.018402224055078714 -0.017177908268033549 -0.010064902332396763 0.019191066596231939 -0.024926256556907823 -0.0094497311787683762 -0.020325812825266326 0 -0.0081502413769837974 -0.013230375831210032 -0.018888980220833611
leaf_weight=30.301289334893227 107.60130770504475 44.653368502855301 10.932219892740248 12.872172966599466 11.690561309456823 24.366237074136734 11.985549867153166 42.092655494809151 9.658730670809744 22.593103647232056 11.910750761628149 61.403058752417564
leaf_count=128 504 201 44 52 51 98 48 169 40 91 48 247
internal_value=0 -0.00535915 0.0150291 -0.0102856 0.00347251 -0.0119845 -0.00990139 -0.00248481 0.0152475 -0.0153916 -0.0213685 -0.0174843
internal_weight=0 283.527 118.534 229.215 24.5627 204.653 168.376 72.3939 54.3121 95.9817 36.277 73.3886
internal_count=1721 1173 548 932 103 829 683 297 241 386 146 295
is_linear=0
shrinkage=0.0135542


Tree=25
num_leaves=13
num_cat=0
split_feature=6 5 2 8 9 3 6 3 13 6 14 2
split_gain=185.129 152.693 68.6879 25.6267 60.153 15.4653 13.3733 12.8382 4.96765 4.0491 3.95737 5.57479
threshold=672.8839069022514 3.5000000000000004 18.500000000000004 1.0000000180025095e-35 1.0000000180025095e-35 13.706968021324693 581.85000000000002 8.8002716732118689 0.19773110191549151 580.75000000000011 0.56522205950876558 19.500000000000004
decision_type=2 2 2 2 2 2 2 2 2 2 2 2
left_child=1 3 -2 4 7 10 -3 -1 9 -9 -6 -12
right_child=2 6 -4 -5 5 -7 -8 8 -10 -11 11 -13
leaf_value=-0.0086035272656052302 0.018276271026893855 0.018264805344482691 -0.016925670054230159 -0.019378291758332417 -0.020808687798213713 1.6417944605835326e-05 0 0.0039306747104917925 0.0094327768559380569 -0.0056393701843807965 -0.011148233958215294 -0.022250919382315239
leaf_weight=18.828981548547745 106.84105086326599 44.381629481911659 10.945154517889021 45.73167473077774 32.629138708114624 10.648565247654913 9.658730670809744 27.815685138106346 21.505912765860558 10.978228077292441 47.381303295493126 13.472151339054106
leaf_count=77 504 201 44 184 131 43 40 116 91 45 191 54
internal_value=0 -0.00529671 0.0149191 -0.0101584 -0.0078017 -0.0145756 0.0151188 0.000992533 0.00415262 0.000970424 -0.0163408 -0.0137761
internal_weight=0 283.032 117.786 228.992 183.26 104.131 54.0404 79.1288 60.2998 38.7939 93.4826 60.8535
internal_count=1721 1173 548 932 748 419 241 329 252 161 376 245
is_linear=0
shrinkage=0.0135542


Tree=26
num_leaves=13
num_cat=0
split_feature=6 5 2 1 4 10 9 8 6 7 3 3
split_gain=181.088 148.96 67.3174 28.6073 22.9179 20.1261 35.0116 165.579 13.1548 7.1206 7.24488 3.46024
threshold=672.8839069022514 3.5000000000000004 18.500000000000004 1.0000000180025095e-35 2.5000000000000004 1.0000000180025095e-35 1.0000000180025095e-35 1.0000000180025095e-35 581.85000000000002 272.50000000000006 12.173406539569365 11.901302129667377
decision_type=2 2 2 2 2 2 2 2 2 2 2 2
left_child=1 3 -2 5 -5 6 7 -1 -3 -8 -11 -7
right_child=2 8 -4 4 -6 11 9 -9 -10 10 -12 -13
leaf_value=0.021767066618328557 0.018159508821009428 0.018130265477840749 -0.016679825141640549 0.01986931234973582 -0.0066511469697462435 -0.024568133727941848 -0.023339738527257181 -0.019811114863041334 0 -0.015355682284724401 -0.0048773371298733914 -0.013093309809684083
leaf_weight=30.13265161216259 106.07597897946835 44.107065603137016 10.956343486905096 9.7398457825183886 14.759612277150152 24.352214470505714 18.168160751461983 42.044250160455704 9.658730670809744 58.68161478638649 19.114804491400719 11.915477395057676
leaf_count=128 504 201 44 43 60 98 73 169 40 236 77 48
internal_value=0 -0.00523167 0.0148114 -0.0100257 0.00350974 -0.0116956 -0.00961002 -0.00231672 0.0149923 -0.0149919 -0.0129088 -0.0210804
internal_weight=0 282.674 117.032 228.909 24.4995 204.409 168.141 72.1769 53.7658 95.9646 77.7964 36.2677
internal_count=1721 1173 548 932 103 829 683 297 241 386 313 146
is_linear=0
shrinkage=0.0135542


Tree=27
num_leaves=13
num_cat=0
split_feature=6 5 2 11 3 9 6 3 10 10 9 4
split_gain=177.19 145.408 65.9828 32.2389 17.83 14.5507 12.9421 10.1407 9.88101 7.10248 19.5215 7.40573
threshold=672.8839069022514 3.5000000000000004 18.500000000000004 1.0000000180025095e-35 12.1030058846898 1.0000000180025095e-35 581.85000000000002 10.001435723547399 1.0000000180025095e-35 1.0000000180025095e-35 1.0000000180025095e-35 4.5000000000000009
decision_type=2 2 2 2 2 2 2 2 2 2 2 2
left_child=1 3 -2 5 9 7 -3 -1 -6 10 11 -5
right_child=2 6 -4 4 8 -7 -8 -9 -10 -11 -12 -13
leaf_value=-0.0028189747803867601 0.018045187699044219 0.017998497755265457 -0.016440095567983568 -0.0017745809387015342 -0.0017554698076960502 -0.0098713669337417414 0 0.012801303002797729 -0.017434224342010019 -0.022450157307081036 -0.018056010747762974 -0.014195134252945702
leaf_weight=12.227835610508921 105.30655959248543 43.82989002764225 10.965852573513983 29.715354844927788 38.783164590597153 16.639589324593544 9.658730670809744 17.139966040849686 9.7006174176931363 23.563813224434853 66.800945311784744 14.065902620553969
leaf_count=51 504 201 44 122 158 67 40 74 39 95 269 57
internal_value=0 -0.00517177 0.0147058 -0.00990384 -0.0124586 2.85325e-05 0.0148681 0.00597208 -0.0051019 -0.0150433 -0.0133712 -0.00599384
internal_weight=0 282.126 116.272 228.637 182.63 46.0074 53.4886 29.3678 48.4838 134.146 110.582 43.7813
internal_count=1721 1173 548 932 740 192 241 125 197 543 448 179
is_linear=0
shrinkage=0.0135542


Tree=28
num_leaves=13
num_cat=0
split_feature=6 5 11 10 9 8 9 6 13 6 14 0
split_gain=173.384 141.897 31.3718 15.7606 22.1649 130.623 14.1575 12.7351 8.76203 6.79181 4.52481 2.6213
threshold=672.8839069022514 3.5000000000000004 1.0000000180025095e-35 1.0000000180025095e-35 1.0000000180025095e-35 1.0000000180025095e-35 1.0000000180025095e-35 581.85000000000002 0.20446217822320539 642.93220856714709 0.68372211253662385 105.50000000000001
decision_type=2 2 2 2 2 2 2 2 2 2 2 2
left_child=1 2 6 4 5 -4 10 -3 -2 11 -1 -6
right_child=8 7 3 -5 9 -7 -8 -9 -10 -11 -12 -13
leaf_value=-0.00089289701512771638 0.00033089589777113965 0.017869401382275323 0.021792527839004122 -0.021023417078925143 -0.013534752215802952 -0.018971178282397402 -0.0097342156377319047 0 0.015672625192638436 -0.0037394877628137073 0.0096411099749630549 -0.020218060898298515
leaf_weight=9.5112034976482409 8.6934148222208005 43.550306469202042 22.703998312354088 33.247931644320488 47.020546779036522 39.210983127355576 16.645741611719131 9.658730670809744 106.81357944011688 11.313931301236151 19.808411166071892 29.075926780700684
leaf_count=39 39 201 96 134 189 158 67 40 509 46 86 117
internal_value=0 -0.00511052 -0.00977742 -0.0122973 -0.0102853 -0.00386322 2.25733e-05 0.014746 0.0146022 -0.0147203 0.00589664 -0.0162233
internal_weight=0 281.748 228.539 182.573 149.325 61.915 45.9654 53.209 115.507 87.4104 29.3196 76.0965
internal_count=1721 1173 932 740 606 254 192 241 548 352 125 306
is_linear=0
shrinkage=0.0135542


Tree=29
num_leaves=13
num_cat=0
split_feature=6 2 8 9 10 11 2 14 6 6 4 0
split_gain=169.576 64.8751 44.5724 84.6611 174.643 16.4953 10.3638 10.4316 8.1324 7.82972 6.02096 5.21573
threshold=672.8839069022514 18.500000000000004 1.0000000180025095e-35 1.0000000180025095e-35 1.0000000180025095e-35 1.0000000180025095e-35 19.500000000000004 0.59507216644168526 542.63627384318522 516.58633826726475 3.5000000000000004 74.500000000000014
decision_type=2 2 2 2 2 2 2 2 2 2 2 2
left_child=2 -2 3 4 -1 -6 7 9 -4 -5 11 -9
right_child=1 -3 8 6 5 -7 -8 10 -10 -11 -12 -13
leaf_value=0.020616446624568206 0.017842711701410274 -0.016369353550371089 -0.0092376819342568153 -0.0044274674954808621 0.0010859250431828852 -0.017906796028921111 -0.018238223355011261 -0.016574152515330731 -0.021375779695855055 -0.019498090601412891 0.00087294579621482278 -0.0043559953681783139
leaf_weight=64.016696333885193 103.88940151035786 10.968416184186934 21.05216871201992 11.803621411323546 9.6412279456853849 37.060985863208771 26.200422868132591 9.8935468792915326 29.869929894804955 21.020115375518799 21.373351722955704 29.269036069512367
leaf_count=287 504 44 86 49 41 151 106 40 121 85 87 120
internal_value=0 0.0144875 -0.00505207 -0.00246387 0.0060202 -0.0137806 -0.0104011 -0.00809225 -0.016557 -0.0143834 -0.00451513 -0.00770119
internal_weight=0 114.858 281.201 230.279 110.719 46.7022 119.56 93.3597 50.9221 32.8237 60.5359 39.1626
internal_count=1721 548 1173 966 479 192 487 381 207 134 247 160
is_linear=0
shrinkage=0.0135542


Tree=30
num_leaves=13
num_cat=0
split_feature=6 2 8 11 10 6 13 14 6 13 14 6
split_gain=165.962 63.6044 43.3689 39.7641 36.9561 12.6316 23.1495 9.23405 7.92454 7.40722 7.84225 5.8922
threshold=672.8839069022514 18.500000000000004 1.0000000180025095e-35 1.0000000180025095e-35 1.0000000180025095e-35 595.39605199481241 0.21883787147322051 0.56048793348198844 542.63627384318522 0.20512467945883814 0.59507216644168526 576.35000000000014
decision_type=2 2 2 2 2 2 2 2 2 2 2 2
left_child=2 -2 3 7 5 9 -7 -1 -4 10 -5 -12
right_child=1 -3 8 4 -6 6 -8 -9 -10 -11 11 -13
leaf_value=-0.0021803432189348364 0.017734837600350474 -0.016137181342345527 -0.00911117008299373 -0.0040655846698655638 -0.017665842496485097 -0.01695238029935113 0.0045089570799703689 0.010621806506962757 -0.021108792439212622 -0.010081382726177554 0.0022629777520822066 0.014012700228615524
leaf_weight=12.132930085062979 103.11012302339077 10.975837886333464 21.055611550807953 28.978521928191185 37.057761147618294 24.414315164089203 13.859965786337851 42.386652290821075 29.838371261954308 11.288845881819723 49.560581296682358 10.161059588193892
leaf_count=51 504 44 86 121 151 99 58 186 121 46 212 42
internal_value=0 0.0143875 -0.00499371 -0.00243613 -0.00561179 -0.00230752 -0.00893063 0.00759557 -0.0163446 0.000132946 0.00154538 0.00443086
internal_weight=0 114.086 280.735 229.841 175.321 138.263 38.2743 54.5196 50.894 99.989 88.7002 59.7216
internal_count=1721 548 1173 966 729 578 157 237 207 421 375 254
is_linear=0
shrinkage=0.0135542


Tree=31
num_leaves=13
num_cat=0
split_feature=6 2 8 9 10 3 11 6 11 6 7 0
split_gain=162.387 62.366 42.2413 82.67 168.791 17.0799 15.5106 7.72666 6.39541 5.24547 3.22857 5.05317
threshold=672.8839069022514 18.500000000000004 1.0000000180025095e-35 1.0000000180025095e-35 1.0000000180025095e-35 12.1030058846898 1.0000000180025095e-35 542.63627384318522 1.0000000180025095e-35 562.00736155176492 304.50000000000006 76.500000000000014
decision_type=2 2 2 2 2 2 2 2 2 2 2 2
left_child=2 -2 3 4 -1 8 -6 -4 -5 -8 -10 -12
right_child=1 -3 7 5 6 -7 9 -9 10 -11 11 -13
leaf_value=0.020445275252313672 0.017629097766222384 -0.015910541074171766 -0.0089867666947903452 -0.0037588129229147059 0.0009686327174937057 -0.001512470467625241 -0.010644362158252737 -0.020849404121019877 -0.018400651084681648 -0.022570475181380011 -0.019959085145585993 -0.0076744261969198483
leaf_weight=63.509743452072144 102.32814285159111 10.981724366545675 21.05817799270153 13.41396591067314 9.6222670227289182 32.488292783498764 16.82297956943512 29.800785318017006 36.23153330385685 20.226081028580666 10.645761072635649 26.720453947782516
leaf_count=287 504 44 86 55 41 133 69 121 147 82 43 109
internal_value=0 0.0142893 -0.00493044 -0.00240478 0.00600771 -0.0102418 -0.0134318 -0.0161371 -0.013388 -0.0174307 -0.015009 -0.011448
internal_weight=0 113.31 280.54 229.681 110.181 119.5 46.6713 50.859 87.0117 37.0491 73.5977 37.3662
internal_count=1721 548 1173 966 479 487 192 207 354 151 299 152
is_linear=0
shrinkage=0.0135542


Tree=32
num_leaves=13
num_cat=0
split_feature=6 2 11 6 10 9 8 9 6 3 6 12
split_gain=152.006 67.7954 38.8651 24.3237 15.5243 31.1488 113.794 11.8346 11.0787 6.7007 6.10454 5.71839
threshold=653.56292684259415 20.500000000000004 1.0000000180025095e-35 507.16264966195814 1.0000000180025095e-35 1.0000000180025095e-35 1.0000000180025095e-35 1.0000000180025095e-35 489.6561984954642 10.052779422889946 667.62777068014077 0.51372722235902502
decision_type=2 2 2 2 2 2 2 2 2 2 2 2
left_child=2 10 7 8 5 6 -5 9 11 -1 -2 -4
right_child=1 -3 3 4 -6 -7 -8 -9 -10 -11 -12 -13
leaf_value=0.0007286048271470132 0.0067337145753475769 -0.016170445079000124 -0.00011296498845807102 0.02117613190147145 -0.019870255245020989 -0.015407251496975924 -0.017789692198435979 -0.0057557650699890384 0.0086684977469260287 0.014151139381560875 0.017335019530753948 -0.011642518912682013
leaf_weight=12.470921635627745 14.776603341102598 13.210624694824217 22.731126174330711 23.558529958128929 32.24634250998497 63.456878393888474 32.930313885211945 12.193657353520392 16.3136365711689 21.05328606069088 94.452644184231758 13.731335550546644
leaf_count=54 63 53 96 102 131 257 134 50 72 95 468 56
internal_value=0 0.0124393 -0.00598324 -0.00852158 -0.0112736 -0.00887686 -0.0013648 0.0051831 -0.000399974 0.00945235 0.015992 -0.00472695
internal_weight=0 122.44 250.686 204.968 152.192 119.946 56.4888 45.7179 52.7761 33.5242 109.229 36.4625
internal_count=1631 584 1047 848 624 493 236 199 224 149 531 152
is_linear=0
shrinkage=0.0135542


Tree=33
num_leaves=13
num_cat=0
split_feature=6 5 2 11 1 6 14 9 3 9 8 6
split_gain=148.615 111.718 66.397 26.0788 17.4802 12.4412 8.66463 8.00503 7.34555 7.20055 20.4673 6.06888
threshold=653.56292684259415 3.5000000000000004 20.500000000000004 1.0000000180025095e-35 1.0000000180025095e-35 533.73426597831087 0.51507211085159066 1.0000000180025095e-35 10.963779335506116 1.0000000180025095e-35 1.0000000180025095e-35 667.62777068014077
decision_type=2 2 2 2 2 2 2 2 2 2 2 2
left_child=1 3 11 7 6 -3 -5 8 -1 10 -8 -2
right_child=2 5 -4 4 -6 -7 9 -9 -10 -11 -12 -13
leaf_value=-0.0019506458302210998 0.0066514990523295764 0.01908830322934018 -0.015952741161188402 -0.019040356532105663 0 0.0030473912501760509 -0.0018669841746362049 -0.0087263993989860067 0.012939149941551641 -0.015622629846132507 -0.018223634808049609 0.017232045797555339
leaf_weight=10.470554798841478 14.757030069828032 28.344662129878998 13.209857434034346 44.947019711136818 18.685190185904503 15.242421895265577 39.653524130582809 10.437304630875586 11.909262180328367 47.448878407478333 23.165587082505226 93.734274372458458
leaf_count=44 63 135 53 183 77 65 164 42 52 191 94 468
internal_value=0 -0.00591166 0.0123459 -0.0100968 -0.0121914 0.0137075 -0.0136823 0.0007089 0.00554793 -0.0114054 -0.00805933 0.0158846
internal_weight=0 250.304 121.701 206.717 173.9 43.5871 155.215 32.8171 22.3798 110.268 62.8191 108.491
internal_count=1631 1047 584 847 709 200 632 138 96 449 258 531
is_linear=0
shrinkage=0.0135542


Tree=34
num_leaves=13
num_cat=0
split_feature=6 2 6 9 8 10 1 8 9 10 12 6
split_gain=145.322 65.0334 37.3308 23.2854 44.5753 46.6702 12.0739 9.64049 19.9397 84.4548 6.71719 6.671
threshold=653.56292684259415 20.500000000000004 548.50000000000011 1.0000000180025095e-35 1.0000000180025095e-35 1.0000000180025095e-35 1.0000000180025095e-35 1.0000000180025095e-35 1.0000000180025095e-35 1.0000000180025095e-35 0.47718640554828151 489.6561984954642
decision_type=2 2 2 2 2 2 2 2 2 2 2 2
left_child=2 -2 3 4 5 -1 7 8 9 -4 -7 -6
right_child=1 -3 6 -5 11 10 -8 -9 -10 -11 -12 -13
leaf_value=0.01972075985097349 0.015778902975851099 -0.015739963918172461 0.02112820889585745 -0.0088742818787230469 -0.020362125188231269 0.0013592402493551401 0.0003537483393659497 -0.02024730879737692 -0.015812439286106105 -0.018728655206829852 -0.013642482729644717 -0.0046565267368053618
leaf_weight=36.282971292734146 107.75193665921688 13.207423239946364 16.07918381690979 39.768507957458496 9.6835858821868914 9.695415675640108 13.971102192997931 24.698543131351471 50.317560315132141 24.548692911863327 10.115195214748381 14.712860733270643
leaf_count=169 531 53 69 163 39 41 58 101 204 100 42 61
internal_value=0 0.012254 -0.00584244 -0.000319707 0.00378851 0.010529 -0.0108904 -0.0123323 -0.0100697 -0.00271198 -0.00582222 -0.0113062
internal_weight=0 120.959 249.874 120.259 80.49 56.0936 129.615 115.644 90.9454 40.6279 19.8106 24.3964
internal_count=1631 584 1047 515 352 252 532 474 373 169 83 100
is_linear=0
shrinkage=0.0135542


Tree=35
num_leaves=13
num_cat=0
split_feature=6 5 2 11 14 6 9 8 3 14 13 6
split_gain=142.079 107.811 63.6825 25.0493 13.8672 12.0997 10.8925 17.3028 8.59653 7.76062 7.35127 6.16571
threshold=653.56292684259415 3.5000000000000004 20.500000000000004 1.0000000180025095e-35 0.83685692003312939 533.73426597831087 1.0000000180025095e-35 1.0000000180025095e-35 12.327276267808768 0.60413227704249006 0.14211083422758333 667.62777068014077
decision_type=2 2 2 2 2 2 2 2 2 2 2 2
left_child=1 3 11 9 8 -3 7 -6 10 -1 -5 -2
right_child=2 5 -4 4 6 -7 -8 -9 -10 -11 -12 -13
leaf_value=-0.0089712636446793986 0.0063778039445111052 0.018938154410919537 -0.01553191409555608 -0.0055852571368989355 0.0025837511306452381 0.0030649100761408073 -0.013863845195540982 -0.015468411015285828 -0.0050120990199542951 0.0053165334345279831 -0.018678720003254452 0.017039473271286198
leaf_weight=9.846213757991789 14.689852997660635 28.021210789680481 13.203390121459959 11.343608275055884 31.066162884235382 15.222283586859701 28.32574787735939 13.821350798010824 15.316484197974203 22.873077437281609 73.551390752196312 92.350753292441368
leaf_count=40 63 135 53 46 130 65 114 56 62 98 301 468
internal_value=0 -0.00577553 0.0121593 -0.00988454 -0.0119402 0.013581 -0.00719645 -0.00276628 -0.0153057 0.00071637 -0.0170461 0.0156692
internal_weight=0 249.388 120.244 206.144 173.425 43.2435 73.2133 44.8875 100.211 32.7193 84.895 107.041
internal_count=1631 1047 584 847 709 200 300 186 409 138 347 531
is_linear=0
shrinkage=0.0135542


Tree=36
num_leaves=13
num_cat=0
split_feature=6 5 11 1 10 8 6 8 14 14 6 13
split_gain=138.943 105.233 24.4206 16.7378 12.0857 16.4924 11.9491 11.0572 7.89241 7.55658 6.58717 5.44256
threshold=653.56292684259415 3.5000000000000004 1.0000000180025095e-35 1.0000000180025095e-35 1.0000000180025095e-35 1.0000000180025095e-35 533.73426597831087 1.0000000180025095e-35 0.51507211085159066 0.60413227704249006 674.13249166437583 0.14998828087584656
decision_type=2 2 2 2 2 2 2 2 2 2 2 2
left_child=1 2 9 4 5 8 -3 10 -4 -1 -2 -10
right_child=7 6 3 -5 -6 -7 -8 -9 11 -11 -12 -13
leaf_value=-0.008849456780976794 0.0052989911596986183 0.01882822477746899 -0.014920889561971348 0 -0.021229686721592245 -0.01908203411289542 0.0030255053427722077 0.0007632269378185704 0.0019759369366915704 0.0052502423787106874 0.015299490581325379 -0.0072188290216327732
leaf_weight=9.8468942344188672 17.844341635704041 27.804458528757095 22.757205352187157 18.672454997897148 30.757164835929871 36.193941041827202 15.212028145790098 15.62503671646118 13.369823455810545 22.848523512482643 86.027845442295074 51.46657757461071
leaf_count=40 77 135 93 77 125 148 65 74 55 98 433 211
internal_value=0 -0.00570831 -0.00976367 -0.011795 -0.0132597 -0.0111961 0.0134715 0.0120702 -0.00782106 0.000703142 0.013677 -0.00517338
internal_weight=0 248.929 205.913 173.217 154.545 123.788 43.0165 119.497 87.5936 32.6954 103.872 64.8364
internal_count=1631 1047 847 709 632 507 200 584 359 138 510 266
is_linear=0
shrinkage=0.0135542


Tree=37
num_leaves=13
num_cat=0
split_feature=13 5 2 11 8 10 14 13 2 14 7 7
split_gain=92.1842 81.8679 48.2995 39.0288 22.5195 26.9894 15.1591 11.8744 9.2107 7.63463 7.53476 5.58058
threshold=0.23503995767023064 3.5000000000000004 12.500000000000002 1.0000000180025095e-35 1.0000000180025095e-35 1.0000000180025095e-35 0.51507211085159066 0.17247416469529478 20.500000000000004 0.56048793348198844 252.50000000000003 313.50000000000006
decision_type=2 2 2 2 2 2 2 2 2 2 2 2
left_child=1 3 10 9 5 6 -5 -3 11 -1 -2 -8
right_child=2 7 -4 4 -6 -7 8 -9 -10 -11 -12 -13
leaf_value=-0.0048811847140760494 0.0041067300955919678 0.018563917708429141 -0.017752120896474658 -0.012507836316097856 -0.018574420705836838 -0.017055934243627016 -0.002509475004037834 0.0030436469252711497 -0.010168367750138196 0.0084283681942362212 0.016785223258349392 0.0050807937340335736
leaf_weight=9.7191123813390714 12.234054550528525 27.555635750293732 8.8659935146570188 26.95411279797554 41.979890093207359 37.822448506951332 33.365986987948418 15.960314214229582 15.618092954158781 30.129626840353012 71.152795150876045 36.024897873401642
leaf_count=41 56 133 36 112 173 157 138 71 64 133 359 158
internal_value=0 -0.0038725 0.0117816 -0.00710468 -0.00965805 -0.00709088 -0.00363402 0.0131007 -0.000702678 0.00493787 0.0150436 0.00129206
internal_weight=0 275.13 92.2528 231.614 191.765 149.786 111.963 43.5159 85.009 39.8487 83.3868 69.3909
internal_count=1631 1180 451 976 802 629 472 204 360 174 415 296
is_linear=0
shrinkage=0.0135542


Tree=38
num_leaves=13
num_cat=0
split_feature=13 5 2 11 14 13 7 13 14 7 13 0
split_gain=90.1455 79.9413 47.2776 38.0148 18.632 11.7172 10.8455 27.1387 7.45184 7.45029 4.7219 5.3103
threshold=0.23503995767023064 3.5000000000000004 12.500000000000002 1.0000000180025095e-35 0.51507211085159066 0.17247416469529478 314.50000000000006 0.19390022675736965 0.56048793348198844 252.50000000000003 0.14998828087584656 119.50000000000001
decision_type=2 2 2 2 2 2 2 2 2 2 2 2
left_child=1 3 9 8 -5 -3 -6 10 -1 -2 -8 -12
right_child=2 5 -4 4 6 -7 7 -9 -10 -11 11 -13
leaf_value=-0.0048136834166404557 0.004055359508628292 0.018451418049138291 -0.017525444996886394 -0.016548546504961219 -0.010286289789251862 0.0030050150069494785 -0.001472471294245465 0.011552839687299418 0.0083314268619175003 0.016679131409332269 -0.0159357471732753 -0.0025936561595193038
leaf_weight=9.7222599387168867 12.22160619497299 27.349476367235184 8.8594113737344724 52.504314795136452 76.428866222500801 15.946901738643644 15.868847027420996 17.690655007958412 30.067874610424042 70.638538554310799 18.587153568863872 10.512409150600432
leaf_count=41 56 133 36 219 314 71 65 84 133 359 76 44
internal_value=0 -0.00382677 0.0116901 -0.00701726 -0.00953802 0.0129924 -0.00681868 -0.00243129 0.00487494 0.0149364 -0.00815242 -0.0114568
internal_weight=0 274.679 91.7196 231.382 191.592 43.2964 139.088 62.6591 39.7901 82.8601 44.9684 29.0996
internal_count=1631 1180 451 976 802 204 583 269 174 415 185 120
is_linear=0
shrinkage=0.0135542


Tree=39
num_leaves=13
num_cat=0
split_feature=6 2 6 9 10 1 6 6 6 9 13 12
split_gain=131.903 60.696 34.1085 22.1216 13.2062 11.5933 9.06361 6.67753 25.3077 12.4132 10.1101 6.36597
threshold=653.56292684259415 20.500000000000004 548.50000000000011 1.0000000180025095e-35 1.0000000180025095e-35 1.0000000180025095e-35 462.25000000000006 603.75000000000011 583.05000000000007 1.0000000180025095e-35 0.22473591221870934 0.47718640554828151
decision_type=2 2 2 2 2 2 2 2 2 2 2 2
left_child=2 -2 3 4 6 7 -1 8 -4 -10 -9 -6
right_child=1 -3 5 -5 11 -7 -8 10 9 -11 -12 -13
leaf_value=-0.0038282315206254777 0.015359221289231405 -0.015152720664732429 -0.015284551343333978 -0.0085919794368231918 0.0014495785894837331 0.00062844188127469491 0.0095251127725964925 -0.020822368159149243 0.010145803119621348 -0.0077845000141507749 -0.0044045465837489004 -0.013211484006917799
leaf_weight=10.341779857873915 104.64426156878471 13.183581620454786 46.098945483565331 39.563726961612701 9.6016733795404452 13.946151256561278 49.337210923433304 29.406698659062386 13.860726222395897 14.238093614578247 11.151022300124167 10.034799128770826
leaf_count=45 531 53 191 163 41 58 224 121 58 58 46 42
internal_value=0 0.0118598 -0.00556032 -0.00024151 0.00380356 -0.0103966 0.00704801 -0.0118207 -0.00909645 0.000717352 -0.0165544 -0.00555963
internal_weight=0 117.828 247.581 118.879 79.3155 128.702 59.679 114.755 74.1978 28.0988 40.5577 19.6365
internal_count=1631 584 1047 515 352 532 269 474 307 116 167 83
is_linear=0
shrinkage=0.0135542


Tree=40
num_leaves=13
num_cat=0
split_feature=6 5 8 9 2 6 3 6 11 7 3 0
split_gain=164.265 117.843 31.1389 57.4208 24.4948 14.0289 13.709 13.1944 8.71056 6.08459 4.57566 3.52216
threshold=672.8839069022514 3.5000000000000004 1.0000000180025095e-35 1.0000000180025095e-35 24.500000000000004 545.85000000000014 8.8002716732118689 642.93220856714709 1.0000000180025095e-35 281.50000000000006 8.4006408870915994 89.500000000000014
decision_type=2 2 2 2 2 2 2 2 2 2 2 2
left_child=1 2 3 6 -2 -3 11 10 -8 -10 -5 -1
right_child=4 5 -4 7 -6 -7 8 -9 9 -11 -12 -13
leaf_value=-0.013590345866498169 0.017528446036383909 0.018378334602993377 -0.019171247073210652 -0.022022920753429868 -0.0070581501595413992 0.0016646716271841481 0.013708313237427768 0 0.0078638486359906556 -0.002009793860211702 -0.013220812940190901 -0.00093553741012831918
leaf_weight=9.8816869556903857 92.564486682415009 36.351436257362366 44.97317598760128 19.067210242152214 7.4885209947824469 14.15087155997753 16.249709486961365 10.673573344945906 18.724550172686577 27.068378373980522 65.122571349143982 9.8957605808973295
leaf_count=41 484 179 184 78 30 60 73 44 79 113 264 41
internal_value=0 -0.00471302 -0.00899691 -0.0063492 0.0155897 0.013891 0.00186719 -0.0135362 0.00509453 0.00181882 -0.0153372 -0.00775963
internal_weight=0 272.159 221.657 176.683 100.053 50.5023 81.8201 94.8634 62.0426 45.7929 84.1898 19.7774
internal_count=1670 1156 917 733 514 239 347 386 265 192 342 82
is_linear=0
shrinkage=0.0135542


Tree=41
num_leaves=13
num_cat=0
split_feature=6 8 10 11 14 7 13 6 12 4 6 14
split_gain=160.921 46.6676 35.0231 19.9536 16.3205 14.6611 11.3774 19.8887 8.04327 4.57513 4.00351 3.42912
threshold=672.8839069022514 1.0000000180025095e-35 1.0000000180025095e-35 1.0000000180025095e-35 0.40527777777777785 321.50000000000006 0.19111904299404303 644.1500000000002 0.52206614509246096 3.5000000000000004 562.00736155176492 0.8301863223511462
decision_type=2 2 2 2 2 2 2 2 2 2 2 2
left_child=1 2 4 -4 10 6 8 -8 -6 -7 -1 -10
right_child=-2 -3 3 -5 5 9 7 -9 11 -11 -12 -13
leaf_value=-0.0028691413306423611 0.015499037366500251 -0.016528933460540074 0.003571365965672378 -0.01622538338429402 0.012779493358036482 0 -0.0061150893331118573 0.014209889762812442 -0.0032015659610766527 -0.0091939661011997062 -0.015837376090170836 0.0063810438760458091
leaf_weight=10.909028783440592 99.271872863173485 49.864600509405136 11.185791626572607 40.364279046654701 38.89076092839241 20.376845419406891 30.438136637210846 12.419604748487471 9.6337750554084796 18.676073744893074 11.023504331707953 17.772956192493439
leaf_count=47 514 206 49 166 177 87 127 55 40 78 46 78
internal_value=0 -0.00465959 -0.00194407 -0.0117423 0.000969421 0.00263657 0.00522688 0 0.00874556 -0.0043539 -0.0098422 0.00265974
internal_weight=0 271.555 221.691 51.5501 170.141 148.208 109.155 42.8577 66.2975 39.0529 21.9325 27.4067
internal_count=1670 1156 950 215 735 642 477 182 295 165 93 118
is_linear=0
shrinkage=0.0135542


Tree=42
num_leaves=13
num_cat=0
split_feature=6 5 8 9 10 6 6 0 3 9 13 4
split_gain=157.534 114.202 29.6313 56.2956 140.455 13.7309 12.7503 4.64688 4.45102 3.3705 3.00311 3.39092
threshold=672.8839069022514 3.5000000000000004 1.0000000180025095e-35 1.0000000180025095e-35 1.0000000180025095e-35 545.85000000000014 642.93220856714709 91.500000000000014 8.4006408870915994 1.0000000180025095e-35 0.19708540290309201 3.5000000000000004
decision_type=2 2 2 2 2 2 2 2 2 2 2 2
left_child=1 2 3 4 -1 -3 8 -6 -5 -2 11 -10
right_child=9 5 -4 6 7 -7 -8 -9 10 -11 -12 -13
leaf_value=0.020846886081796911 0.017280900457088692 0.0182599124888988 -0.018770839208171169 -0.021747337167804158 -0.019899197476977781 0.0016904065062705062 0 -0.0095987316216983361 -0.0055051386875274626 0.010578905139907105 -0.018814566530093144 -0.013990684380001785
leaf_weight=38.454037189483643 69.360017403960228 36.00108103454113 44.776348888874054 18.990633502602577 20.527595520019531 14.148231402039526 10.659789979457853 22.637790650129318 19.33110123872757 29.221898257732391 16.937336221337318 28.769915983080864
leaf_count=170 365 179 184 78 84 60 44 93 78 149 69 117
internal_value=0 -0.00460279 -0.00881845 -0.0062329 0.00191307 0.0137826 -0.013355 -0.0147329 -0.0151275 0.0153967 -0.0130356 -0.0107879
internal_weight=0 271.234 221.085 176.308 81.6194 50.1493 94.6888 43.1654 84.029 98.5819 65.0384 48.101
internal_count=1670 1156 917 733 347 239 386 177 342 514 264 195
is_linear=0
shrinkage=0.0135542


Tree=43
num_leaves=13
num_cat=0
split_feature=13 5 8 7 10 3 4 5 2 13 13 13
split_gain=71.2194 90.5641 37.4393 23.2875 17.7314 13.5811 17.4546 11.4012 14.8886 8.84504 7.80926 5.68192
threshold=0.23329245710455604 3.5000000000000004 1.0000000180025095e-35 240.50000000000003 1.0000000180025095e-35 12.1030058846898 5.5000000000000009 2.5000000000000004 14.500000000000002 0.19214858078636823 0.18571629970911716 0.16625014366083815
decision_type=2 2 2 2 2 2 2 2 2 2 2 2
left_child=1 2 4 -2 5 6 7 8 -1 -6 -3 -7
right_child=3 10 -4 -5 9 11 -8 -9 -10 -11 -12 -13
leaf_value=0 -0.0071915207733963416 0.016582427853232357 -0.018049708536986994 0.01372383700106144 -0.016642053622602106 -0.0036072661073769784 -0.015391541240829115 0.0097338449960091104 -0.015178948085984276 -0.0030540629855880866 0.0011542547531068991 0.0076513025126293231
leaf_weight=53.403515428304672 10.484901756048201 40.092721924185753 41.062632873654366 79.683419033885002 25.100258708000183 9.5697686374187452 20.224487945437431 14.073480889201162 15.640188023447989 16.616842150688171 8.7232418209314329 33.622419402003288
leaf_count=236 47 195 170 410 103 40 85 61 64 72 40 147
internal_value=0 -0.00266989 -0.00626794 0.0111826 -0.00364385 -0.00134807 -0.00406724 -0.00119022 -0.00356077 -0.0114684 0.0140265 0.00493182
internal_weight=0 278.13 229.314 90.1683 188.251 146.534 103.342 83.1172 69.0437 41.7171 48.816 43.1922
internal_count=1670 1213 978 457 808 633 446 361 300 175 235 187
is_linear=0
shrinkage=0.0135542


Tree=44
num_leaves=13
num_cat=0
split_feature=6 8 9 10 2 3 6 14 14 6 0 0
split_gain=152.754 43.3929 69.8121 149.303 24.4833 13.0799 7.58578 12.2375 5.71446 5.92819 4.9486 5.05501
threshold=672.8839069022514 1.0000000180025095e-35 1.0000000180025095e-35 1.0000000180025095e-35 24.500000000000004 12.1030058846898 562.00736155176492 0.82487496462091914 0.65531242612367346 513.19637830058593 74.500000000000014 102.50000000000001
decision_type=2 2 2 2 2 2 2 2 2 2 2 2
left_child=1 2 3 -1 -2 8 7 -5 9 -4 -10 -12
right_child=4 -3 5 6 -6 -7 -8 -9 10 -11 11 -13
leaf_value=0.019884860783814646 0.017243944071479202 -0.016024165609811136 -0.0060735814257933656 -0.016489378651570869 -0.0073760667880062242 -0.0017027549670895817 -0.016441368145034951 0.0026175049630030797 -0.016009262085477528 -0.019827834822962416 0.00094741485308904888 -0.010240933837015841
leaf_weight=61.072405099868774 89.981472492218018 49.532204881310463 10.019616916775702 10.270531728863718 7.4918775856494895 29.793404087424278 27.443875953555107 13.632942900061606 12.005858480930327 29.337603822350502 12.523482874035837 14.231486096978186
leaf_count=288 484 206 42 43 30 123 113 59 49 122 52 59
internal_value=0 -0.0045385 -0.00191046 0.00550896 0.0152504 -0.00972892 -0.0114029 -0.00519871 -0.012664 -0.0165803 -0.00842707 -0.00464746
internal_weight=0 269.863 220.331 112.42 97.4734 107.911 51.3474 23.9035 78.118 39.3572 38.7608 26.755
internal_count=1670 1156 950 503 514 447 215 102 324 164 160 111
is_linear=0
shrinkage=0.0135542


Tree=45
num_leaves=13
num_cat=0
split_feature=6 5 8 9 10 2 6 6 0 3 13 2
split_gain=149.703 108.221 27.5088 53.758 133.359 24.118 13.541 12.3151 4.58079 4.24662 2.95101 3.54879
threshold=672.8839069022514 3.5000000000000004 1.0000000180025095e-35 1.0000000180025095e-35 1.0000000180025095e-35 24.500000000000004 545.85000000000014 642.93220856714709 91.500000000000014 8.4006408870915994 0.19708540290309201 14.500000000000002
decision_type=2 2 2 2 2 2 2 2 2 2 2 2
left_child=1 2 3 4 -1 -2 -3 9 -6 -5 11 -11
right_child=5 6 -4 7 8 -7 -8 -9 -10 10 -12 -13
leaf_value=0.020527562748408761 0.017159668968474397 0.018056967861916674 -0.018225800250393553 -0.021317531785626367 -0.019426196760659448 -0.007277308815149785 0.0015381745221893005 0 -0.0092032704458704269 -0.0078751080254687838 -0.018486526419943958 -0.017632030182834206
leaf_weight=37.935639321804047 89.203233301639557 35.341929882764816 44.442688405513763 18.852531254291534 20.423677682876587 7.4910755008459082 14.090385153889654 10.653824806213377 22.597630620002747 36.002375841140747 16.875443145632744 11.975495368242262
leaf_count=170 484 179 184 78 84 30 60 44 93 146 69 49
internal_value=0 -0.00449012 -0.00859319 -0.0060931 0.00190584 0.0151645 0.0135484 -0.0130568 -0.0142927 -0.014805 -0.0127527 -0.0105227
internal_weight=0 269.192 219.759 175.317 80.9569 96.6943 49.4323 94.3597 43.0213 83.7058 64.8533 47.9779
internal_count=1670 1156 917 733 347 514 239 386 177 342 264 195
is_linear=0
shrinkage=0.0135542


Tree=46
num_leaves=13
num_cat=0
split_feature=13 8 9 10 7 11 3 4 0 7 3 7
split_gain=67.0065 45.3184 84.4873 122.591 22.3723 14.8698 13.9953 6.21776 5.75829 5.124 5.11279 3.96066
threshold=0.23329245710455604 1.0000000180025095e-35 1.0000000180025095e-35 1.0000000180025095e-35 240.50000000000003 1.0000000180025095e-35 12.1030058846898 5.5000000000000009 73.500000000000014 329.50000000000006 7.9045705233496166 321.50000000000006
decision_type=2 2 2 2 2 2 2 2 2 2 2 2
left_child=1 2 3 -1 -2 -5 7 8 -4 -7 -6 -8
right_child=4 -3 6 5 10 9 11 -9 -10 -11 -12 -13
leaf_value=0.019429361397987132 -0.0070963577748215639 -0.014887522604125328 -0.016701012570650219 0.0047412253643574877 0.0034703501979211336 -0.01563398062213284 0.0025031722963503736 -0.019024321347798842 -0.0063987606862108875 -0.0029694705095695789 0.014915220357020484 -0.0073328982896062591
leaf_weight=69.559616878628731 10.407540842890738 45.894502937793732 15.725860238075255 11.066620990633963 10.621467292308806 27.951011210680008 20.514254748821262 18.729798302054405 44.874732702970505 10.029556453227995 67.456663012504578 11.406293094158171
leaf_count=341 47 193 65 49 53 117 86 79 190 44 357 49
internal_value=0 -0.00259394 -9.54179e-05 0.00781942 0.0109526 -0.00845058 -0.00862047 -0.0116788 -0.00923963 -0.01255 0.0134845 -0.000712301
internal_weight=0 275.752 229.858 118.607 88.4857 49.0472 111.251 79.3304 60.6006 37.9806 78.0781 31.9205
internal_count=1670 1213 1020 551 457 210 469 334 255 161 410 135
is_linear=0
shrinkage=0.0135542


Tree=47
num_leaves=13
num_cat=0
split_feature=6 8 9 10 2 11 3 14 6 14 6 12
split_gain=144.828 40.3162 64.8218 141.04 23.7103 18.4132 12.3575 5.52355 5.77775 3.85825 2.7594 1.48445
threshold=672.8839069022514 1.0000000180025095e-35 1.0000000180025095e-35 1.0000000180025095e-35 24.500000000000004 1.0000000180025095e-35 12.1030058846898 0.65531242612367346 513.19637830058593 0.9467932390810897 562.00736155176492 0.66514142215173155
decision_type=2 2 2 2 2 2 2 2 2 2 2 2
left_child=1 2 3 -1 -2 -5 7 8 -4 -8 -7 -9
right_child=4 -3 6 5 -6 10 9 11 -10 -11 -12 -13
leaf_value=0.019530128184319765 0.017028047545309215 -0.015526848045205516 -0.005750704824164083 0.0036685316019267407 -0.0072116146750473425 -0.0097282035775820355 -0.0066958996341614204 -0.0051121791441449717 -0.019358034241730632 0.0028180693254023495 -0.018874757689795095 -0.01190072670677178
leaf_weight=59.786811783909798 87.915490686893463 49.210114479064941 9.9850956201553327 11.125004589557646 7.4890604168176642 16.34489893913269 14.809188544750215 23.126137882471085 29.081589743494987 14.951180830597876 23.682128593325615 15.550015166401861
leaf_count=288 484 206 42 49 30 68 61 96 122 62 98 64
internal_value=0 -0.00442041 -0.00187207 0.00533999 0.0150219 -0.0110581 -0.00940406 -0.0122676 -0.0161357 -0.00159318 -0.0153927 -0.00809968
internal_weight=0 267.652 218.442 110.939 95.4046 51.152 107.503 77.7428 39.0667 29.7604 40.027 38.6762
internal_count=1670 1156 950 503 514 215 447 324 164 123 166 160
is_linear=0
shrinkage=0.0135542


Tree=48
num_leaves=13
num_cat=0
split_feature=6 5 2 3 11 4 13 14 10 12 0 6
split_gain=103.168 81.6973 47.0098 38.0513 19.0725 12.2725 10.8342 9.49132 8.42593 8.01582 7.32027 9.11838
threshold=682.7558226051533 3.5000000000000004 15.500000000000002 13.304300512023715 1.0000000180025095e-35 2.5000000000000004 0.18283855338879387 0.9467932390810897 1.0000000180025095e-35 0.59444546709618062 105.50000000000001 577.703318217434
decision_type=2 2 2 2 2 2 2 2 2 2 2 2
left_child=1 3 -2 4 7 10 -3 -1 -7 -5 11 -6
right_child=2 6 -4 9 5 8 -8 -9 -10 -11 -12 -13
leaf_value=-0.0068654558262817352 0.016673164723257711 0.01663829966551137 -0.015768371822692393 -0.00064844897520373833 -0.020267969084765854 -0.012069918481267938 0 0.007239603492110675 -0.021881795295766091 0.011877834382571699 0.0011149243877021258 -0.0014805240290937782
leaf_weight=20.48457533121109 74.609933272004128 33.030752450227737 8.8888448327779752 17.231899380683899 9.5069988071918505 91.308344215154648 9.5107124745845777 15.044877931475638 23.95230670273304 17.538623407483101 17.345302283763885 11.928551971912382
leaf_count=88 416 163 36 72 39 385 43 67 100 75 74 50
internal_value=0 -0.00416112 0.0130988 -0.00745441 -0.00986317 -0.0119318 0.0129707 -0.000619064 -0.0141986 0.00539681 -0.0049387 -0.0102827
internal_weight=0 266.883 83.4988 224.341 189.571 154.042 42.5415 35.5295 115.261 34.7705 38.7809 21.4356
internal_count=1608 1156 452 950 803 648 206 155 485 147 163 89
is_linear=0
shrinkage=0.0135542


Tree=49
num_leaves=13
num_cat=0
split_feature=6 11 3 6 14 4 0 6 12 6 6 7
split_gain=101.039 26.7976 20.9901 16.1142 11.6171 9.39312 8.92065 7.49128 7.33792 6.06531 6.02156 5.84256
threshold=682.7558226051533 1.0000000180025095e-35 13.203913836288189 508.97977690536402 0.53511505853572949 2.5000000000000004 84.500000000000014 491.83857975859871 0.58745124512451263 647.45000000000016 553.20930342348731 345.50000000000006
decision_type=2 2 2 2 2 2 2 2 2 2 2 2
left_child=1 4 3 6 -1 -5 -3 -8 -4 10 -6 -7
right_child=-2 2 8 5 9 11 7 -9 -10 -11 -12 -13
leaf_value=-0.0078739661061502774 0.013023570192410874 -0.01009058844770068 -0.0019816621086188534 -0.0041234413899456472 0.0093157942545956454 -0.013853106173173608 -0.00093806202585568741 0.01344479466815765 0.010619676255668876 0.018267777978523869 -0.0018888640712199441 -0.0011775937606075294
leaf_weight=10.546893179416655 82.837913990020752 14.80157722532749 17.213218539953232 35.171136662364006 20.83047778904438 88.142322704195976 25.352321520447731 8.5507004112005216 15.014168143272398 8.5616962313652021 13.129021912813185 9.0661535859107953
leaf_count=46 452 63 72 149 99 374 113 40 65 40 55 40
internal_value=0 -0.00411289 -0.00627587 -0.00808616 0.00439745 -0.0105485 -0.00119203 0.00241347 0.00359359 0.00767267 0.00470131 -0.0127714
internal_weight=0 266.38 213.312 181.084 53.0681 132.38 48.7046 33.903 32.2274 42.5212 33.9595 97.2085
internal_count=1608 1156 916 779 240 563 216 153 137 194 154 414
is_linear=0
shrinkage=0.0135542


Tree=50
num_leaves=13
num_cat=0
split_feature=6 9 11 3 6 6 6 6 12 12 6 14
split_gain=98.8362 30.0668 26.7596 25.5955 9.93394 10.5229 7.20044 8.45011 5.99366 5.43519 5.13401 5.63754
threshold=682.7558226051533 1.0000000180025095e-35 1.0000000180025095e-35 13.472266967884348 603.75000000000011 635.05000000000007 585.91984366750967 565.95000000000016 0.51183342063907811 0.35546666865528337 508.97977690536402 0.54008277906439928
decision_type=2 2 2 2 2 2 2 2 2 2 2 2
left_child=1 2 -1 10 6 -6 7 8 9 -4 -3 -12
right_child=-2 3 4 -5 5 -7 -8 -9 -10 -11 11 -13
leaf_value=0.0099532360817500224 0.012928237252009554 -0.0053205087727220277 -0.0042252332768992935 0.00671593985200234 -0.019218398636751444 -0.0022736768440565205 0.0080008307861973091 -0.013924559387890953 -0.0059598141237775012 0.0063039199744442369 -0.019274946326501625 -0.010560120037172419
leaf_weight=36.545112386345863 82.321445345878601 21.491487011313438 12.75968201458454 14.927760064601896 13.22704501450062 16.780031114816666 13.576838999986647 10.530393391847609 24.570992514491081 25.662852540612221 26.23228445649147 49.776099815964699
leaf_count=171 452 91 57 63 56 76 58 45 107 116 111 205
internal_value=0 -0.00406316 -0.000101412 -0.00938983 -0.00332374 -0.0100783 -0.000882586 -0.00265756 -0.000614069 0.00255472 -0.0119565 -0.0137023
internal_weight=0 266.081 153.653 112.428 117.108 30.0071 87.1008 73.5239 62.9935 38.4225 97.4999 76.0084
internal_count=1608 1156 686 470 515 132 383 325 280 173 407 316
is_linear=0
shrinkage=0.0135542


Tree=51
num_leaves=13
num_cat=0
split_feature=6 5 2 3 11 10 13 14 14 6 12 12
split_gain=96.6866 79.0506 46.702 35.9116 17.6305 11.9503 10.5327 9.04669 8.85076 9.29555 7.63202 5.02391
threshold=682.7558226051533 3.5000000000000004 15.500000000000002 13.304300512023715 1.0000000180025095e-35 1.0000000180025095e-35 0.18283855338879387 0.9467932390810897 0.41344289281877333 646.35000000000014 0.59444546709618062 0.56635735162857404
decision_type=2 2 2 2 2 2 2 2 2 2 2 2
left_child=1 3 -2 4 7 8 -3 -1 -6 11 -5 -10
right_child=2 6 -4 10 5 -7 -8 -9 9 -11 -12 -13
leaf_value=-0.0067871533983904393 0.016475494945001314 0.016536341672487017 -0.015906442664066423 -0.00064775181760988953 -0.017024736724539878 -0.019656138186898025 0 0.0070068184681765129 -0.006026602140665552 0.0017237273361385618 0.01158174821355038 -0.013369436363097335
leaf_weight=20.437229111790657 72.918757170438766 32.761489495635033 8.8885338157415372 17.213198646903038 25.463346555829048 29.605521932244301 9.5197779983282071 14.951368004083632 47.006638467311859 15.011080026626585 17.462846636772156 36.331278428435326
leaf_count=88 416 163 36 72 108 124 43 67 198 66 75 152
internal_value=0 -0.00401447 0.0128337 -0.00725781 -0.00960442 -0.0115982 0.0128919 -0.000684685 -0.00958845 -0.00755958 0.00523702 -0.00934796
internal_weight=0 265.764 81.8073 223.483 188.806 153.418 42.2813 35.3886 123.812 98.349 34.676 83.3379
internal_count=1608 1156 452 950 803 648 206 155 524 416 147 350
is_linear=0
shrinkage=0.0135542


Tree=52
num_leaves=13
num_cat=0
split_feature=6 5 2 3 9 10 8 13 12 6 0 4
split_gain=94.7026 77.1945 45.8427 35.0017 19.7647 37.7805 116.525 10.3735 7.45391 5.10285 3.08279 2.67478
threshold=682.7558226051533 3.5000000000000004 15.500000000000002 13.304300512023715 1.0000000180025095e-35 1.0000000180025095e-35 1.0000000180025095e-35 0.18283855338879387 0.59444546709618062 646.35000000000014 148.50000000000003 3.5000000000000004
decision_type=2 2 2 2 2 2 2 2 2 2 2 2
left_child=1 3 -2 4 5 6 -1 -3 -5 10 -6 -7
right_child=2 7 -4 8 9 11 -8 -9 -10 -11 -12 -13
leaf_value=0.019860585754754256 0.016400708861562266 0.01642602685079388 -0.015691124842810208 -0.00063897522787550174 -0.017048740231217007 -0.011039683900927497 -0.015916450218326324 0 0.011447603825415695 -0.0053537609742714569 -0.0068271072847476818 -0.020718131318140428
leaf_weight=31.11421425640583 72.263011142611504 32.536228761076927 8.8888236731290799 17.213559314608574 63.240380734205246 15.863085567951201 36.044794797897339 9.5197779983282071 17.428629457950592 13.100862756371496 9.6818128973245603 19.475613459944725
leaf_count=145 416 163 36 72 262 66 153 43 75 55 40 82
internal_value=0 -0.00396857 0.0127613 -0.00717106 -0.00949027 -0.00531535 0.000516165 0.012787 0.00516751 -0.0143482 -0.0158281 -0.0166619
internal_weight=0 265.219 81.1518 223.163 188.521 102.498 67.159 42.056 34.6422 86.0231 72.9222 35.3387
internal_count=1608 1156 452 950 803 446 298 206 147 357 302 148
is_linear=0
shrinkage=0.0135542


Tree=53
num_leaves=13
num_cat=0
split_feature=6 5 14 6 8 9 10 13 14 0 8 9
split_gain=92.7992 75.4492 25.6114 28.4015 15.8347 35.0342 57.5431 10.2177 9.94742 8.74382 5.07743 3.75765
threshold=682.7558226051533 3.5000000000000004 0.53511505853572949 644.1500000000002 1.0000000180025095e-35 1.0000000180025095e-35 1.0000000180025095e-35 0.18283855338879387 0.8205762536293657 102.50000000000001 1.0000000180025095e-35 1.0000000180025095e-35
decision_type=2 2 2 2 2 2 2 2 2 2 2 2
left_child=1 2 11 4 5 6 -4 -3 -5 -8 -2 -1
right_child=10 7 3 8 -6 -7 9 -9 -10 -11 -12 -13
leaf_value=-0.010305138390199278 0.014047437398140645 0.016317423034687382 0.019500098880435295 -0.0016641476579264331 -0.016389715440278677 -0.011758385659082885 -0.017947335576869502 0 0.014257768277015963 -0.00077396568798212726 0.0026648701263600047 -0.017917559607351863
leaf_weight=34.339144229888916 70.033993944525719 32.310598284006119 23.2157032340765 10.334677055478098 25.739060387015343 53.879626601934433 12.7814087420702 9.5197779983282071 18.013161614537239 11.653811261057852 10.463443681597708 32.588217735290527
leaf_count=147 397 163 108 47 108 220 53 43 81 48 55 138
internal_value=0 -0.00392859 -0.00709601 -0.00399185 -0.00676638 -0.00422683 0.00408825 0.0126835 0.00811658 -0.010165 0.0126899 -0.0141635
internal_weight=0 264.375 222.545 155.617 127.27 101.531 47.6509 41.8304 28.3478 24.4352 80.4974 66.9274
internal_count=1608 1156 950 665 537 429 209 206 128 101 452 285
is_linear=0
shrinkage=0.0135542


Tree=54
num_leaves=13
num_cat=0
split_feature=6 5 2 3 9 10 13 14 6 14 6 6
split_gain=90.8454 73.7338 45.1843 33.9294 18.7363 36.4905 10.0652 9.20289 7.64896 7.57067 6.03807 4.83831
threshold=682.7558226051533 3.5000000000000004 15.500000000000002 13.304300512023715 1.0000000180025095e-35 1.0000000180025095e-35 0.18283855338879387 0.41344289281877333 647.45000000000016 0.98018372958474675 587.80293952196746 646.35000000000014
decision_type=2 2 2 2 2 2 2 2 2 2 2 2
left_child=1 3 -2 4 5 7 -3 -1 -9 -7 -5 -6
right_child=2 6 -4 10 11 9 -8 8 -10 -11 -12 -13
leaf_value=-0.011977114455918843 0.01627028532533371 0.016210472997197658 -0.015618637851833629 0 -0.015502423256249846 -0.021219364966270422 0 0.00033326817705094336 0.014154787850013199 -0.0065978458221720333 0.01105040422534859 -0.0052599878884987822
leaf_weight=9.0237742811441404 71.095847994089127 32.08469295501709 8.8883762210607511 18.005987197160721 72.566841661930084 22.885530173778534 9.5197779983282071 48.568428754806519 9.0029185861349088 12.302559420466421 16.534988448023796 13.097324028611181
leaf_count=39 416 163 36 75 302 97 43 214 45 51 72 55
internal_value=0 -0.00388815 0.0126005 -0.00701985 -0.00931296 -0.00522588 0.0125813 0.00053468 0.00266973 -0.0163934 0.00514116 -0.0140521
internal_weight=0 263.593 79.9842 221.988 187.447 101.783 41.6045 66.5951 57.5713 35.1881 34.541 85.6642
internal_count=1608 1156 452 950 803 446 206 298 259 148 147 357
is_linear=0
shrinkage=0.0135542


Tree=55
num_leaves=13
num_cat=0
split_feature=6 2 9 8 10 3 11 13 6 6 3 6
split_gain=88.9937 44.3598 27.2561 55.3414 121.415 23.1303 20.8345 6.15276 4.83312 4.46822 4.33088 3.52468
threshold=682.7558226051533 15.500000000000002 1.0000000180025095e-35 1.0000000180025095e-35 1.0000000180025095e-35 13.472266967884348 1.0000000180025095e-35 0.16111137218045116 508.97977690536402 653.56292684259415 11.620740080537322 480.7000000000001
decision_type=2 2 2 2 2 2 2 2 2 2 2 2
left_child=2 -2 3 4 -1 8 -6 -8 11 10 -10 -4
right_child=1 -3 5 -5 6 -7 7 -9 9 -11 -12 -13
leaf_value=0.019185441428028634 0.01619876282431203 -0.015409696165989639 -0.0098478354957689078 -0.012241273258399391 0.0065968574844849723 0.0064043212135503087 -0.005344008382189863 -0.018452861171155709 -0.016705047238467458 -0.0039794021666036683 -0.007074209809070117 0.00037543727961242935
leaf_weight=55.479639619588852 70.446421340107918 8.887239918112753 11.917005479335787 47.396046981215477 10.112190932035444 14.82315546274185 11.912663117051123 26.716242700815201 48.622151374816895 11.331872180104254 15.330545872449873 9.339332386851309
leaf_count=275 416 36 50 203 44 63 51 113 205 48 63 41
internal_value=0 0.0125309 -0.00384452 -4.00172e-05 0.00541788 -0.00893565 -0.0100568 -0.0146689 -0.0113927 -0.0130922 -0.0145526 -0.00490732
internal_weight=0 79.3337 262.981 151.617 104.221 111.364 48.7411 38.6289 96.5409 75.2846 63.9527 21.2563
internal_count=1608 452 1156 686 483 470 208 164 407 316 268 91
is_linear=0
shrinkage=0.0135542


Tree=56
num_leaves=13
num_cat=0
split_feature=6 14 8 9 10 6 10 9 8 6 13 6
split_gain=96.3847 25.2177 18.161 20.2675 63.2933 11.7428 9.04543 17.0838 59.2727 8.4697 7.52524 6.10604
threshold=672.8839069022514 0.68372211253662385 1.0000000180025095e-35 1.0000000180025095e-35 1.0000000180025095e-35 532.23374861775687 1.0000000180025095e-35 1.0000000180025095e-35 1.0000000180025095e-35 635.05000000000007 0.19961401027320777 706.17337566824688
decision_type=2 2 2 2 2 2 2 2 2 2 2 2
left_child=1 6 3 4 -3 -6 7 8 -1 10 -5 -2
right_child=11 2 -4 9 5 -7 -8 -9 -10 -11 -12 -13
leaf_value=0.019407768842894642 0.0063570600833001527 0.018767001067987156 -0.010979261677193866 -0.003678868210101576 0.0029877823170617601 -0.014762721339507382 -0.017887197468933386 -0.012630649473112125 -0.013302111608691424 0.0059497339241388813 -0.017699434582452787 0.014768509438236406
leaf_weight=16.226905509829521 28.903052225708961 35.863618329167366 25.568129926919937 30.626936659216881 9.6567165851593035 18.263427764177322 19.977658063173294 51.254656657576561 27.056257605552673 10.111729860305784 10.368704304099081 57.107116356492043
leaf_count=78 156 180 108 128 43 76 85 218 117 42 43 336
internal_value=0 -0.00452923 -0.00060575 0.00162097 0.00677749 -0.00828046 -0.00925543 -0.00732332 -0.000810016 -0.0046253 -0.00747251 0.012058
internal_weight=0 254.975 140.459 114.891 63.7838 27.9201 114.515 94.5378 43.2832 51.1074 40.9956 86.0102
internal_count=1610 1118 620 512 299 119 498 413 195 213 171 492
is_linear=0
shrinkage=0.0135542


Tree=57
num_leaves=13
num_cat=0
split_feature=6 5 2 1 14 10 9 6 14 6 5 6
split_gain=94.3223 80.9099 37.9052 30.0794 27.3103 12.651 19.1165 11.9633 6.25114 5.89987 4.96364 3.36749
threshold=672.8839069022514 3.5000000000000004 14.500000000000002 1.0000000180025095e-35 1.0281475836895742 1.0000000180025095e-35 1.0000000180025095e-35 641.16107730101896 0.37816666666666671 544.69561408318509 2.5000000000000004 581.85000000000002
decision_type=2 2 2 2 2 2 2 2 2 2 2 2
left_child=1 3 -2 5 -5 6 8 -8 -1 -3 11 -10
right_child=2 9 -4 4 -6 -7 7 -9 10 -11 -12 -13
leaf_value=-0.012781254519612217 0.01530036805079228 0.017337915647275423 -0.012370778730121689 -0.0071481122780411889 0.019256914494368726 -0.017250301050278034 -0.014474966286641841 0 -0.0056565492591872726 0.0051323642403569708 0.0072827475699582343 0.0013449154735083429
leaf_weight=9.4021313339471799 75.552298218011856 25.466712459921837 9.922313913702963 14.85270042717457 13.371268212795256 35.831650614738464 70.496583923697472 11.661690101027487 29.152542397379875 13.933835700154303 11.060616970062254 19.003955960273743
leaf_count=41 452 137 40 62 62 151 296 48 127 60 49 85
internal_value=0 -0.00448188 0.0119713 -0.00778515 0.0050264 -0.00977532 -0.00793128 -0.0123716 -0.00247039 0.0132751 -0.000663559 -0.00269347
internal_weight=0 254.234 85.4746 214.833 28.224 186.609 150.778 82.1583 68.6192 39.4005 59.2171 48.1565
internal_count=1610 1118 492 921 124 797 646 344 302 197 261 212
is_linear=0
shrinkage=0.0135542


Tree=58
num_leaves=13
num_cat=0
split_feature=13 5 2 1 7 4 7 13 3 5 0 3
split_gain=50.6661 70.2918 37.7617 21.7805 17.5642 17.0852 16.8225 24.1159 11.6705 7.20972 6.2688 5.97345
threshold=0.23789712722358011 3.5000000000000004 19.500000000000004 1.0000000180025095e-35 248.50000000000003 2.5000000000000004 318.50000000000006 0.19606237062860879 13.203913836288189 2.5000000000000004 74.500000000000014 14.201800603423296
decision_type=2 2 2 2 2 2 2 2 2 2 2 2
left_child=1 3 4 6 -2 -5 8 10 9 -1 -8 -10
right_child=2 -3 -4 5 -6 -7 7 -9 11 -11 -12 -13
leaf_value=-0.01410685712579616 -0.0028737088331283441 0.013462273778167215 -0.018052071072148967 0.020183048349946171 0.015999245420882918 -0.0021806229245044731 -0.015628720714943256 0.010068280434206297 0.0037527876037654409 -0.0034896096743206317 -0.004048705308479038 -0.0096463740121110666
leaf_weight=88.11139577627182 9.7973157316446287 39.634147986769676 7.7827789932489386 9.2470279633998889 55.950956225395203 17.510819956660271 13.129464507102965 20.472565978765488 13.812854111194612 16.526324182748795 36.098680421710014 10.312311246991156
leaf_count=384 49 201 32 43 330 74 56 111 59 71 156 44
internal_value=0 -0.00310032 0.00961043 -0.00605954 0.0130396 0.00520153 -0.00762724 -0.00208713 -0.0105496 -0.0125242 -0.00734226 -0.00157896
internal_weight=0 264.856 73.5311 225.221 65.7483 26.7578 198.464 69.7007 128.763 104.638 49.2281 24.1252
internal_count=1610 1199 411 998 379 117 881 323 558 455 212 103
is_linear=0
shrinkage=0.0135542


Tree=59
num_leaves=13
num_cat=0
split_feature=5 2 10 8 9 3 12 0 14 3 14 7
split_gain=49.0519 26.9931 26.6369 37.4341 102.91 16.3795 15.1784 12.0524 11.231 4.97722 4.59591 2.42579
threshold=3.5000000000000004 19.500000000000004 1.0000000180025095e-35 1.0000000180025095e-35 1.0000000180025095e-35 12.9001666626028 0.69086080089451596 74.500000000000014 0.7721076452244563 11.09937774415002 0.97026052724267753 283.50000000000006
decision_type=2 2 2 2 2 2 2 2 2 2 2 2
left_child=1 2 3 4 -1 -3 8 9 11 -8 -5 -6
right_child=-2 5 -4 10 6 -7 7 -9 -10 -11 -12 -13
leaf_value=0.018031499504113781 0.013154907678325719 -0.014500853448707014 -0.010721679020259828 -0.012525088883676334 -0.021105947390881657 0.0019546449235160347 -0.010348926940985732 0.01136369339170866 -0.00068240278326081268 0.002545473061010895 -0.0020200072675415418 -0.010665255394647561
leaf_weight=64.136931821703911 43.12287949025631 45.050497129559517 37.564621284604073 29.238969713449478 8.8761526793241483 13.427077680826185 11.408089950680735 15.76668034493923 21.510253205895424 8.7821339815855008 13.619171738624571 24.799783110618591
leaf_count=356 222 191 170 135 38 56 51 85 94 39 63 110
internal_value=0 -0.00231381 -0.000226163 0.00171622 0.00485275 -0.0105579 -0.00431797 0.00232227 -0.00881873 -0.00426614 -0.00941688 -0.0137226
internal_weight=0 294.18 235.703 198.138 155.28 58.4776 91.1431 35.9569 55.1862 20.1902 42.8581 33.6759
internal_count=1610 1388 1141 971 773 247 417 175 242 90 198 148
is_linear=0
shrinkage=0.0135542


Tree=60
num_leaves=13
num_cat=0
split_feature=6 2 14 8 9 10 6 3 6 13 6 3
split_gain=89.978 36.2867 23.6215 17.3733 19.1365 60.0902 11.0287 8.81695 7.99884 7.32102 6.48556 4.1394
threshold=672.8839069022514 14.500000000000002 0.68372211253662385 1.0000000180025095e-35 1.0000000180025095e-35 1.0000000180025095e-35 532.23374861775687 12.601000628383941 635.05000000000007 0.19961401027320777 524.85909422331213 11.659457474112427
decision_type=2 2 2 2 2 2 2 2 2 2 2 2
left_child=2 -2 7 4 5 -4 -7 10 9 11 -1 -6
right_child=1 -3 3 -5 8 6 -8 -9 -10 -11 -12 -13
leaf_value=-0.0048774891165645571 0.015138659960123866 -0.011961464683834269 0.018550968875448975 -0.010734174985313413 -0.008028347764600657 0.0029672903790957006 -0.014293386263399011 0.00059191626171754992 0.0058477751807128019 -0.017333587488836011 -0.012874354925954583 0.0015459160518846622
leaf_weight=32.234357997775078 74.019718766212463 9.9155131876468641 35.104907140135765 25.411734253168106 16.936740428209308 9.5637113302946108 18.119124948978424 13.628270149230955 10.076394110918043 10.293733492493628 67.348235666751862 13.521686613559721
leaf_count=145 452 40 180 108 71 43 76 57 42 43 296 57
internal_value=0 0.0118184 -0.0043771 -0.000559048 0.00163395 0.00669943 -0.00798424 -0.00897874 -0.00443315 -0.00721546 -0.0103855 -0.00346311
internal_weight=0 83.9352 252.239 139.028 113.616 62.7877 27.6828 113.211 50.8286 40.7522 99.5826 30.4584
internal_count=1610 492 1118 620 512 299 119 498 213 171 441 128
is_linear=0
shrinkage=0.0135542


Tree=61
num_leaves=13
num_cat=0
split_feature=6 5 14 3 6 14 10 9 8 13 6 13
split_gain=88.0971 75.3253 22.2941 20.1948 8.41603 8.34027 8.10627 11.7095 66.9737 5.97369 5.94965 5.51515
threshold=672.8839069022514 3.5000000000000004 1.1196756171352034 12.601000628383941 647.45000000000016 2.1294485701020949 1.0000000180025095e-35 1.0000000180025095e-35 1.0000000180025095e-35 0.18571629970911716 706.17337566824688 0.24495624126513438
decision_type=2 2 2 2 2 2 2 2 2 2 2 2
left_child=1 2 3 6 5 -4 7 8 -1 -3 11 -2
right_child=10 9 4 -5 -6 -7 -8 -9 -10 -11 -12 -13
leaf_value=0.019905659937540655 0 0.01585337080641519 0.00033007290488372898 0 0.011958662254394424 -0.013694618144064826 -0.020193628919371716 -0.01459942399080006 -0.015833884259480718 0.0016130875115196916 0.014484550268715875 0.012398367933827533
leaf_weight=13.50895147025585 14.912463307380678 30.169121697545052 35.963458552956581 29.036795064806938 8.948259770870207 9.5119956433773023 22.861019194126129 60.727234348654747 32.416213810443878 8.5207653790712339 55.039160862565041 13.324479445815085
leaf_count=61 77 159 155 123 41 41 99 260 141 38 336 79
internal_value=0 -0.00432765 -0.0075173 -0.0100862 0 -0.00239833 -0.0123763 -0.0106041 -0.00510348 0.0129715 0.0117497 0.00606555
internal_weight=0 251.664 212.974 158.55 54.4237 45.4755 129.513 106.652 45.9252 38.6899 83.2761 28.2369
internal_count=1610 1118 921 684 237 196 561 462 202 197 492 156
is_linear=0
shrinkage=0.0135542


Tree=62
num_leaves=13
num_cat=0
