tree
version=v3
num_class=1
num_tree_per_iteration=1
label_index=0
max_feature_idx=15
objective=binary sigmoid:1
feature_names=account_length international_plan number_vmail_messages total_intl_minutes total_intl_calls number_customer_service_calls total_minutes total_calls area_code_area_code_408 area_code_area_code_415 area_code_area_code_510 state_other avg_mt_charge avg_call_charge avg_intl_call_charge both_plans
feature_infos=[1:232] [0:1] [0:50] [0:20] [0:20] [0:9] [300.89999999999998:876.89999999999998] [188:410] [0:1] [0:1] [0:1] [0:1] [0.17862885372033629:68.060000000000002] [0.063580901856763919:0.40254807692307693] [0:4.9100000000000001] [0:1]
tree_sizes=855 794 1223 905 794 677 577 1234 466 575 1221 1116 687 461 1006 793 1451 675 569 676 786 792 685 791 689 683 1226 355 571 1007 1326 672 1337 901 1315 574 1226 682 1007 1228 1119 912 575 800 898 902 1020 572 573

Tree=0
num_leaves=7
num_cat=0
split_feature=13 5 2 11 7 14
split_gain=6.91945 5.72756 1.49794 0.717528 0.204138 0.0317316
threshold=0.22654718674054661 3.5000000000000004 18.500000000000004 1.0000000180025095e-35 233.50000000000003 0.66180876250900178
decision_type=2 2 2 2 2 2
left_child=1 3 4 5 -2 -1
right_child=2 -3 -4 -5 -6 -7
leaf_value=0.37680727827789801 0.37682368673640543 0.37727248669147923 0.3766950379535155 0.37557644518855643 0.37779281514405633 0.37692522593018024
leaf_weight=16.893119663000107 10.377202078700064 54.781973764300346 17.134449943900108 220.09321618080139 135.62761786580086 35.716881573200226
leaf_count=70 43 227 71 912 562 148
internal_value=0.376843 0.376054 0.377626 0.375632 0.377773 0.37689
internal_weight=0 327.485 163.139 272.703 146.005 52.61
internal_count=2033 1357 676 1130 605 218
is_linear=0
shrinkage=1


Tree=1
num_leaves=6
num_cat=0
split_feature=13 5 1 12 11
split_gain=6.90205 5.71895 1.24593 0.283281 0.118728
threshold=0.22654718674054661 3.5000000000000004 1.0000000180025095e-35 0.41875259774702817 1.0000000180025095e-35
decision_type=2 2 2 2 2
left_child=1 2 4 -2 -1
right_child=3 -3 -4 -5 -6
leaf_value=3.5444419758215299e-06 -3.1699770464386148e-05 0.00042969751549793551 8.4963687410136618e-05 0.00081416999146470147 -0.0013108315894382364
leaf_weight=44.887073546648026 6.0325107872486106 54.777586579322815 35.964777499437332 157.08324012160301 191.90274372696877
leaf_count=186 25 227 149 651 795
internal_value=0 -0.00078689 -0.00120892 0.000782342 -0.00129812
internal_weight=0 327.532 272.755 163.116 236.79
internal_count=2033 1357 1130 676 981
is_linear=0
shrinkage=0.0339163


Tree=2
num_leaves=10
num_cat=0
split_feature=13 11 2 14 3 14 3 3 14
split_gain=6.88586 1.9297 1.49644 0.100121 0.175624 0.0227387 0.0194471 0.00584999 0.0057617
threshold=0.22654718674054661 1.0000000180025095e-35 18.500000000000004 1.816616972915958 13.404661647900557 0.39305676939234141 14.515339962473007 13.748153519585673 2.6331075913443809
decision_type=2 2 2 2 2 2 2 2 2
left_child=1 5 -2 4 -3 -1 -6 8 -5
right_child=2 3 -4 7 6 -7 -8 -9 -10
leaf_value=-1.0859363787842009e-05 0.00092860004642320699 -0.00099642111463633942 -0.00014768292132683644 4.065465598575141e-05 4.9855892497367728e-05 0.0001899218293627904 -3.6025055278115488e-05 -1.9664123983623519e-05 -1.3015003258363426e-05
leaf_weight=6.5157046169042578 145.95945909619331 208.34169143438339 17.132435366511345 9.1731136739254016 19.071018904447559 60.571202799677849 12.071195870637892 5.5532519072294226 6.2766311466693869
leaf_count=27 605 863 71 38 79 251 50 23 26
internal_value=0 -0.000785718 0.000781664 -0.000967487 -0.000978209 0.000178829 1.37022e-05 7.69277e-06 2.74752e-05
internal_weight=0 327.574 163.092 260.487 239.484 67.0869 31.1422 21.003 15.4497
internal_count=2033 1357 676 1079 992 278 129 87 64
is_linear=0
shrinkage=0.0339163


Tree=3
num_leaves=7
num_cat=0
split_feature=13 14 10 14 14 14
split_gain=6.87076 0.987469 0.108017 0.0587242 0.021272 0.004946
threshold=0.22654718674054661 1.1604019595403046 1.0000000180025095e-35 0.32335570359735305 2.8994534366884959 0.66180876250900178
decision_type=2 2 2 2 2 2
left_child=1 -1 3 -2 -3 -4
right_child=2 4 5 -5 -6 -7
leaf_value=-0.00088892092479326624 -5.9611645347320237e-06 0.00011412464254411027 1.6415137785457199e-05 0.00080181105729154535 -1.7063999387899858e-05 -2.7780412766890971e-05
leaf_weight=248.18858850002289 10.614454403519629 71.213673070073128 8.9253000020980853 132.91259157657623 8.2077078521251661 10.614640206098555
leaf_count=1028 44 295 37 551 34 44
internal_value=0 -0.000784699 0.000780959 0.000794494 9.69637e-05 -1.12109e-05
internal_weight=0 327.61 163.067 143.527 79.4214 19.5399
internal_count=2033 1357 676 595 329 81
is_linear=0
shrinkage=0.0339163


Tree=4
num_leaves=6
num_cat=0
split_feature=13 5 1 12 11
split_gain=6.85616 5.70721 1.24525 0.282978 0.119989
threshold=0.22654718674054661 3.5000000000000004 1.0000000180025095e-35 0.41875259774702817 1.0000000180025095e-35
decision_type=2 2 2 2 2
left_child=1 2 4 -2 -1
right_child=3 -3 -4 -5 -6
leaf_value=3.6621595659752666e-06 -3.1741806291542416e-05 0.00042992685622740589 8.5126613970372723e-05 0.00081226305965502704 -0.0013079545178915227
leaf_weight=44.891110554337502 6.031071573495864 54.785480424761772 35.970333218574524 157.01596592366695 192.00237084925175
leaf_count=186 25 227 149 651 795
internal_value=0 -0.00078359 -0.00120581 0.000780395 -0.00129515
internal_weight=0 327.649 272.864 163.047 236.893
internal_count=2033 1357 1130 676 981
is_linear=0
shrinkage=0.0339163


Tree=5
num_leaves=5
num_cat=0
split_feature=13 5 1 7
split_gain=6.84006 5.69932 1.24368 0.433059
threshold=0.22654718674054661 3.5000000000000004 1.0000000180025095e-35 248.50000000000003
decision_type=2 2 2 2
left_child=1 2 -1 -2
right_child=3 -3 -4 -5
leaf_value=-0.0012938192627745847 -4.6717197311260477e-05 0.00042979955624669299 8.5109983239227722e-05 0.00082859621591657143
leaf_weight=236.93964883685112 23.3951475918293 54.781094118952751 35.969765320420265 139.62796828150749
leaf_count=981 97 227 149 579
internal_value=0 -0.00078242 -0.0012045 0.00077972
internal_weight=0 327.691 272.909 163.023
internal_count=2033 1357 1130 676
is_linear=0
shrinkage=0.0339163


Tree=6
num_leaves=4
num_cat=0
split_feature=13 11 7
split_gain=6.82208 1.92482 0.432674
threshold=0.22654718674054661 1.0000000180025095e-35 248.50000000000003
decision_type=2 2 2
left_child=1 -1 -2
right_child=2 -3 -4
leaf_value=0.00017922443072728066 -4.6711245232022894e-05 -0.00096306187558977123 0.00082798067725539225
leaf_weight=67.100514620542526 23.395352572202682 260.64137388765812 139.60617884993553
leaf_count=278 97 1079 579
internal_value=0 -0.00078096 0.000779112
internal_weight=0 327.742 163.002
internal_count=2033 1357 676
is_linear=0
shrinkage=0.0339163


Tree=7
num_leaves=10
num_cat=0
split_feature=13 1 10 14 14 14 3 14 14
split_gain=6.80596 1.07155 0.109475 0.0928956 0.0596824 0.0585268 0.016399 0.00632691 0.00493076
threshold=0.22654718674054661 1.0000000180025095e-35 1.0000000180025095e-35 0.68688704219446317 0.32335570359735305 1.9768372927779729 11.162468196857622 2.6331075913443809 0.66180876250900178
decision_type=2 2 2 2 2 2 2 2 2
left_child=1 5 4 6 -2 -1 -3 -7 -4
right_child=2 3 8 -5 -6 7 -8 -9 -10
leaf_value=-0.00089606073316607685 -6.092421271590349e-06 -7.3601307631345625e-05 1.6304440959675406e-05 0.00016173377629705128 0.00079967971580722228 2.6603969771880149e-05 2.0509406228817437e-05 -2.198113234252855e-05 -2.7880481065685043e-05
leaf_weight=268.62996590137482 10.60993644595146 9.1752979606389982 8.9214874505996722 24.141223713755608 132.83730688691139 9.417884826660158 5.7950545549392691 10.626299217343329 10.611196517944334
leaf_count=1112 44 38 37 100 551 39 24 44 44
internal_value=0 -0.000779714 0.000778505 0.000108498 0.000792239 -0.000888875 -5.29109e-05 4.46811e-06 -1.14213e-05
internal_weight=0 327.786 162.98 39.1116 143.447 288.674 14.9704 20.0442 19.5327
internal_count=2033 1357 676 162 595 1195 62 83 81
is_linear=0
shrinkage=0.0339163


Tree=8
num_leaves=3
num_cat=0
split_feature=6 11
split_gain=14.1487 1.37383
threshold=655.27933548625492 1.0000000180025095e-35
decision_type=2 2
left_child=1 -1
right_child=-2 -3
leaf_value=9.7439552171059283e-05 0.0011259339686491778 -0.0012260537819280173
leaf_weight=62.273541808128357 171.47768069803715 257.03790591657162
leaf_count=258 711 1064
internal_value=0 -0.00112062
internal_weight=0 319.311
internal_count=2033 1322
is_linear=0
shrinkage=0.0339163


Tree=9
num_leaves=4
num_cat=0
split_feature=13 2 1
split_gain=6.77428 1.49282 1.07022
threshold=0.22654718674054661 18.500000000000004 1.0000000180025095e-35
decision_type=2 2 2
left_child=2 -2 -1
right_child=1 -3 -4
leaf_value=-0.00088655373596571035 0.00092453451902330434 -0.00014798146388575372 0.00010865649437015355
leaf_weight=288.75503426790237 145.81527300179005 17.122169390320778 39.11697156727314
leaf_count=1195 605 71 162
internal_value=0 0.000777316 -0.000777256
internal_weight=0 162.937 327.872
internal_count=2033 676 1357
is_linear=0
shrinkage=0.0339163


Tree=10
num_leaves=10
num_cat=0
split_feature=9 5 14 7 3 3 3 3 7
split_gain=3.96412 0.93843 0.834299 0.213702 0.209952 0.181687 0.122684 0.0325981 0.0150228
threshold=1.0000000180025095e-35 3.5000000000000004 0.46539164265527844 233.50000000000003 14.900292555811808 7.306218097354507 14.694307927729641 12.762166359879929 347.50000000000006
decision_type=2 2 2 2 2 2 2 2 2
left_child=2 4 7 -4 -2 -5 -7 8 -1
right_child=1 -3 3 5 -6 6 -8 -9 -10
leaf_value=-0.00014057627362548295 -0.00075406511411684016 0.00011808782131206401 -2.697146257829534e-05 -2.2001357603863288e-05 2.5202936675462098e-05 0.00075427039201895346 -1.4270358271128167e-05 2.2902857554527845e-05 9.7029019871017926e-06
leaf_weight=58.667544811964035 146.11190147697926 16.414283573627472 8.9248740524053556 10.625474914908407 7.4866323173046103 218.68945701420307 10.868726834654806 7.2425651252269736 5.7988654226064673
leaf_count=243 605 68 37 44 31 906 45 30 24
internal_value=0 -0.000611156 0.000578072 0.000689403 -0.000728414 0.000716499 0.000739073 -0.000107733 -0.000130693
internal_weight=0 170.013 320.818 249.109 153.599 240.184 229.558 71.709 64.4664
internal_count=2033 704 1329 1032 636 995 951 297 267
is_linear=0
shrinkage=0.0339163


Tree=11
num_leaves=9
num_cat=0
split_feature=9 10 5 1 3 3 3 3
split_gain=3.95485 4.05985 0.937584 0.368859 0.270074 0.0263439 0.0205703 0.0155029
threshold=1.0000000180025095e-35 1.0000000180025095e-35 3.5000000000000004 1.0000000180025095e-35 5.6170274871470047 12.30103917820345 14.803005907806197 14.713631764780008
decision_type=2 2 2 2 2 2 2 2
left_child=1 4 3 6 -1 -5 -2 -6
right_child=2 -3 -4 5 7 -7 -8 -9
leaf_value=-2.4773115195965331e-05 -0.00077491907668402913 -0.00038365200597252998 0.00011807726256721398 -3.2209583744877126e-05 0.00098510611875139036 7.5465893957423451e-05 1.9711099406726849e-06 -7.604019863034169e-07
leaf_weight=6.7651954889297476 130.92204758524895 77.520020291209221 16.413923695683479 8.9323567599058169 229.49828678369522 8.2085333764553052 5.555846005678176 7.0049561858177176
leaf_count=28 542 321 68 37 951 34 23 29
internal_value=0 0.000577262 -0.00061058 -0.000727825 0.00095813 4.30478e-05 -0.00077217 0.000983164
internal_weight=0 320.788 170.033 153.619 243.268 17.1409 136.478 236.503
internal_count=2033 1329 704 636 1008 71 565 980
is_linear=0
shrinkage=0.0339163


Tree=12
num_leaves=5
num_cat=0
split_feature=11 5 1 3
split_gain=2.49348 2.64468 0.918 0.0608968
threshold=1.0000000180025095e-35 3.5000000000000004 1.0000000180025095e-35 10.199578797543074
decision_type=2 2 2 2
left_child=-1 2 -2 -4
right_child=1 -3 3 -5
leaf_value=0.00047173796972540703 -0.00086817851200729349 0.00031109225315870825 -4.1098731667742335e-05 0.00013639711603002003
leaf_weight=108.55084709823132 298.73437881469727 45.863260313868523 14.484045103192328 23.170189708471298
leaf_count=450 1237 190 60 96
internal_value=0 -0.000471672 -0.000772391 9.49923e-05
internal_weight=0 382.252 336.389 37.6542
internal_count=2033 1583 1393 156
is_linear=0
shrinkage=0.0339163


Tree=13
num_leaves=3
num_cat=0
split_feature=6 5
split_gain=14.0923 6.97991
threshold=655.27933548625492 3.5000000000000004
decision_type=2 2
left_child=1 -1
right_child=-2 -3
leaf_value=-0.0015281420690670526 0.0011244101982967572 0.0004139689816318765
leaf_weight=263.41639828681946 171.42281822860241 55.998538821935654
leaf_count=1090 711 232
internal_value=0 -0.00111763
internal_weight=0 319.415
internal_count=2033 1322
is_linear=0
shrinkage=0.0339163


Tree=14
num_leaves=8
num_cat=0
split_feature=2 8 3 0 1 3 0
split_gain=3.33315 2.45148 0.625765 0.179861 0.14717 0.0129897 0.00209759
threshold=16.500000000000004 1.0000000180025095e-35 7.2001128310409959 29.500000000000004 1.0000000180025095e-35 11.899843265738886 92.500000000000014
decision_type=2 2 2 2 2 2 2
left_child=1 2 6 -4 -2 -6 -1
right_child=4 -3 3 -5 5 -7 -8
leaf_value=2.6746434141693705e-06 -0.0005907418248745391 -0.00027861161691428756 -1.8252169252892948e-05 0.00088052862470615215 -2.5139844828727735e-05 4.7709865179312944e-05 -6.7776849363742557e-05
leaf_weight=10.380703538656237 79.51413606107235 65.434964999556541 7.4842384308576575 295.69232450425625 5.5527126789093 5.7915637344121933 21.019740164279938
leaf_count=43 329 271 31 1225 23 24 87
internal_value=0 0.000523315 0.000795833 0.000861957 -0.000567411 2.24081e-05 -6.48561e-05
internal_weight=0 400.012 334.577 303.177 90.8584 11.3443 31.4004
internal_count=2033 1657 1386 1256 376 47 130
is_linear=0
shrinkage=0.0339163


Tree=15
num_leaves=6
num_cat=0
split_feature=9 2 5 14 1
split_gain=3.94393 1.95577 0.93499 0.533969 0.368391
threshold=1.0000000180025095e-35 16.500000000000004 3.5000000000000004 0.32816777275059361 1.0000000180025095e-35
decision_type=2 2 2 2 2
left_child=1 3 4 -1 -2
right_child=2 -3 -4 -5 -6
leaf_value=-5.6423942307820327e-05 -0.00077098058355552757 -0.00022254162062653636 0.00011794536906607535 0.00085386716887880668 4.306142040011734e-05
leaf_weight=19.318430587649345 136.51781663298607 54.363272964954376 16.409407079219818 247.0839502364397 17.141310378909111
leaf_count=80 565 225 68 1024 71
internal_value=0 0.00057668 -0.000609514 0.000796911 -0.000726626
internal_weight=0 320.766 170.069 266.402 153.659
internal_count=2033 1329 704 1104 636
is_linear=0
shrinkage=0.0339163


Tree=16
num_leaves=12
num_cat=0
split_feature=9 8 7 3 3 14 14 14 14 14 14
split_gain=3.93342 4.92525 0.251614 0.160447 0.0882075 0.0478852 0.0239418 0.00268735 0.00652122 0.00234458 0.00193056
threshold=1.0000000180025095e-35 1.0000000180025095e-35 236.50000000000003 13.300030462997633 6.4015746279487731 1.7660040475426932 0.34905736536150683 0.91739860711072596 1.3180928717941309 2.5894940976617362 0.29354166666666676
decision_type=2 2 2 2 2 2 2 2 2 2 2
left_child=1 2 -1 5 -4 -2 10 -5 -9 -7 -6
right_child=3 -3 4 7 6 9 -8 8 -10 -11 -12
leaf_value=-2.1829558617597004e-05 -0.00064056711117702124 -0.00043976999260649034 -6.9592059675064363e-06 3.0290385188659905e-05 1.2932302739438828e-05 1.8217776202245516e-05 0.0010470177718589955 -2.9004699107822958e-05 2.0773037545015127e-05 -1.1867035638039351e-05 -1.3810846713365601e-05
leaf_weight=6.5138987749814978 132.65097612142563 86.694051250815392 8.697145462036131 11.592553064227106 6.7574958354234678 5.5512286722660047 204.09933324158192 7.4898340553045255 7.0043135285377502 5.7983719706535339 7.9667422622442245
leaf_count=27 549 359 36 48 28 23 846 31 29 24 33
internal_value=0 0.000575655 0.00101325 -0.000608966 0.00103549 -0.00063321 0.00104377 2.20112e-05 -8.08132e-06 6.20158e-06 -7.37414e-07
internal_weight=0 320.729 234.035 170.087 227.521 144.001 218.824 26.0867 14.4941 11.3496 14.7242
internal_count=2033 1329 970 704 943 596 907 108 60 47 61
is_linear=0
shrinkage=0.0339163


Tree=17
num_leaves=5
num_cat=0
split_feature=13 5 1 7
split_gain=6.7359 5.66168 1.2394 0.43131
threshold=0.22654718674054661 3.5000000000000004 1.0000000180025095e-35 248.50000000000003
decision_type=2 2 2 2
left_child=1 2 -1 -2
right_child=3 -3 -4 -5
leaf_value=-0.0012864828982927787 -4.680144228541548e-05 0.00042964721898631597 8.5328419219561104e-05 0.0008239647567317035
leaf_weight=237.19113136827946 23.392132565379143 54.775732785463333 35.97711843252182 139.46237072348595
leaf_count=981 97 227 149 579
internal_value=0 -0.000775143 -0.001197 0.000775022
internal_weight=0 327.944 273.168 162.855
internal_count=2033 1357 1130 676
is_linear=0
shrinkage=0.0339163


Tree=18
num_leaves=4
num_cat=0
split_feature=6 5 3
split_gain=14.0332 6.95535 0.141938
threshold=655.27933548625492 3.5000000000000004 15.102237715193242
decision_type=2 2 2
left_child=1 2 -1
right_child=-2 -3 -4
leaf_value=-0.0015345895927824553 0.0011219722499289256 0.00041330915754606289 7.2358279022985902e-06
leaf_weight=253.84930409491062 171.33466653525829 55.975731372833252 9.6672690063714963
leaf_count=1050 711 232 40
internal_value=0 -0.00111537 -0.00152521
internal_weight=0 319.492 263.517
internal_count=2033 1322 1090
is_linear=0
shrinkage=0.0339163


Tree=19
num_leaves=5
num_cat=0
split_feature=6 5 1 3
split_gain=13.9965 6.94378 1.289 0.0845653
threshold=655.27933548625492 3.5000000000000004 1.0000000180025095e-35 12.20027702690288
decision_type=2 2 2 2
left_child=1 2 -1 -4
right_child=-2 -3 3 -5
leaf_value=-0.0015999094350383162 0.0011209563737006279 0.00041318413405180891 -5.9942012150027447e-05 0.00012998437226573661
leaf_weight=225.19081036746502 171.29810686409473 55.971407830715179 23.666847661137581 14.729469478130339
leaf_count=931 711 232 98 61
internal_value=0 -0.00111345 -0.00152315 6.95489e-05
internal_weight=0 319.559 263.587 38.3963
internal_count=2033 1322 1090 159
is_linear=0
shrinkage=0.0339163


Tree=20
num_leaves=6
num_cat=0
split_feature=13 5 1 3 3
split_gain=6.68397 5.63458 1.23792 0.0970751 0.0539834
threshold=0.22654718674054661 3.5000000000000004 1.0000000180025095e-35 7.0104987313974654 12.20027702690288
decision_type=2 2 2 2 2
left_child=1 2 -1 -2 -4
right_child=3 -3 4 -5 -6
leaf_value=-0.001281997526846567 -1.0678308245861302e-05 0.0004292698427164431 -3.9519584244177145e-05 0.00078506770143462964 0.00012555403851848026
leaf_weight=237.34306310117245 10.122132092714308 54.762686923146248 21.737743854522705 152.66804604232311 14.246716216206549
leaf_count=981 42 227 90 634 59
internal_value=0 -0.000770887 -0.00119233 0.000773258 8.55452e-05
internal_weight=0 328.09 273.328 162.79 35.9845
internal_count=2033 1357 1130 676 149
is_linear=0
shrinkage=0.0339163


Tree=21
num_leaves=6
num_cat=0
split_feature=13 5 1 7 11
split_gain=6.66594 5.62534 1.23623 0.430165 0.14034
threshold=0.22654718674054661 3.5000000000000004 1.0000000180025095e-35 248.50000000000003 1.0000000180025095e-35
decision_type=2 2 2 2 2
left_child=1 2 4 -2 -1
right_child=3 -3 -4 -5 -6
leaf_value=5.2484391772838981e-06 -4.6817957074935359e-05 0.00042914278729575596 8.5540130315435794e-05 0.0008215736929236806 -0.0012946454005031305
leaf_weight=44.944747313857079 23.391425654292107 54.758285537362099 35.984287649393082 139.37576560676098 192.45285369455814
leaf_count=186 97 227 149 579 795
internal_value=0 -0.000769429 -0.00119073 0.000772623 -0.00128038
internal_weight=0 328.14 273.382 162.767 237.398
internal_count=2033 1357 1130 676 981
is_linear=0
shrinkage=0.0339163


Tree=22
num_leaves=5
num_cat=0
split_feature=11 5 14 14
split_gain=2.46516 2.61638 0.394593 0.0100588
threshold=1.0000000180025095e-35 3.5000000000000004 1.7848095187214026 2.7991262172794249
decision_type=2 2 2 2
left_child=-1 2 -2 -4
right_child=1 -3 3 -5
leaf_value=0.00047093939591648755 -0.00081139746843027563 0.00031004584582339359 5.8845718691998122e-05 -1.5694574277614343e-05
leaf_weight=108.52054506540298 307.59975725412369 45.827096864581108 21.24052378535271 7.7368203699588767
leaf_count=450 1273 190 88 32
internal_value=0 -0.000467026 -0.0007667 4.29892e-05
internal_weight=0 382.404 336.577 28.9773
internal_count=2033 1583 1393 120
is_linear=0
shrinkage=0.0339163


Tree=23
num_leaves=6
num_cat=0
split_feature=9 2 5 1 7
split_gain=3.9222 1.94512 0.928259 0.367207 0.100303
threshold=1.0000000180025095e-35 16.500000000000004 3.5000000000000004 1.0000000180025095e-35 233.50000000000003
decision_type=2 2 2 2 2
left_child=1 4 3 -2 -1
right_child=2 -3 -4 -5 -6
leaf_value=-1.086273997266634e-05 -0.0007671641074891018 -0.00022150309521317386 0.00011772854995440693 4.3143588092023738e-05 0.00080777619859531615
leaf_weight=7.7155686020851126 136.64344543218613 54.397138670086861 16.401932701468468 17.143980175256729 258.65575924515724
leaf_count=32 565 225 68 71 1072
internal_value=0 0.000577012 -0.000605852 -0.00072274 0.000796247
internal_weight=0 320.768 170.189 153.787 266.371
internal_count=2033 1329 704 636 1104
is_linear=0
shrinkage=0.0339163


Tree=24
num_leaves=5
num_cat=0
split_feature=11 12 4 12
split_gain=2.45825 0.778439 0.525594 0.0824323
threshold=1.0000000180025095e-35 0.65421452702702731 2.5000000000000004 1.7330853221874916
decision_type=2 2 2 2
left_child=-1 2 -2 -3
right_child=1 3 -4 -5
leaf_value=0.00047049803243456553 7.0109817928301792e-05 0.00016046204811168133 -0.00066515905380924191 -4.7139729290367236e-05
leaf_weight=108.50491577386856 54.373818039894104 147.69822899997234 164.18218956887722 16.180249229073524
leaf_count=450 225 612 679 67
internal_value=0 -0.000466144 -0.000591073 0.000113868
internal_weight=0 382.434 218.556 163.878
internal_count=2033 1583 904 679
is_linear=0
shrinkage=0.0339163


Tree=25
num_leaves=5
num_cat=0
split_feature=13 1 7 0
split_gain=6.64586 1.0593 0.429157 0.000986673
threshold=0.22654718674054661 1.0000000180025095e-35 248.50000000000003 126.50000000000001
decision_type=2 2 2 2
left_child=1 -1 3 -2
right_child=2 -3 -4 -5
leaf_value=-0.00087699188500109057 -4.8645144281113606e-05 0.00010874818547804736 0.00082092212614466901 1.720467327559672e-06
leaf_weight=289.0788466334343 17.846643045544628 39.11988727748394 139.35189680755138 5.5472904145717612
leaf_count=1195 74 162 579 23
internal_value=0 -0.000767668 0.000772046 -4.67438e-05
internal_weight=0 328.199 162.746 23.3939
internal_count=2033 1357 676 97
is_linear=0
shrinkage=0.0339163


Tree=26
num_leaves=10
num_cat=0
split_feature=13 11 7 3 3 3 3 3 3
split_gain=6.62952 1.90306 0.428787 0.060699 0.0558165 0.0236587 0.0201496 0.00522262 0.000671256
threshold=0.22654718674054661 1.0000000180025095e-35 248.50000000000003 13.404661647900557 6.9014174970210922 14.515339962473007 7.2001128310409959 9.5950087949662883 15.705805552601174
decision_type=2 2 2 2 2 2 2 2 2
left_child=1 6 7 -3 -4 -5 -1 -2 -7
right_child=2 3 4 5 -6 8 -8 -9 -10
leaf_value=-9.6118037476342152e-06 8.5608351298541998e-06 -0.0009574188716630573 -5.6005303124541848e-06 4.8258155579020279e-05 0.00082694246929824111 -4.6652393369171553e-05 0.00018974966584065262 -5.5499536975158862e-05 1.1717773152862265e-06
leaf_weight=6.0408097356557837 8.6777704656124133 223.62615513801575 7.7087910026311866 21.768207877874374 131.62099698185921 9.6803126782178861 61.082250103354454 14.716324418783186 6.0457575023174277
leaf_count=25 36 924 32 90 547 40 253 61 25
internal_value=0 -0.000766369 0.000771444 -0.000948971 0.000820314 2.85792e-06 0.000179907 -4.67391e-05 -4.52944e-05
internal_weight=0 328.243 162.724 261.12 139.33 37.4943 67.1231 23.3941 15.7261
internal_count=2033 1357 676 1079 579 155 278 97 65
is_linear=0
shrinkage=0.0339163


Tree=27
num_leaves=2
num_cat=0
split_feature=6
split_gain=13.0986
threshold=656.58489897421362
decision_type=2
left_child=-1
right_child=-2
leaf_value=-0.0010492094158694968 0.0011127351343100573
leaf_weight=319.79799742996693 169.29672364890575
leaf_count=1322 703
internal_value=0
internal_weight=0
internal_count=2025
is_linear=0
shrinkage=0.0339163


Tree=28
num_leaves=4
num_cat=0
split_feature=6 5 1
split_gain=13.0651 6.1535 1.61366
threshold=656.58489897421362 3.5000000000000004 1.0000000180025095e-35
decision_type=2 2 2
left_child=1 2 -1
right_child=-2 -3 -4
leaf_value=-0.0015312918483795376 0.0011117392829032536 0.00038932673307639598 9.3118378754181215e-05
leaf_weight=230.30869892239571 169.26059646904469 54.527159973978996 35.022405177354813
leaf_count=951 703 226 145
internal_value=0 -0.00104746 -0.00143306
internal_weight=0 319.858 265.331
internal_count=2025 1322 1096
is_linear=0
shrinkage=0.0339163


Tree=29
num_leaves=8
num_cat=0
split_feature=14 10 5 3 3 14 14
split_gain=2.47758 0.983169 0.974037 0.21063 0.0901717 0.075637 0.00580339
threshold=0.73020048809111082 1.0000000180025095e-35 3.5000000000000004 12.602143558199487 14.694307927729641 2.8994534366884959 1.3180928717941309
decision_type=2 2 2 2 2 2 2
left_child=2 4 3 -1 5 -2 -6
right_child=1 -3 -4 -5 6 -7 -8
leaf_value=-0.00062883741715569544 0.00065501350012216718 -0.00014179006915672666 0.00014922026590975153 2.9616719559798168e-05 -3.006805834944931e-05 -1.0151296005747464e-05 1.7807694597293014e-05
leaf_weight=189.95949572324753 189.97169554233551 38.918424859642982 23.402009412646294 25.124243676662445 6.77040086686611 7.7394204139709464 7.2546637356281281
leaf_count=786 787 161 97 104 28 32 30
internal_value=0 0.000489877 -0.000450951 -0.000597498 0.000630958 0.000644233 -1.2102e-05
internal_weight=0 250.655 238.486 215.084 211.736 197.711 14.0251
internal_count=2025 1038 987 890 877 819 58
is_linear=0
shrinkage=0.0339163


Tree=30
num_leaves=11
num_cat=0
split_feature=13 11 14 7 7 14 7 7 3 7
split_gain=6.4795 2.2266 0.40944 0.240166 0.179614 0.0543719 0.02665 0.0230548 0.00129819 0.000242291
threshold=0.22847924843519357 1.0000000180025095e-35 1.2593783450089246 241.50000000000003 248.50000000000003 0.53402096190375692 318.50000000000006 282.50000000000006 9.4471593550627748 227.50000000000003
decision_type=2 2 2 2 2 2 2 2 2 2
left_child=1 5 4 9 -3 8 7 -4 -1 -2
right_child=3 2 6 -5 -6 -7 -8 -9 -10 -11
leaf_value=-2.5808355514764774e-05 6.8546694854343739e-07 1.5813626718926287e-05 3.1639188214136645e-05 0.00081904828231788918 -0.0010015599981710696 0.00023418703051635774 6.9368035952725623e-05 -6.7151777851558631e-05 4.529707258910684e-06 -2.6818486614573858e-05
leaf_weight=7.2470953017473203 6.0293070822954205 8.2213172465562803 15.23915722966194 134.46024189889431 203.42472378909588 52.874668195843697 24.663699567317963 19.840182065963745 7.0088221579790115 10.130037128925322
leaf_count=30 25 34 63 559 840 219 102 82 29 42
internal_value=0 -0.000729463 -0.000943035 0.00079141 -0.000984826 0.000212579 3.367e-05 -3.5307e-05 -2.11121e-05 -2.59655e-05
internal_weight=0 338.52 271.389 150.62 211.646 67.1306 59.743 35.0793 14.2559 16.1593
internal_count=2025 1399 1121 626 874 278 247 145 59 67
is_linear=0
shrinkage=0.0339163


Tree=31
num_leaves=5
num_cat=0
split_feature=6 5 2 1
split_gain=13.0174 6.14013 1.95059 1.61107
threshold=656.58489897421362 3.5000000000000004 18.500000000000004 1.0000000180025095e-35
decision_type=2 2 2 2
left_child=1 3 -2 -1
right_child=2 -3 -4 -5
leaf_value=-0.001528631047021865 0.0012529747319627567 0.00038921049059999978 -0.0001419954123845002 9.3138410761020929e-05
leaf_weight=230.39644631743431 149.67043219506741 54.5230912566185 19.538409486413002 35.023024320602417
leaf_count=951 622 226 81 145
internal_value=0 -0.00104493 0.00111033 -0.0014304
internal_weight=0 319.943 169.209 265.419
internal_count=2025 1322 703 1096
is_linear=0
shrinkage=0.0339163


Tree=32
num_leaves=11
num_cat=0
split_feature=11 12 1 3 12 12 4 7 7 7
split_gain=2.41095 0.993854 0.352498 0.226353 0.118118 0.0554526 0.034345 0.0334373 0.0270924 0.024594
threshold=1.0000000180025095e-35 0.61080164086199273 1.0000000180025095e-35 8.1008339025776603 2.0156914256993939 1.3231090748968601 3.5000000000000004 241.50000000000003 354.50000000000006 338.50000000000006
decision_type=2 2 2 2 2 2 2 2 2 2
left_child=5 2 -2 9 7 -1 -4 -5 -9 -3
right_child=1 3 6 4 -6 -7 -8 8 -10 -11
leaf_value=0.00050483796470616386 -0.0006434386194071783 -0.00010948334712046805 8.6332082845717617e-05 -1.060773943490472e-05 -3.9776016602995224e-05 -9.6961407943300605e-06 -3.6721179869342283e-05 0.00029217117924802661 -8.3218664390963549e-06 2.0644381754947459e-05
leaf_weight=99.797951221466064 165.56749410927296 28.277547791600227 14.728234037756922 7.7241380214691153 7.4940403699874869 8.4378410279750806 7.2472614198923102 138.53197135031223 5.5670819431543341 5.7992381900548926
leaf_count=414 684 117 61 32 31 35 30 574 23 24
internal_value=0 -0.000433884 -0.000592914 0.000145633 0.000233496 0.00049448 4.94548e-05 0.000272783 0.000283635 -8.86885e-05
internal_weight=0 380.937 187.543 193.394 159.317 108.236 21.9755 151.823 144.099 34.0768
internal_count=2025 1576 775 801 660 449 91 629 597 141
is_linear=0
shrinkage=0.0339163


Tree=33
num_leaves=7
num_cat=0
split_feature=13 14 7 7 14 7
split_gain=6.44671 1.18848 0.239556 0.131563 0.0543049 0.000244714
threshold=0.22847924843519357 1.1604019595403046 241.50000000000003 251.50000000000003 2.6331075913443809 227.50000000000003
decision_type=2 2 2 2 2 2
left_child=1 3 5 -1 -3 -2
right_child=2 4 -4 -5 -6 -7
leaf_value=1.3108331777492638e-05 6.9436349782120735e-07 0.00015467930993878101 0.00081772722697978997 -0.00087004706324927679 -3.2253660607110773e-05 -2.6803718960651255e-05
leaf_weight=10.881252333521841 6.0295765846967724 74.223223119974136 134.41143438220024 242.85184702277184 10.647315680980681 10.130502015352247
leaf_count=45 25 307 559 1003 44 42
internal_value=0 -0.000726936 0.000790115 -0.000855828 0.000122403 -2.59419e-05
internal_weight=0 338.604 150.572 253.733 84.8705 16.1601
internal_count=2025 1399 626 1048 351 67
is_linear=0
shrinkage=0.0339163


Tree=34
num_leaves=11
num_cat=0
split_feature=14 11 8 3 7 7 14 3 3 3
split_gain=2.4655 0.920565 0.88677 0.15195 0.0881427 0.0631559 0.049333 0.0372184 0.00320877 0.000125263
threshold=0.73020048809111082 1.0000000180025095e-35 1.0000000180025095e-35 13.33594849369525 354.50000000000006 236.50000000000003 2.8994534366884959 8.2540230266873191 13.991735800426801 8.9987934755982337
decision_type=2 2 2 2 2 2 2 2 2 2
left_child=1 7 4 -3 5 -2 -7 -1 -5 -4
right_child=2 3 9 8 -6 6 -8 -9 -10 -11
leaf_value=-2.0927889095951204e-05 -8.70035356914415e-06 -0.00061369314567936604 0 3.1608761157461414e-05 -1.2400310789915904e-05 0.00064846585311460119 -6.3911269932977732e-06 0.00016276683041650092 -9.2913729293654973e-06 -0.00013060401523707206
leaf_weight=10.144529253244398 5.5544739365577689 178.4810022264719 6.5185072720050803 7.0008430480957013 7.4971791058778754 193.37108218669891 9.9161271303892118 36.870533376932144 6.0512285679578781 27.78358082473278
leaf_count=42 23 738 27 29 31 801 41 153 25 115
internal_value=0 -0.000448969 0.000489631 -0.000590766 0.000619134 0.000632008 0.000641126 0.000141556 2.21544e-05 -0.000130447
internal_weight=0 238.548 250.641 191.533 216.339 208.842 203.287 47.0151 13.0521 34.3021
internal_count=2025 987 1038 792 896 865 842 195 54 142
is_linear=0
shrinkage=0.0339163


Tree=35
num_leaves=4
num_cat=0
split_feature=6 1 3
split_gain=12.9656 1.45811 0.0562779
threshold=656.58489897421362 1.0000000180025095e-35 9.3352075292790495
decision_type=2 2 2
left_child=1 -1 -3
right_child=-2 2 -4
leaf_value=-0.0011569879566853134 0.0011087980580736195 -3.4955907087737415e-05 0.00014815570378317951
leaf_weight=282.83985596895218 169.15176449716091 10.390259146690367 26.803286984562874
leaf_count=1168 703 43 111
internal_value=0 -0.00104219 0.000112961
internal_weight=0 320.033 37.1935
internal_count=2025 1322 154
is_linear=0
shrinkage=0.0339163


Tree=36
num_leaves=10
num_cat=0
split_feature=9 10 3 3 3 3 11 3 3
split_gain=3.03801 4.44474 0.251503 0.213675 0.105949 0.0156263 0.0114143 0.0023857 0.00792911
threshold=1.0000000180025095e-35 1.0000000180025095e-35 5.6170274871470047 12.233300075053085 14.803005907806197 12.798839371284265 1.0000000180025095e-35 14.00159623565054 14.515339962473007
decision_type=2 2 2 2 2 2 2 2 2
left_child=1 2 -1 -2 -4 -5 -7 -8 -9
right_child=3 -3 4 5 -6 6 7 8 -10
leaf_value=-2.3086465753303501e-05 -0.0005432355278121451 -0.00042167810702372613 0.00098845149998569065 5.8970940769039974e-05 -9.2141200641103518e-06 2.2457991468576989e-05 -5.1230731814131046e-05 2.931040582712068e-05 -2.5023179086244262e-05
leaf_weight=7.5045259892940512 127.03783147037029 80.76564984023571 219.75509721040726 13.523426115512846 7.2540175914764395 6.026774287223815 13.308592393994333 5.5568164587020865 8.4732311367988569
leaf_count=31 525 334 911 56 30 25 55 23 35
internal_value=0 0.000536275 0.000954749 -0.000505527 0.000978299 3.42591e-05 -2.43078e-05 -4.68549e-05 4.12695e-06
internal_weight=0 315.279 234.514 173.927 227.009 46.8888 33.3654 27.3386 14.03
internal_count=2025 1306 972 719 941 194 138 113 58
is_linear=0
shrinkage=0.0339163


Tree=37
num_leaves=5
num_cat=0
split_feature=13 5 11 3
split_gain=6.41653 4.88694 1.24457 0.0143288
threshold=0.22847924843519357 3.5000000000000004 1.0000000180025095e-35 7.2001128310409959
decision_type=2 2 2 2
left_child=1 2 3 -1
right_child=-2 -3 -4 -5
leaf_value=-1.2728582541744004e-05 0.00078857460448485258 0.00039801742178705956 -0.0012114851006867285 0.00010285764523959914
leaf_weight=6.2861209064722052 150.5139507651329 54.287161022424698 233.15468814969063 44.941850215196609
leaf_count=26 626 225 962 186
internal_value=0 -0.000724936 -0.00111504 8.99753e-05
internal_weight=0 338.67 284.383 51.228
internal_count=2025 1399 1174 212
is_linear=0
shrinkage=0.0339163


Tree=38
num_leaves=8
num_cat=0
split_feature=13 11 1 7 7 3 7
split_gain=6.39973 2.21383 1.08949 0.239507 0.190972 0.0149933 0.000239013
threshold=0.22847924843519357 1.0000000180025095e-35 1.0000000180025095e-35 241.50000000000003 248.50000000000003 7.2001128310409959 227.50000000000003
decision_type=2 2 2 2 2 2 2
left_child=1 5 4 6 -3 -1 -2
right_child=3 2 -4 -5 -6 -7 -8
leaf_value=-6.0790545885905598e-06 6.7308189545103746e-07 1.6008513935784161e-05 9.4867657729910275e-05 0.00081561688767964032 -0.001050461041274325 0.00021910291381901608 -2.6850043567472884e-05
leaf_weight=7.0095631480216971 6.0287946462631252 8.2276452928781492 30.444375693798065 134.33307822048664 232.90819922089577 60.124422684311867 10.1288536041975
leaf_count=29 25 34 126 559 961 249 42
internal_value=0 -0.000723602 -0.000937222 0.000787944 -0.00103355 0.000212696 -2.60094e-05
internal_weight=0 338.714 271.58 150.491 241.136 67.134 16.1576
internal_count=2025 1399 1121 626 995 278 67
is_linear=0
shrinkage=0.0339163


Tree=39
num_leaves=10
num_cat=0
split_feature=9 3 5 1 12 12 3 3 12
split_gain=3.02905 1.15135 0.81521 0.464649 0.178614 0.094481 0.054242 0.00716532 0.000508449
threshold=1.0000000180025095e-35 7.8028187860449618 3.5000000000000004 1.0000000180025095e-35 2.0156914256993939 0.73139117474724202 14.803005907806197 11.497799130056809 1.1389727463312369
decision_type=2 2 2 2 2 2 2 2 2
left_child=1 5 3 -2 6 -1 -3 -5 -7
right_child=2 4 -4 7 -6 8 -8 -9 -10
leaf_value=-0.00019650317212068248 -0.00068544269965980229 0.0007168488847426103 0.00012007115525285075 -9.1629053548050037e-06 -2.2777244476645155e-05 4.5210800834396541e-05 -6.2981057899072363e-06 7.1080655753054549e-05 -8.8133586664553844e-07
leaf_weight=30.509670197963715 141.13215447962284 249.9743023365736 15.446544751524923 9.6562875807285327 6.997991368174552 12.059635579586031 9.9190702736377698 7.7274796068668357 5.7999629080295554
leaf_count=126 583 1036 64 40 29 50 41 32 24
internal_value=0 0.000535907 -0.000504387 -0.000623122 0.00068679 -0.000151869 0.000709557 6.16762e-05 4.41464e-05
internal_weight=0 315.261 173.962 158.516 266.891 48.3693 259.893 17.3838 17.8596
internal_count=2025 1306 719 655 1106 200 1077 72 74
is_linear=0
shrinkage=0.0339163


Tree=40
num_leaves=9
num_cat=0
split_feature=13 14 7 7 14 12 12 7
split_gain=6.38492 1.18662 0.239359 0.131288 0.0541616 0.00926231 0.00547432 0.000237007
threshold=0.22847924843519357 1.1604019595403046 241.50000000000003 251.50000000000003 2.6331075913443809 0.74216423414576849 1.128621909804375 227.50000000000003
decision_type=2 2 2 2 2 2 2 2
left_child=1 3 7 -1 5 -3 -7 -2
right_child=2 4 -4 -5 -6 6 -8 -9
leaf_value=1.3145809326209403e-05 6.6603358964314771e-07 0.00016047795875125961 0.00081484931017809521 -0.00086612232971360666 -3.2110149147655241e-05 -2.5209312457764654e-05 2.006960641069633e-05 -2.6852830630162626e-05
leaf_weight=10.882401853799818 6.0285392850637463 57.067093819379807 134.30445422232151 242.97976626455784 10.651918753981588 8.4668429046869296 8.6976513266563398 10.128755986690519
leaf_count=45 25 236 559 1003 44 35 36 42
internal_value=0 -0.000722634 0.000787169 -0.000851874 0.000122819 0.000154954 -4.98914e-06 -2.60192e-05
internal_weight=0 338.746 150.462 253.862 84.8835 74.2316 17.1645 16.1573
internal_count=2025 1399 626 1048 351 307 71 67
is_linear=0
shrinkage=0.0339163


Tree=41
num_leaves=7
num_cat=0
split_feature=13 11 1 14 14 14
split_gain=6.37105 2.20957 1.08728 0.0681693 0.0540251 0.000973392
threshold=0.22847924843519357 1.0000000180025095e-35 1.0000000180025095e-35 0.64231049416422137 0.53402096190375692 0.39654864264174078
decision_type=2 2 2 2 2 2
left_child=1 4 -3 -4 5 -1
right_child=-2 2 3 -5 -6 -7
leaf_value=3.5210514555646523e-06 0.00078658904159001949 -0.0010315490421122647 -4.4920959136369804e-05 0.00013996574142060276 0.00023421686632027166 -2.4661696490798249e-05
leaf_weight=7.4916777908802015 150.44018432497978 241.20120032131672 8.7053000926971453 21.738898918032646 52.875163525342941 6.7687864601612091
leaf_count=31 626 995 36 90 219 28
internal_value=0 -0.000721586 -0.000935232 9.48637e-05 0.000212748 -2.09721e-05
internal_weight=0 338.781 271.645 30.4442 67.1356 14.2605
internal_count=2025 1399 1121 126 278 59
is_linear=0
shrinkage=0.0339163


Tree=42
num_leaves=4
num_cat=0
split_feature=6 11 3
split_gain=12.8688 1.75263 0.0545161
threshold=656.58489897421362 1.0000000180025095e-35 9.8003206154258393
decision_type=2 2 2
left_child=1 2 -1
right_child=-2 -3 -4
leaf_value=-3.0573024339430706e-05 0.0011058435167128561 -0.0011750234002003879 0.00016313010472071386
leaf_weight=20.305017963051796 169.03953148424625 259.57118791341782 40.322673514485359
leaf_count=84 703 1071 167
internal_value=0 -0.00103714 0.000132084
internal_weight=0 320.199 60.6277
internal_count=2025 1322 251
is_linear=0
shrinkage=0.0339163


Tree=43
num_leaves=6
num_cat=0
split_feature=9 10 8 5 1
split_gain=3.01936 4.4296 6.29067 0.814375 0.464125
threshold=1.0000000180025095e-35 1.0000000180025095e-35 1.0000000180025095e-35 3.5000000000000004 1.0000000180025095e-35
decision_type=2 2 2 2 2
left_child=1 2 -1 4 -2
right_child=3 -3 -4 -5 -6
leaf_value=0.0013745556226596681 -0.00068416077156103604 -0.00042083475759210225 -0.00041358259703025516 0.00012020522808433532 6.1724407092025123e-05
leaf_weight=153.43617980182171 141.17097879946232 80.791060358285904 81.019480153918266 15.451004400849341 17.385236099362373
leaf_count=637 583 334 335 64 72
internal_value=0 0.000535744 0.000953396 -0.000502934 -0.000621797
internal_weight=0 315.247 234.456 174.007 158.556
internal_count=2025 1306 972 719 655
is_linear=0
shrinkage=0.0339163


Tree=44
num_leaves=7
num_cat=0
split_feature=13 11 2 1 7 7
split_gain=6.33813 2.20019 1.46239 1.08559 0.190758 0.0619054
threshold=0.22847924843519357 1.0000000180025095e-35 18.500000000000004 1.0000000180025095e-35 248.50000000000003 230.50000000000003
decision_type=2 2 2 2 2 2
left_child=1 -1 5 4 -3 -2
right_child=2 3 -4 -5 -6 -7
leaf_value=0.00021246166634354452 -5.5018259271576397e-06 1.6065830256022783e-05 -0.00014442820405266441 9.4963998467042382e-05 -0.0010459000682769767 0.00093530351949287283
leaf_weight=67.12561859190464 6.5119441449642173 8.2294901758432371 15.174883201718329 30.447492361068726 233.05589586496353 128.6969877332449
leaf_count=278 27 34 63 126 961 536
internal_value=0 -0.000719201 0.0007851 -0.000932542 -0.00102894 0.000928813
internal_weight=0 338.858 150.384 271.733 241.285 135.209
internal_count=2025 1399 626 1121 995 563
is_linear=0
shrinkage=0.0339163


Tree=45
num_leaves=7
num_cat=0
split_feature=11 5 1 4 3 3
split_gain=2.36993 2.46446 1.10935 0.038286 0.0448377 0.0244537
threshold=1.0000000180025095e-35 3.5000000000000004 1.0000000180025095e-35 3.5000000000000004 12.800331722017587 6.7019225450627244
decision_type=2 2 2 2 2 2
left_child=5 2 -2 -4 -5 -1
right_child=1 -3 3 4 -6 -7
leaf_value=-4.1765981583781759e-06 -0.00084412216118067763 0.00030855917910733234 0.00014359132201438685 -7.7841034970953869e-05 5.3280962050612919e-05 0.00049700552970394489
leaf_weight=6.0397154837846747 301.21123623847961 43.204651415348053 22.193523302674294 8.6991938948631269 5.7950794398784629 102.11427040398121
leaf_count=25 1245 179 92 36 24 424
internal_value=0 -0.000428312 -0.000725938 0.000118783 -2.44194e-05 0.00049228
internal_weight=0 381.104 337.899 36.6878 14.4943 108.154
internal_count=2025 1576 1397 152 60 449
is_linear=0
shrinkage=0.0339163


Tree=46
num_leaves=8
num_cat=0
split_feature=9 10 11 14 14 14 14
split_gain=3.01181 4.42171 0.180462 0.162448 0.0150773 0.00193539 0.00432233
threshold=1.0000000180025095e-35 1.0000000180025095e-35 1.0000000180025095e-35 0.27009043511270175 0.75612398773358569 1.816616972915958 2.8994534366884959
decision_type=2 2 2 2 2 2 2
left_child=1 3 4 -1 -2 -4 -7
right_child=2 -3 5 -5 -6 6 -8
leaf_value=-1.4741449412984535e-05 -2.511677143167887e-05 -0.00042029712775936941 -0.0005343061540963081 0.00096854062116262648 5.5305979734585371e-05 1.9907359479007475e-05 -2.0103009531062643e-05
leaf_weight=8.4509730339050275 13.270208746194841 80.808055803179741 133.4814016520977 225.98355919122696 14.950507566332815 6.2911836206912977 6.0545314103364944
leaf_count=35 55 334 551 937 62 26 25
internal_value=0 0.000535776 -0.000501655 0.000952908 2.99893e-05 -0.000533458 -5.19501e-08
internal_weight=0 315.243 174.048 234.435 28.2207 145.827 12.3457
internal_count=2025 1306 719 972 117 602 51
is_linear=0
shrinkage=0.0339163


Tree=47
num_leaves=4
num_cat=0
split_feature=6 5 1
split_gain=12.8121 6.10059 1.59973
threshold=656.58489897421362 3.5000000000000004 1.0000000180025095e-35
decision_type=2 2 2
left_child=1 2 -1
right_child=-2 -3 -4
leaf_value=-0.0015180796105133535 0.0011041223199850542 0.00038959394862361204 9.3154077124551208e-05
leaf_weight=230.73536878824234 168.97370859980583 54.535718187689781 35.023093536496162
leaf_count=951 703 226 145
internal_value=0 -0.00103416 -0.00141989
internal_weight=0 320.294 265.758
internal_count=2025 1322 1096
is_linear=0
shrinkage=0.0339163


Tree=48
num_leaves=4
num_cat=0
split_feature=6 1 14
split_gain=12.7798 1.44569 0.104243
threshold=656.58489897421362 1.0000000180025095e-35 0.64231049416422137
decision_type=2 2 2
left_child=1 -1 -3
right_child=-2 2 -4
leaf_value=-0.0011472138921375852 0.0011031361227713896 -5.6626456514091303e-05 0.00016978809455462811
leaf_weight=283.15582537651062 168.93706756830215 10.395319923758505 26.798462674021721
leaf_count=1168 703 43 111
internal_value=0 -0.00103246 0.00011298
internal_weight=0 320.35 37.1938
internal_count=2025 1322 154
is_linear=0
shrinkage=0.0339163


end of trees

feature_importances:
total_intl_minutes=50
avg_intl_call_charge=42
total_calls=32
international_plan=27
number_customer_service_calls=24
state_other=22
avg_call_charge=21
avg_mt_charge=12
total_minutes=11
area_code_area_code_415=9
number_vmail_messages=8
area_code_area_code_510=7
area_code_area_code_408=4
account_length=3
total_intl_calls=3

parameters:
[boosting: gbdt]
[objective: binary]
[metric: auc]
[tree_learner: serial]
[device_type: cpu]
[data: ]
[valid: ]
[num_iterations: 5000]
[learning_rate: 0.0339163]
[num_leaves: 33]
[num_threads: 0]
[deterministic: 0]
[force_col_wise: 1]
[force_row_wise: 0]
[histogram_pool_size: 5000]
[max_depth: 48]
[min_data_in_leaf: 23]
[min_sum_hessian_in_leaf: 0.001]
[bagging_fraction: 0.459107]
[pos_bagging_fraction: 1]
[neg_bagging_fraction: 1]
[bagging_freq: 27]
[bagging_seed: 59]
[feature_fraction: 0.400153]
[feature_fraction_bynode: 1]
[feature_fraction_seed: 59]
[extra_trees: 0]
[extra_seed: 14098]
[early_stopping_round: 50]
[first_metric_only: 0]
[max_delta_step: 0]
[lambda_l1: 0.0261693]
[lambda_l2: 6205.52]
[linear_lambda: 0]
[min_gain_to_split: 0]
[drop_rate: 0.1]
[max_drop: 50]
[skip_drop: 0.5]
[xgboost_dart_mode: 0]
[uniform_drop: 0]
[drop_seed: 26648]
[top_rate: 0.2]
[other_rate: 0.1]
[min_data_per_group: 100]
[max_cat_threshold: 32]
[cat_l2: 10]
[cat_smooth: 10]
[max_cat_to_onehot: 4]
[top_k: 20]
[monotone_constraints: ]
[monotone_constraints_method: basic]
[monotone_penalty: 0]
[feature_contri: ]
[forcedsplits_filename: ]
[refit_decay_rate: 0.9]
[cegb_tradeoff: 1]
[cegb_penalty_split: 0]
[cegb_penalty_feature_lazy: ]
[cegb_penalty_feature_coupled: ]
[path_smooth: 0]
[interaction_constraints: ]
[verbosity: -1]
[saved_feature_importance_type: 0]
[linear_tree: 0]
[max_bin: 255]
[max_bin_by_feature: ]
[min_data_in_bin: 3]
[bin_construct_sample_cnt: 200000]
[data_random_seed: 231]
[is_enable_sparse: 1]
[enable_bundle: 1]
[use_missing: 1]
[zero_as_missing: 0]
[feature_pre_filter: 0]
[pre_partition: 0]
[two_round: 0]
[header: 0]
[label_column: ]
[weight_column: ]
[group_column: ]
[ignore_column: ]
[categorical_feature: ]
[forcedbins_filename: ]
[precise_float_parser: 0]
[objective_seed: 27591]
[num_class: 1]
[is_unbalance: 0]
[scale_pos_weight: 1]
[sigmoid: 1]
[boost_from_average: 1]
[reg_sqrt: 0]
[alpha: 0.9]
[fair_c: 1]
[poisson_max_delta_step: 0.7]
[tweedie_variance_power: 1.5]
[lambdarank_truncation_level: 30]
[lambdarank_norm: 1]
[label_gain: ]
[eval_at: ]
[multi_error_top_k: 1]
[auc_mu_weights: ]
[num_machines: 1]
[local_listen_port: 12400]
[time_out: 120]
[machine_list_filename: ]
[machines: ]
[gpu_platform_id: -1]
[gpu_device_id: -1]
[gpu_use_dp: 0]
[num_gpu: 1]

end of parameters

pandas_categorical:[]
