tree
version=v3
num_class=1
num_tree_per_iteration=1
label_index=0
max_feature_idx=15
objective=binary sigmoid:1
feature_names=account_length international_plan number_vmail_messages total_intl_minutes total_intl_calls number_customer_service_calls total_minutes total_calls area_code_area_code_408 area_code_area_code_415 area_code_area_code_510 state_other avg_mt_charge avg_call_charge avg_intl_call_charge both_plans
feature_infos=[1:232] [0:1] [0:50] [0:20] [0:18] [0:9] [300.89999999999998:876.89999999999998] [189:410] [0:1] [0:1] [0:1] [0:1] [0.17751099737507867:68.060000000000002] [0.063580901856763919:0.40254807692307693] [0:4.9100000000000001] [0:1]
tree_sizes=3224 2913 3454 3141 3144 3231 3231 3345 3247 3220 3780 3666 3234 3446 3332 3581 3352 3696 3474 3465 3482 3370 3243 3467 3471 3358 3346 3352 3586 3266 3378 3268 3713 3480 3593 3364 3693 3583 3264 3371 3371 3682 3576 3572 3472 3369 3903 3587 3380 3692 3473 3586 3360 3376 3471 3586 3490 3703 3790 3698 3476 3378 3477 3892 3463 3797 3706 3784 3695 3715 3594 3699 3707 3694 3702 3710 3803 3692 3580 4033 3704 3825 3703 3584 3603 3496 3692 3817 3584 3714 3575

Tree=0
num_leaves=30
num_cat=0
split_feature=6 2 6 14 8 10 3 14 11 0 11 0 6 0 0 7 13 0 13 2 4 14 13 0 13 13 3 6 13
split_gain=780.894 234.257 173.101 72.4504 62.2097 84.5549 50.7415 44.5689 31.0308 25.8593 25.1396 30.4986 20.5354 16.7677 14.9808 14.5368 11.1174 9.85217 9.83312 9.35764 9.4875 6.6216 4.43948 2.70552 2.16256 2.14045 1.73683 0.567489 0.0368568
threshold=656.10744223194399 18.500000000000004 547.95000000000016 0.73509158324485357 1.0000000180025095e-35 1.0000000180025095e-35 12.204368397703641 1.0955625127490294 1.0000000180025095e-35 72.500000000000014 1.0000000180025095e-35 73.500000000000014 681.81485605849832 102.50000000000001 74.500000000000014 266.50000000000006 0.24310793331475358 86.500000000000014 0.1612242851497204 1.0000000180025095e-35 4.5000000000000009 0.6692131111360069 0.18814977075904232 59.500000000000007 0.19160431235431238 0.16479484899736305 11.186885587874958 699.43437202448376 0.22320297162347499
decision_type=2 2 2 2 2 2 2 2 2 2 2 2 2 2 2 2 2 2 2 2 2 2 2 2 2 2 2 2 2
left_child=2 12 3 8 5 6 7 13 -1 -10 25 -12 16 14 -4 -13 -2 -8 26 20 -11 -7 -6 -14 -15 -5 -17 -25 -29
right_child=1 -3 4 10 22 21 17 -9 9 19 11 15 23 24 -16 18 -18 -19 -20 -21 -22 -23 -24 27 -26 -27 -28 28 -30
leaf_value=0.39014731154777732 0.39156653439015654 0.38015282735953404 0.37919249992803239 0.39307609216444045 0.3775557496177811 0.37458487330313428 0.39252904128813204 0.38900508349212193 0.37720207788592663 0.38618777656845715 0.38274985063536016 0.39482448616241322 0.39677508311247506 0.37911045044590796 0.38572777997128438 0.39196570636352657 0.39742581759779894 0.38726556207324353 0.38592605681618841 0.38745275066145712 0.38111378710318977 0.37842554904962794 0.37419088251442478 0.39810325914913547 0.37638420740302819 0.39577422967360726 0.38962960481815867 0.39874493453068827 0.39901202861407192
leaf_weight=29.859448611736298 27.93303257226944 32.749072670936584 24.802606508135796 23.357794478535652 26.729022547602654 32.508270666003227 26.247418537735939 32.749072670936584 24.561804503202438 24.080200493335724 24.802606508135796 24.080200493335724 28.173834577202797 23.116992473602295 31.785864651203156 25.043408513069153 23.839398488402367 30.581854626536369 24.561804503202438 28.896240592002869 37.324310764670372 39.491528809070587 37.324310764670372 34.675488710403442 23.116992473602295 23.357794478535652 25.525012522935867 23.598596483469009 169.04300746321678
leaf_count=124 116 136 103 97 111 135 109 136 102 100 103 100 117 96 132 104 99 127 102 120 155 164 155 144 96 97 106 98 702
internal_value=0.388436 0.396176 0.38437 0.387704 0.381167 0.382517 0.384698 0.382602 0.384424 0.382936 0.390485 0.389001 0.397884 0.380563 0.382863 0.390563 0.394265 0.389697 0.389198 0.384495 0.383104 0.376691 0.375595 0.398617 0.377747 0.394425 0.390787 0.398846 0.398979
internal_weight=0 340.012 643.905 315.451 328.454 264.401 192.401 135.572 144.722 114.863 170.729 124.013 307.263 102.822 56.5885 99.2104 51.7724 56.8293 75.1302 90.3008 61.4045 71.9998 64.0533 255.491 46.234 46.7156 50.5684 227.317 192.642
internal_count=4086 1412 2674 1310 1364 1098 799 563 601 477 709 515 1276 427 235 412 215 236 312 375 255 299 266 1061 192 194 210 944 800
is_linear=0
shrinkage=1


Tree=1
num_leaves=26
num_cat=0
split_feature=6 5 2 14 3 8 9 10 6 10 9 8 6 13 5 6 6 0 0 14 0 0 6 13 13
split_gain=771.645 495.438 231.716 101.717 78.9401 51.5648 94.993 191.48 50 28.1069 54.0668 293.498 20.3785 11.0163 8.18491 7.553 3.85406 4.13115 2.68674 2.13451 1.81672 1.59095 0.563741 0.495118 0.0366192
threshold=656.10744223194399 3.5000000000000004 18.500000000000004 0.89014614776791878 12.806695455105711 1.0000000180025095e-35 1.0000000180025095e-35 1.0000000180025095e-35 542.35198623284032 1.0000000180025095e-35 1.0000000180025095e-35 1.0000000180025095e-35 681.81485605849832 0.24310793331475358 1.5000000000000002 542.35198623284032 509.7768749219461 102.50000000000001 59.500000000000007 0.53264081009511965 75.500000000000014 88.500000000000014 699.43437202448376 0.16697441485068606 0.22320297162347499
decision_type=2 2 2 2 2 2 2 2 2 2 2 2 2 2 2 2 2 2 2 2 2 2 2 2 2
left_child=1 3 12 4 9 6 7 -5 23 10 11 -1 13 -2 -8 -13 -12 20 -14 -11 -18 -6 -20 -3 -24
right_child=2 8 -4 5 21 -7 14 -9 -10 19 16 15 18 -15 -16 -17 17 -19 22 -21 -22 -23 24 -25 -26
leaf_value=0.010586730786069722 0.0031125945262436179 0.010574492148140144 -0.0082180898817412248 0.010566132247754318 -0.00021059222593745739 -0.010420680985771206 -0.0087932998331754584 -0.0074312584027639694 0.00085638437139808012 -0.015266161738320599 -0.0098736323639081799 -0.010523283721885339 0.0082998825194619749 0.0089487096662868148 -0.00455018600294983 -0.014982647539304591 -0.012287332047144514 -0.013729630934974348 0.009624344731483752 -0.012814885966321216 -0.0098756416825568055 -0.0024863152511924768 0.010264476572452195 0.0094999462052223326 0.010530976360639967
leaf_weight=30.596362546086311 27.91620010137558 61.400169253349304 32.800603985786438 52.23074172437191 23.361779600381851 32.069744884967804 43.592009380459785 42.655484437942505 30.38121397793293 28.477704077959061 33.255965620279312 25.066096499562263 28.128336131572723 23.797863811254501 30.826258435845375 37.894422933459282 25.32213206589222 45.825987800955772 34.610471963882446 27.977623894810677 24.332085683941841 25.541870430111885 23.551377236843109 23.59054297208786 168.69589287042618
leaf_count=127 116 255 136 217 97 133 181 177 126 118 138 104 117 99 128 157 105 190 144 116 101 106 98 98 702
internal_value=0 -0.00403752 0.00770289 -0.00661815 -0.00878461 -0.00309315 -0.00170516 0.00247552 0.00779569 -0.0100803 -0.00907178 -0.00542581 0.00940559 0.00579828 -0.00703569 -0.0132073 -0.0117214 -0.012365 0.0101372 -0.0140514 -0.0111055 -0.00139919 0.010365 0.0102762 0.0104983
internal_weight=0 644.398 339.501 529.026 327.652 201.374 169.304 94.8862 115.372 278.748 222.293 93.5569 306.7 51.7141 74.4183 62.9605 128.736 95.4802 254.986 56.4553 49.6542 48.9037 226.858 84.9907 192.247
internal_count=4086 2674 1412 2195 1359 836 703 394 479 1156 922 388 1276 215 309 261 534 396 1061 234 206 203 944 353 800
is_linear=0
shrinkage=0.00630227


Tree=2
num_leaves=31
num_cat=0
split_feature=13 5 2 11 7 13 1 7 9 10 9 14 13 3 13 7 14 13 0 7 3 13 14 7 3 7 7 7 13 0
split_gain=399.692 388.439 207.993 113.449 76.5266 173.007 92.4998 52.6376 44.205 39.1652 49.3703 34.476 24.0437 16.3202 15.2269 58.9299 14.0313 9.24745 8.77877 6.97911 5.44417 4.58846 2.77086 2.69328 2.10035 1.60515 1.02051 0.546242 0.100967 0.0347964
threshold=0.23240848649163137 3.5000000000000004 18.500000000000004 1.0000000180025095e-35 319.50000000000006 0.19456443266439483 1.0000000180025095e-35 245.50000000000003 1.0000000180025095e-35 1.0000000180025095e-35 1.0000000180025095e-35 0.82680143765360359 0.17514425684275844 11.148610685740445 0.24921699491047247 294.50000000000006 0.85775000000000012 0.2113903850276688 90.500000000000014 333.50000000000006 10.942003021752491 0.16177157509899984 0.71079173317383504 285.50000000000006 12.399325208992154 287.50000000000006 320.50000000000006 267.50000000000006 0.23841124365163022 128.50000000000003
decision_type=2 2 2 2 2 2 2 2 2 2 2 2 2 2 2 2 2 2 2 2 2 2 2 2 2 2 2 2 2 2
left_child=1 3 7 8 6 11 9 -2 18 10 16 21 26 22 15 -9 23 -7 -1 -13 -20 -6 -12 -5 -15 -11 -3 -16 -17 -29
right_child=2 12 -4 4 5 17 -8 14 -10 25 13 19 -14 24 27 28 -18 -19 20 -21 -22 -23 -24 -25 -26 -27 -28 29 -30 -31
leaf_value=0.00096667592944480146 0.00075682178943503305 0.01052893933495096 -0.010359728413333186 -0.0048210865995265565 -0.0081964936261590283 0.0039352078956401563 0.0015904172540611109 -0.0016830659690168421 -0.0047560000327962083 -0.012973616445267644 -0.013712701289352423 -0.00042478889171069541 0.0038446254713493224 -0.006605820308247027 0.0095810696133875346 0.0099537893358299673 -0.0012207628203761882 0.0091650485599557626 0.0033647446776466886 -0.0050862963984896958 0.0076363597742261707 -0.011345901179647636 -0.011057325488916036 -0.0076106763435419252 -0.0092834634228222707 -0.015197988633448622 0.0089553448616566025 0.010493511800608566 0.01049718998331247 0.010216220613192788
leaf_weight=26.241839066147804 35.364935040473938 53.583127170801163 27.297688037157059 23.654777124524117 42.49551685154438 25.730838298797607 34.957926020026207 23.121592670679092 34.471582129597664 23.200347661972046 44.221879497170448 24.584755033254623 36.580306455492973 23.408011183142662 41.03626112639904 23.270542412996292 32.034437134861946 28.08883498609066 23.596355199813843 26.515703409910202 23.808177098631859 32.373441398143768 24.128448843955994 32.823394119739532 23.13985438644886 29.00234155356884 23.579851269721985 85.63747675716877 32.869426116347313 23.024563670158386
leaf_count=109 147 223 113 98 176 107 145 96 143 96 183 102 152 97 171 97 133 117 98 110 99 134 100 136 96 120 98 357 137 96
internal_value=0 -0.0025937 0.00620239 -0.00468711 -0.00602521 -0.00279349 -0.00802481 0.00791282 0.00113418 -0.00933979 -0.00809006 -0.00683445 0.00805303 -0.0108152 0.00901812 0.00678453 -0.00455254 0.00666471 0.00389119 -0.00284363 0.00551011 -0.00955831 -0.0127753 -0.00644232 -0.00793695 -0.0142094 0.0100481 0.0102008 0.010272 0.0104348
internal_weight=0 692.222 291.622 578.478 470.361 179.789 290.571 264.325 108.118 255.613 203.411 125.969 113.743 114.898 228.96 79.2616 88.5126 53.8197 73.6464 51.1005 47.4045 74.869 68.3503 56.4782 46.5479 52.2027 77.163 149.698 56.14 108.662
internal_count=4086 2872 1214 2399 1950 746 1204 1101 449 1059 843 522 473 476 954 330 367 224 306 212 197 310 283 234 193 216 321 624 234 453
is_linear=0
shrinkage=0.00630227


Tree=3
num_leaves=28
num_cat=0
split_feature=6 2 6 9 8 8 9 0 14 0 6 0 14 7 6 4 13 13 6 14 13 13 0 13 6 14 6
split_gain=755.664 227.175 166.845 88.0182 128.498 60.5723 91.6345 37.72 26.4065 24.5598 20.0895 19.0042 17.6348 14.6069 13.6461 11.7057 11.5181 10.7633 10.1383 5.72904 4.36003 2.80225 2.64896 1.1898 0.546229 0.188776 0.0346838
threshold=656.10744223194399 18.500000000000004 547.95000000000016 1.0000000180025095e-35 1.0000000180025095e-35 1.0000000180025095e-35 1.0000000180025095e-35 122.50000000000001 0.71079173317383504 72.500000000000014 681.81485605849832 114.50000000000001 0.55844855930377391 302.50000000000006 614.30000000000007 3.5000000000000004 0.20970642102995046 0.24310793331475358 498.10000000000008 1.0882772995442205 0.18814977075904232 0.15481854701970185 59.500000000000007 0.19678313941099787 699.43437202448376 0.57112461034196871 709.05387343833286
decision_type=2 2 2 2 2 2 2 2 2 2 2 2 2 2 2 2 2 2 2 2 2 2 2 2 2 2 2
left_child=2 10 3 4 9 6 12 8 -5 -1 17 13 -4 16 19 21 -8 -2 -6 -14 -7 -11 -12 -13 -24 -17 -26
right_child=1 -3 5 7 18 20 11 -9 -10 15 22 23 14 -15 -16 25 -18 -19 -20 -21 -22 -23 24 -25 26 -27 -28
leaf_value=-0.0001376916576260895 0.0030938569085914355 -0.0080988930424888694 -0.0053622934968178123 -0.011031789564457968 -0.0091857569646696061 -0.010668932110142018 -0.0022865083559647482 0.00032192331509528081 -0.0038504669643381574 0.0063617839822134479 0.0082333547714892406 -0.013549686518591933 -0.0042939484914034575 -0.01067796814030623 0.0027377743235301837 0.0042847524837878988 -0.0082074939427039043 0.0088689603277668071 -0.0037671126058788718 -0.00011177207595512926 -0.013995390313243809 0.009006376809593486 0.0095567795314773774 -0.011557328436931294 0.010194308328649614 0.0034789025839657844 0.0104508659696106
leaf_weight=29.385383874177933 27.897933110594749 32.892722815275192 40.866207391023636 40.370651185512543 26.072600275278091 26.855185732245445 23.899449855089188 36.161793723702431 40.984229803085327 25.708699747920036 28.048046678304672 24.43948321044445 28.259577333927155 37.216053530573845 34.467097327113152 23.097881615161896 28.744286671280861 23.713712319731712 28.934619024395943 24.108955264091492 37.517860427498817 41.780208081007004 34.503405123949051 23.229105889797211 24.18246802687645 23.107902824878693 167.32807458937168
leaf_count=122 116 136 169 167 108 111 99 150 170 107 117 101 117 154 143 96 119 99 120 100 155 174 144 96 101 96 699
internal_value=0 0.00763855 -0.00398764 -0.000712506 0.00185099 -0.00712367 -0.00579266 -0.00503357 -0.00741406 0.00499829 0.00933201 -0.00936224 -0.0019484 -0.00765591 -0.000341759 0.00632573 -0.00551947 0.00574732 -0.00633548 -0.0023686 -0.0126077 0.00799898 0.0100602 -0.0125788 0.0102869 0.00388175 0.0104185
internal_weight=0 338.566 645.207 315.604 198.087 329.603 265.23 117.517 81.3549 143.08 305.674 137.528 127.702 89.8598 86.8356 113.695 52.6437 51.6116 55.0072 52.3685 64.373 67.4889 254.062 47.6686 226.014 46.2058 191.511
internal_count=4086 1412 2674 1310 823 1364 1098 487 337 595 1276 569 529 372 360 473 218 215 228 217 266 281 1061 197 944 192 800
is_linear=0
shrinkage=0.00630227


Tree=4
num_leaves=28
num_cat=0
split_feature=13 2 8 9 10 7 3 11 2 7 7 14 13 7 7 12 3 13 3 7 12 7 13 12 4 13 14
split_gain=390.395 203.609 150.091 292.013 583.162 51.9026 47.4404 36.9744 24.2663 18.0766 16.8908 16.0072 15.0053 57.8604 14.224 12.8152 12.1599 11.8062 5.97074 5.47599 4.98683 0.536421 0.100807 0.035111 0.00131137 0.000429505 0.000711566
threshold=0.23240848649163137 18.500000000000004 1.0000000180025095e-35 1.0000000180025095e-35 1.0000000180025095e-35 245.50000000000003 11.801969509296983 1.0000000180025095e-35 18.500000000000004 326.50000000000006 285.50000000000006 0.75009763753105985 0.24921699491047247 294.50000000000006 304.50000000000006 0.45995244003308527 10.099948438197238 0.17198294206112863 10.499029685895428 310.50000000000006 0.585054638407285 267.50000000000006 0.23841124365163022 0.585054638407285 5.5000000000000009 0.20970642102995046 0.89014614776791878
decision_type=2 2 2 2 2 2 2 2 2 2 2 2 2 2 2 2 2 2 2 2 2 2 2 2 2 2 2
left_child=2 5 3 4 24 -2 8 -6 11 10 -9 14 13 -7 -5 -16 -13 18 -4 -19 -8 -14 -15 -23 25 26 -1
right_child=1 -3 17 6 7 12 20 9 -10 -11 -12 16 21 22 15 -17 -18 19 -20 -21 -22 23 -24 -25 -26 -27 -28
leaf_value=0.010522358338932818 0.00073335051659826581 -0.010214691352409063 -0.0048189988799875435 -0.011362786480325853 -8.0889561205328022e-05 -0.0016603439352302241 -0.0034333238470595183 -0.00712053899871399 -0.011719861544621764 -0.0047093923183481167 -0.013215332714370621 -0.0010674900313915885 0.0095034001836179077 0.0098716568756744092 -0.0026353518839581798 -0.009029886693271174 -0.0068321423790317706 -0.011985499610874849 -0.0090139245494341141 -0.0082246742925631278 -0.00032808864775189643 0.010131034580944239 0.010415705708462212 0.010410132531471541 0.010543822068536494 0.010465012991779377 0.010483398322328615
leaf_weight=46.356609463691711 35.335364535450935 27.384808108210564 29.722160428762436 33.674403473734856 23.097250983119011 23.135099202394485 43.921699956059456 31.897741168737411 45.521941259503365 29.186754330992699 41.634438887238503 29.665896773338318 40.884994581341743 23.178263574838638 23.207606628537178 26.850008100271225 28.493014678359032 43.851331636309624 24.65677809715271 23.684835016727448 38.58896841108799 22.92824575304985 32.736859202384949 85.283099487423897 28.611042141914368 33.29525089263916 66.892192617058754
leaf_count=193 147 113 123 139 96 96 182 132 188 121 172 123 171 97 96 111 118 181 102 98 160 96 137 357 119 139 279
internal_value=0 0.00614097 -0.00255906 -0.00120351 0.00306501 0.00784089 -0.00596301 -0.00728574 -0.00771611 -0.00890581 -0.0105715 -0.00643161 0.0089417 0.00672198 -0.00819578 -0.00606528 -0.0038917 -0.00890675 -0.0067211 -0.0106666 -0.00198106 0.0101186 0.0101902 0.010351 0.0105001 0.0104916 0.0104994
internal_weight=0 290.867 692.81 570.895 300.971 263.482 269.924 125.816 187.413 102.719 73.5322 141.891 228.147 79.0502 83.732 50.0576 58.1589 121.915 54.3789 67.5362 82.5107 149.096 55.9151 108.211 175.155 146.544 113.249
internal_count=4086 1214 2872 2368 1251 1101 1117 521 775 425 304 587 954 330 346 207 241 504 225 279 342 624 234 453 730 611 472
is_linear=0
shrinkage=0.00630227


Tree=5
num_leaves=29
num_cat=0
split_feature=6 5 2 1 14 10 9 8 6 6 5 14 2 3 14 14 6 6 7 14 7 3 12 6 14 14 7 7
split_gain=740.272 478.517 222.647 148.177 74.5982 67.3075 151.242 557.12 48.8207 19.829 9.50039 8.68123 7.15796 9.193 6.46623 5.62423 3.83959 2.58734 2.54515 1.35129 1.32615 0.489414 0.2801 0.0333956 0.00120492 0.000218725 1.51177e-05 0.000203386
threshold=656.10744223194399 3.5000000000000004 18.500000000000004 1.0000000180025095e-35 1.0269326660364879 1.0000000180025095e-35 1.0000000180025095e-35 1.0000000180025095e-35 542.35198623284032 681.81485605849832 2.5000000000000004 0.72760523450515324 18.500000000000004 8.3019186787154151 0.86948626471579449 1.2158333333333335 543.08694274499874 699.43437202448376 301.50000000000006 0.53264081009511965 298.50000000000006 9.0354198625925459 1.3018244891700288 709.05387343833286 0.83670089308150342 0.80233718720662928 326.50000000000006 258.50000000000006
decision_type=2 2 2 2 2 2 2 2 2 2 2 2 2 2 2 2 2 2 2 2 2 2 2 2 2 2 2 2
left_child=1 3 9 5 -5 6 7 24 21 11 12 -2 13 -8 19 18 -9 -11 -15 -7 -18 -3 23 -19 -1 -23 27 -25
right_child=2 8 -4 4 -6 14 10 16 -10 17 -12 -13 -14 15 -16 -17 20 22 -20 -21 -22 25 -24 26 -26 -27 -28 -29
leaf_value=0.010521426962444472 0.0028170917091928263 0.0093991352529854532 -0.0079771570834533036 -0.0035369989520180915 0.0098953969137726191 -0.014929601424169152 -0.013305533388497144 -0.010935033835797725 0.0008648572515684885 0.0085075657244267789 -0.00686828264523698 0.0080214836925018573 -0.012945255670667496 -0.011197817904648888 -0.010547395971929486 -0.0066133622691360939 -0.014619643039956174 0.01012130087322202 -0.0088986077541063548 -0.012941792750016039 -0.012660083011068645 0.010497536402398699 0.0096169948627332479 0.010395329973516278 0.010464692567515076 0.010458483245305612 0.010390671136140148 0.010362607528990778
leaf_weight=35.788190856575966 23.014489829540253 23.254894524812698 32.983908653259277 37.70830924808979 29.089905008673668 27.202694609761238 26.700557798147202 37.547457322478294 30.3872449696064 39.662227898836136 29.051452904939651 28.488928094506264 44.4004837423563 37.07791431248188 37.985401123762131 25.878221854567528 25.035331964492798 24.093283638358116 39.498744294047356 27.149397730827332 30.367145642638206 23.031723275780678 23.886424168944359 24.347679004073143 40.482110306620598 38.31349104642868 36.751282095909119 104.37400996685028
leaf_count=149 96 97 136 156 121 112 110 155 126 166 120 119 183 153 157 107 103 101 163 112 125 96 100 102 169 160 154 438
internal_value=0 -0.00393928 0.00757638 -0.00646357 0.00231266 -0.00772656 -0.00653062 -0.00213252 0.00771682 0.00926052 -0.010204 0.00569589 -0.0107623 -0.0100119 -0.0125424 -0.00915349 -0.0124911 0.00998584 -0.0100119 -0.0139367 -0.0135456 0.0101779 0.0102605 0.0103416 0.0104913 0.0104732 0.0103737 0.0103688
internal_weight=0 645.951 337.602 530.963 66.7982 464.165 371.828 169.22 114.987 304.618 202.607 51.5034 173.556 129.155 92.3375 102.455 92.9499 253.115 76.5767 54.3521 55.4025 84.6001 213.453 189.566 76.2703 61.3452 165.473 128.722
internal_count=4086 2674 1412 2195 277 1918 1537 701 479 1276 836 215 716 533 381 423 383 1061 316 224 228 353 895 795 318 256 694 540
is_linear=0
shrinkage=0.00630227


Tree=6
num_leaves=29
num_cat=0
split_feature=6 5 2 1 14 8 11 6 3 6 3 5 14 14 0 7 0 6 5 7 0 6 6 3 6 4 7 7
split_gain=731.63 472.344 220.272 146.024 73.7884 65.2905 59.9835 48.395 28.0663 19.69 15.8928 13.599 8.60192 8.17411 7.01816 6.46657 4.1615 6.36436 3.78411 3.68343 2.61304 2.46328 0.524963 0.486392 0.0332548 0.000456088 3.52075e-05 0.000206272
threshold=656.10744223194399 3.5000000000000004 18.500000000000004 1.0000000180025095e-35 1.0269326660364879 1.0000000180025095e-35 1.0000000180025095e-35 542.35198623284032 10.100197103036825 681.81485605849832 11.904814131400686 2.5000000000000004 0.72760523450515324 1.2380779662882002 111.50000000000001 320.50000000000006 85.500000000000014 590.05000000000007 1.5000000000000002 298.50000000000006 59.500000000000007 543.08694274499874 699.43437202448376 9.0354198625925459 709.05387343833286 3.5000000000000004 258.50000000000006 326.50000000000006
decision_type=2 2 2 2 2 2 2 2 2 2 2 2 2 2 2 2 2 2 2 2 2 2 2 2 2 2 2 2
left_child=1 3 9 5 -5 6 10 23 15 12 -1 13 -2 14 19 16 -8 -18 21 -10 -11 -7 -22 -3 -24 -25 -26 -28
right_child=2 7 -4 4 -6 18 8 -9 11 20 -12 -13 -14 -15 -16 -17 17 -19 -20 -21 22 -23 24 25 26 -27 27 -29
leaf_value=-0.0034390437960513899 0.0028009437056966098 0.0093579396184573643 -0.0079160535978125331 -0.003512455515687578 0.0098523565173755986 -0.011723996298927794 -0.012523053079392464 0.00085954671641760296 -0.0051481092531557209 0.0081256433000920832 0.0029007725776727653 -0.0019442646691320534 0.0079842563677667774 -0.0045278827664892891 -0.010129948443349048 -0.0077360408575331309 -0.011493300327817514 -0.0072489214619602237 -0.010654371161116455 -0.0081131841470026504 0.0094528198919797569 -0.014331708157310184 0.010079635845057956 0.010411868573800706 0.010353859915057915 0.010458367184051751 0.010320490297200072 0.010348411224348389
leaf_weight=42.966663599014282 23.001334205269814 23.210204839706421 33.028890803456306 37.732413202524185 29.033031791448593 23.540660232305527 34.286861449480057 30.382305786013603 34.152886971831322 27.910655111074448 24.752606049180031 27.526426866650581 28.441528096795082 44.431845039129257 33.48184609413147 39.535024628043175 34.233081728219986 23.780727848410606 32.582079336047173 32.456753507256508 34.328197151422501 37.021674677729607 24.040571987628937 37.746029734611511 24.770790740847588 23.466946646571159 104.84939557313919 36.669061005115509
leaf_count=178 96 97 136 156 121 97 141 126 141 117 103 114 119 184 138 163 141 98 134 134 144 152 101 158 104 98 441 154
internal_value=0 -0.00391215 0.00754124 -0.00641611 0.00229925 -0.00766815 -0.00648551 0.00768038 -0.0076808 0.00922058 -0.00112172 -0.00600421 0.00566669 -0.00677748 -0.0077761 -0.00986879 -0.0107823 -0.00975348 -0.0123863 -0.00659291 0.00994443 -0.0133181 0.0101704 0.0101351 0.0102998 0.0104297 0.0103316 0.0103277
internal_weight=0 646.32 337.04 531.515 66.7654 464.749 371.605 114.805 303.885 304.012 67.7193 172.05 51.4429 144.523 100.091 131.836 92.3007 58.0138 93.1444 66.6096 252.569 60.5623 224.658 84.4232 190.33 61.213 166.289 141.518
internal_count=4086 2674 1412 2195 277 1918 1535 479 1254 1276 281 711 215 597 413 543 380 239 383 275 1061 249 944 353 800 256 699 595
is_linear=0
shrinkage=0.00630227


Tree=7
num_leaves=30
num_cat=0
split_feature=6 5 2 11 10 9 8 6 9 6 3 6 13 7 6 13 3 7 0 0 5 7 6 3 6 4 13 4 7
split_gain=723.107 466.25 217.932 88.1926 62.0835 108.152 464.511 47.9767 47.1437 19.5543 17.7089 13.1855 10.5488 9.67691 7.55444 5.64602 3.42675 2.93817 3.228 2.59755 2.01657 1.61496 0.522369 0.483491 0.0330969 0.00217434 0.000567276 0.000433744 0.000313828
threshold=656.10744223194399 3.5000000000000004 18.500000000000004 1.0000000180025095e-35 1.0000000180025095e-35 1.0000000180025095e-35 1.0000000180025095e-35 542.35198623284032 1.0000000180025095e-35 681.81485605849832 11.200911221919327 550.25000000000011 0.24310793331475358 295.50000000000006 509.7768749219461 0.15790832088808404 11.801969509296983 283.50000000000006 102.50000000000001 59.500000000000007 1.5000000000000002 285.50000000000006 699.43437202448376 9.0354198625925459 709.05387343833286 3.5000000000000004 0.23240848649163137 3.5000000000000004 258.50000000000006
decision_type=2 2 2 2 2 2 2 2 2 2 2 2 2 2 2 2 2 2 2 2 2 2 2 2 2 2 2 2 2
left_child=1 3 9 8 5 6 25 23 11 12 14 -1 -2 -12 -7 -8 21 -16 -19 -11 -17 -6 -21 -3 -24 -5 -26 -25 -28
right_child=2 7 -4 4 16 10 15 -9 -10 19 13 -13 -14 -15 17 20 -18 18 -20 22 -22 -23 24 27 26 -27 28 -29 -30
leaf_value=0.0047687306820006232 0.0030090806513055081 0.0093172382625358856 -0.0078557399452260888 0.010443654168223678 -0.011785433164612735 -0.0083250236849039469 -0.0091013815808865094 0.00085426852890153763 -0.0070510481485198994 0.0080886517401669144 -0.0049333098704570869 -0.0012242411525595128 0.0087398839092225344 -0.0094588962187209091 -0.013783768561565093 -0.013409384084991774 -0.010335112647678966 -0.009929152767055853 -0.012799304720648707 0.0094126542078551857 -0.011121949093690402 -0.013857090012767068 0.010038539577214154 0.010369304886462908 0.010320614780099808 0.010523970438520247 0.010312127725114263 0.010415130615320416 0.010276672226464089
leaf_weight=37.412116855382919 27.813973218202591 23.164823472499847 33.072579905390739 39.242303490638733 24.547050997614861 30.628693535923958 26.261063233017921 30.377386599779129 31.521539688110352 27.861747249960899 39.021492570638657 23.8946662992239 23.567761331796646 36.154778033494949 25.072640120983124 41.216827511787415 26.241796970367432 34.302302375435829 28.496829479932785 34.257637515664101 24.360019907355309 38.239333495497704 23.98702934384346 37.662370502948761 31.145222246646881 25.463027328252792 24.714468866586685 23.416017383337021 110.04780611395836
leaf_count=156 116 97 136 164 101 126 108 126 130 117 161 99 99 149 103 169 108 141 117 144 100 157 101 158 131 106 104 98 464
internal_value=0 -0.00388519 0.00750652 -0.0063689 -0.00754843 -0.00635383 -0.0024583 0.00764434 -0.000787524 0.00918113 -0.00950246 0.00243293 0.0056377 -0.00710983 -0.0110203 -0.0115708 -0.0122478 -0.0119598 -0.0112316 0.00990358 -0.0125597 -0.0130472 0.0101292 0.0100928 0.0102584 0.0104753 0.0102902 0.0103869 0.0102832
internal_weight=0 646.697 336.468 532.076 439.248 350.22 156.543 114.621 92.8283 303.396 193.677 61.3068 51.3817 75.1763 118.5 91.8379 89.0282 87.8718 62.7991 252.014 65.5768 62.7864 224.152 84.2432 189.895 64.7053 165.907 61.0784 134.762
internal_count=4086 2674 1412 2195 1810 1444 647 479 385 1276 797 255 215 310 487 377 366 361 258 1061 269 258 944 353 800 270 699 256 568
is_linear=0
shrinkage=0.00630227


Tree=8
num_leaves=29
num_cat=0
split_feature=6 2 6 9 8 8 9 0 3 14 0 3 6 4 12 13 6 13 12 0 13 13 0 3 6 6 13 13
split_gain=714.719 215.624 157.238 83.0306 121.285 56.5599 86.5335 36.4037 25.6453 24.9684 23.8214 22.7226 19.421 11.2777 10.8198 10.4573 9.65602 8.43642 4.73742 4.37049 4.1846 2.72746 2.5826 1.05595 0.519891 0.0329467 0.000542 0.00020668
threshold=656.10744223194399 18.500000000000004 547.95000000000016 1.0000000180025095e-35 1.0000000180025095e-35 1.0000000180025095e-35 1.0000000180025095e-35 122.50000000000001 11.200911221919327 0.71079173317383504 72.500000000000014 10.001129119854264 681.81485605849832 3.5000000000000004 0.585054638407285 0.24310793331475358 498.10000000000008 0.20337305778139708 0.57378759169153526 102.50000000000001 0.18814977075904232 0.15481854701970185 59.500000000000007 10.403936072152822 699.43437202448376 709.05387343833286 0.23240848649163137 0.29945011347361938
decision_type=2 2 2 2 2 2 2 2 2 2 2 2 2 2 2 2 2 2 2 2 2 2 2 2 2 2 2 2
left_child=2 12 3 4 10 6 11 9 19 -5 -1 18 15 21 -10 -2 -6 -13 -4 -8 -7 -12 -14 -15 -24 -26 -27 -28
right_child=1 -3 5 7 16 20 8 -9 14 -11 13 17 22 23 -16 -17 -18 -19 -20 -21 -22 -23 24 -25 25 26 27 -29
leaf_value=-0.00016446436724280731 0.0029919472573075386 -0.007796200857558693 -0.0070422195826042901 -0.010692703394685156 -0.0088715277310118142 -0.01027379062541235 -0.0099103683271677245 0.00039842803674312654 -0.0089369363173536671 -0.0037270853554221858 0.0062384609022432379 -0.0015490652590665428 0.0080520167117503344 0.0028526181684477036 -0.0033487617453255162 0.0087016154217474124 -0.003597866380646869 0.0027394110674730213 -0.0033012806728018231 -0.012816714650075762 -0.013518771893211191 0.0088555683690169779 0.0093729737357385202 0.0047612457510398179 0.0099980004953991973 0.010279357668473925 0.010236450237226467 0.010268541479784401
leaf_weight=29.342919260263443 27.797008737921715 33.114995017647743 24.032230526208878 40.653421238064766 26.251065954566002 27.074561059474945 43.095120057463646 36.230299577116966 24.285130962729454 41.106843635439873 25.568249091506004 39.649642571806908 27.812278062105179 23.027032718062401 31.759015783667564 23.522369220852852 29.05202642083168 33.710570558905602 30.523011773824692 39.290760070085526 37.859996557235718 41.478009700775146 34.186078071594238 23.029138118028641 23.932675540447235 31.073379695415497 109.31853938102722 25.127893939614296
leaf_count=122 116 136 99 167 108 111 177 150 100 170 107 164 117 96 131 99 120 140 126 161 155 174 144 96 101 131 462 106
internal_value=0 0.00747222 -0.00385873 -0.000676362 0.00182006 -0.00689181 -0.00560602 -0.0048603 -0.00905914 -0.00719059 0.00489541 -0.00186904 0.00914218 0.00620813 -0.00577025 0.005609 -0.00610116 0.000421576 -0.00494922 -0.0112964 -0.0121658 0.00785754 0.00986327 0.00380699 0.0100885 0.0102176 0.0102494 0.0102425
internal_weight=0 335.885 647.019 315.739 197.748 331.28 266.345 117.991 138.43 81.7603 142.445 127.915 302.77 113.102 56.0441 51.3194 55.3031 73.3602 54.5552 82.3859 64.9346 67.0463 251.451 46.0562 223.639 189.452 165.52 134.446
internal_count=4086 1412 2674 1310 823 1364 1098 487 569 337 595 529 1276 473 231 215 228 304 225 338 266 281 1061 192 944 800 699 568
is_linear=0
shrinkage=0.00630227


Tree=9
num_leaves=29
num_cat=0
split_feature=6 5 2 1 14 8 11 6 3 6 3 5 14 14 0 7 0 6 5 7 0 6 6 3 6 4 7 7
split_gain=706.435 458.245 213.35 142.411 72.2015 62.3881 58.0054 47.148 26.7255 19.2909 15.4865 13.2527 8.53788 7.8769 6.82063 6.30986 4.0611 6.31198 3.6737 3.58289 2.56818 2.29088 0.517524 0.474721 0.0328041 0.000883343 9.8375e-06 0.000164362
threshold=656.10744223194399 3.5000000000000004 18.500000000000004 1.0000000180025095e-35 1.0269326660364879 1.0000000180025095e-35 1.0000000180025095e-35 542.35198623284032 10.100197103036825 681.81485605849832 11.904814131400686 2.5000000000000004 0.72760523450515324 1.2380779662882002 111.50000000000001 320.50000000000006 85.500000000000014 590.05000000000007 1.5000000000000002 298.50000000000006 59.500000000000007 543.08694274499874 699.43437202448376 9.0354198625925459 709.05387343833286 3.5000000000000004 258.50000000000006 326.50000000000006
decision_type=2 2 2 2 2 2 2 2 2 2 2 2 2 2 2 2 2 2 2 2 2 2 2 2 2 2 2 2
left_child=1 3 9 5 -5 6 10 23 15 12 -1 13 -2 14 19 16 -8 -18 21 -10 -11 -7 -22 -3 -24 -25 -26 -28
right_child=2 7 -4 4 -6 18 8 -9 11 20 -12 -13 -14 -15 -16 -17 17 -19 -20 -21 22 -23 24 25 26 -27 27 -29
leaf_value=-0.0033766942291394227 0.0027221380398211904 0.0092749509709931944 -0.0077374185308612909 -0.0034163698773766031 0.0098065241064072012 -0.011502905312309129 -0.012285007234717567 0.00088578086119801803 -0.0050554177312213712 0.0080157309904337701 0.002881471381154359 -0.0018977274841965599 0.0078951474596552808 -0.0044589730874210805 -0.0099607009671014348 -0.0075659777619016067 -0.011283979655222109 -0.0070653900925959426 -0.010418989110521441 -0.0079760792402985906 0.0093337695062005871 -0.014011540711540954 0.0099580078667023519 0.010313913189180852 0.010230474193828039 0.010371697077358811 0.010198462815605465 0.010225205248671479
leaf_weight=43.029654935002327 22.934433773159981 23.114922121167183 33.1561578810215 37.819599449634552 28.96168327331543 23.644622892141342 34.44134995341301 30.405481114983559 34.224110573530197 27.762263178825378 24.732849225401878 27.555167153477669 28.322012886404991 44.500989347696304 33.59586626291275 39.678454101085663 34.371432140469551 23.87244601547718 32.733693078160286 32.551499530673027 34.1135423630476 37.233965754508972 23.877530381083488 37.54751917719841 24.599217489361763 23.362488597631454 104.11273005604744 36.414387091994286
leaf_count=178 96 97 136 156 121 97 141 126 141 117 103 114 119 184 138 163 141 98 134 134 144 152 101 158 104 98 441 154
internal_value=0 -0.00383226 0.00743832 -0.0062892 0.00231813 -0.00752226 -0.00636654 0.0076107 -0.00753909 0.00910369 -0.0010925 -0.005904 0.00558052 -0.006666 -0.00764451 -0.00966909 -0.0105694 -0.00955492 -0.0121217 -0.00647918 0.0098235 -0.0130372 0.0100484 0.0100442 0.0101774 0.0103361 0.0102091 0.0102054
internal_weight=0 647.378 335.292 532.947 66.7813 466.166 372.554 114.43 304.791 302.136 67.7625 172.428 51.2564 144.872 100.371 132.364 92.6852 58.2439 93.6123 66.7756 250.88 60.8786 223.117 84.0249 189.004 60.91 165.126 140.527
internal_count=4086 2674 1412 2195 277 1918 1535 479 1254 1276 281 711 215 597 413 543 380 239 383 275 1061 249 944 353 800 256 699 595
is_linear=0
shrinkage=0.00630227


Tree=10
num_leaves=34
num_cat=0
split_feature=13 5 2 8 9 10 7 3 13 7 13 12 14 13 13 7 4 13 12 7 12 7 14 7 7 13 12 2 13 7 14 4 7
split_gain=364.449 361.595 191.828 119.091 227.818 555.301 49.9446 33.6715 23.3272 21.6268 42.5368 19.2371 17.5263 17.1466 14.4795 55.0435 10.7036 11.3347 6.90039 4.7921 3.41779 3.39366 2.04798 0.922406 0.512576 0.102893 0.0387485 0.0089377 0.00863519 0.00880877 0.00348841 0.00113502 0.00033437
threshold=0.23240848649163137 3.5000000000000004 18.500000000000004 1.0000000180025095e-35 1.0000000180025095e-35 1.0000000180025095e-35 245.50000000000003 12.003761990658145 0.17514425684275844 316.50000000000006 0.1816933120561712 0.585054638407285 0.8319421307491689 0.19456443266439483 0.24921699491047247 294.50000000000006 5.5000000000000009 0.17692757876961643 0.54690533151059484 302.50000000000006 0.57975735294117658 283.50000000000006 0.69363965164535013 320.50000000000006 267.50000000000006 0.23841124365163022 0.585054638407285 1.0000000180025095e-35 0.19326924369031845 321.50000000000006 1.0955625127490294 3.5000000000000004 287.50000000000006
decision_type=2 2 2 2 2 2 2 2 2 2 2 2 2 2 2 2 2 2 2 2 2 2 2 2 2 2 2 2 2 2 2 2 2
left_child=1 3 6 4 5 27 -2 9 23 16 -11 -9 13 -7 15 -8 17 -6 -14 21 -21 -5 -19 31 -16 -17 -26 28 30 -30 -1 -3 -28
right_child=2 8 -4 19 7 12 14 11 -10 10 -12 -13 18 -15 24 25 -18 22 -20 20 -22 -23 -24 -25 26 -27 32 -29 29 -31 -32 -33 -34
leaf_value=0.010464402790601639 0.00065923900854598558 0.010271737367870118 -0.009832578425446192 -0.010304674805013762 -0.0060168190749543419 -0.01402428931623936 -0.0016173712476183961 -0.0071023111993441185 0.0037138470928067026 -0.0097748149942238367 0.00039877586958630723 -0.00017180226078624872 -0.0038006058934682845 -0.0071386267653672656 0.009289354687418646 0.0096370071581619188 -0.014073312896843623 -0.0097903214578177276 -0.0085383938681686325 -0.01085309000257775 -0.0078239861834730005 -0.013675764026200504 -0.012289738709707258 0.0088032005232526189 0.0098903248421674268 0.010190133787050895 0.010206782439717232 0.010477475430013284 0.010381250220209205 0.010213109838894854 0.010350239799544079 0.010337955390390756 0.01017092305744695
leaf_weight=23.711200878024101 35.214124724268913 25.840612083673477 27.598644569516182 23.966770812869072 25.348567873239517 36.861749827861786 23.145894885063171 30.617832526564598 36.388997480273247 46.05740424990654 25.284489408135414 33.110068276524544 23.463605970144272 23.536028310656548 40.415677428245544 22.882343351840973 27.150759279727936 23.960401505231857 25.45892733335495 28.591996759176254 30.664665207266808 23.487723618745804 28.530382499098778 23.410539746284485 22.621211841702461 32.324157297611237 33.772351548075676 26.595585480332375 23.129919067025185 28.823389396071434 22.858617961406708 27.125769481062889 50.433324560523033
leaf_count=99 147 109 113 98 104 151 96 126 152 189 105 137 97 97 171 97 111 98 105 117 126 96 117 98 96 137 143 111 97 122 96 114 214
internal_value=0 -0.00246132 0.00596776 -0.00446513 -0.00311226 0.00130668 0.00763975 -0.00742773 0.00786662 -0.00884668 -0.00616916 -0.00350155 -0.00906997 -0.0113411 0.00872936 0.00654058 -0.0106661 -0.0094776 -0.00626613 -0.0104808 -0.00928558 -0.0119732 -0.0111489 0.00984515 0.00989408 0.00996089 0.0101229 0.0103731 0.0103449 0.010288 0.0104084 0.0103057 0.0101853
internal_weight=0 693.976 288.408 581.21 474.499 234.439 260.809 240.06 112.766 176.332 71.3419 63.7279 109.32 60.3978 225.595 78.3524 104.99 77.8394 48.9225 106.711 59.2567 47.4545 52.4908 76.3769 147.243 55.2065 106.827 125.119 98.5231 51.9533 46.5698 52.9664 84.2057
internal_count=4086 2872 1214 2399 1962 975 1101 987 473 724 294 263 450 248 954 330 430 319 202 437 243 194 215 321 624 234 453 525 414 219 195 223 357
is_linear=0
shrinkage=0.00630227


Tree=11
num_leaves=33
num_cat=0
split_feature=13 5 8 9 7 13 11 7 13 3 3 13 7 13 12 7 3 4 13 13 7 0 7 0 0 0 14 7 7 9 0 4
split_gain=360.24 357.215 117.265 224.625 65.9813 98.8235 54.1034 45.1502 50.2386 33.1529 31.0869 23.147 21.2764 41.9002 18.9616 12.312 11.4962 10.5209 11.1488 9.35114 19.3637 5.94492 5.77772 3.49132 2.71094 2.64314 2.01057 1.68191 0.918152 0.804901 0.399298 0.00109238
threshold=0.23240848649163137 3.5000000000000004 1.0000000180025095e-35 1.0000000180025095e-35 267.50000000000006 0.27025314699768815 1.0000000180025095e-35 319.50000000000006 0.19110385482655295 12.003761990658145 12.901327059034477 0.17514425684275844 316.50000000000006 0.1816933120561712 0.585054638407285 244.50000000000003 9.0001633552553795 5.5000000000000009 0.17692757876961643 0.24522205720297899 304.50000000000006 128.50000000000003 298.50000000000006 96.500000000000014 83.500000000000014 93.500000000000014 0.69363965164535013 278.50000000000006 320.50000000000006 1.0000000180025095e-35 103.50000000000001 3.5000000000000004
decision_type=2 2 2 2 2 2 2 2 2 2 2 2 2 2 2 2 2 2 2 2 2 2 2 2 2 2 2 2 2 2 2 2
left_child=1 2 3 6 5 -2 23 10 -9 12 16 28 17 -14 -11 -7 -8 18 -5 20 -6 22 -4 -1 -24 -18 -20 -21 31 30 -29 -3
right_child=4 11 21 9 19 15 7 8 -10 14 -12 -13 13 -15 -16 -17 25 -19 26 27 -22 -23 24 -25 -26 -27 -28 29 -30 -31 -32 -33
leaf_value=0.0044706748748630535 -0.0071159904831397721 0.010231180237086208 -0.011756700147370224 -0.005973266101830829 0.0017122695965173774 0.0030756453218222569 -0.008508057867589458 -0.0017469119452708977 0.0086661681034506232 -0.0070492615054970906 0.0030566274290622915 0.003693266153523288 -0.0096984052435660547 0.00039629247417856286 -0.00017071410426891041 0.0086633424555991566 -0.0049300605817492764 -0.01395641691624451 -0.0097147865561783824 0.0075324070830069855 0.0088973031210824883 -0.01312415092334007 -0.0067878541223132648 0.0075746208931614994 -0.0096768726819388973 -0.001988729387250253 -0.01218925653026061 0.0092331157009550614 0.0087641260089167724 0.0085122185662576521 0.010153437302956156 0.010296457661629455
leaf_weight=23.196879014372826 33.168650895357132 25.779738306999207 30.642665281891823 25.372398748993874 24.408471405506134 27.265011176466942 27.276398748159409 38.450050890445709 35.294145226478577 30.65372122824192 23.538969159126282 36.361254304647446 46.127495497465134 25.282591968774796 33.111096933484077 36.805698961019516 23.271106526255608 27.205448925495148 23.994412362575531 23.175221264362335 38.23523236811161 24.500848144292831 24.595090582966805 37.928758382797241 27.137105211615562 25.358149990439415 28.584113150835037 33.454541027545929 23.366855427622795 28.858707800507545 42.59962671995163 27.063647389411926
leaf_count=97 137 109 125 104 102 114 112 159 149 126 98 152 189 105 137 156 96 111 98 98 162 100 101 159 111 105 117 142 98 122 181 114
internal_value=0 -0.00244534 -0.00443457 -0.00309164 0.0059392 0.00171423 0.00129919 -0.00049993 0.00323681 -0.00737255 -0.00327095 0.00783059 -0.00877921 -0.0061244 -0.00347745 0.00628553 -0.00523319 -0.010582 -0.00940435 0.00809318 0.00609774 -0.0103986 -0.00958798 0.0063967 -0.00830336 -0.00339629 -0.01106 0.00906908 0.00980457 0.00940853 0.00974862 0.0102646
internal_weight=0 694.093 581.521 474.646 287.971 97.2394 234.314 173.189 73.7442 240.331 99.4446 112.571 176.566 71.4101 63.7648 64.0707 75.9057 105.156 77.9509 190.732 62.6437 106.876 82.3749 61.1256 51.7322 48.6293 52.5785 128.088 76.2102 104.913 76.0542 52.8434
internal_count=4086 2872 2399 1962 1214 407 975 719 308 987 411 473 724 294 263 270 313 430 319 807 264 437 337 256 212 201 215 543 321 445 323 223
is_linear=0
shrinkage=0.00630227


Tree=12
num_leaves=29
num_cat=0
split_feature=6 5 2 1 14 8 11 6 3 6 3 5 13 14 0 7 13 0 6 13 0 6 6 3 6 13 7 4
split_gain=685.879 441.851 208.819 138.898 70.7831 59.5034 55.9253 46.5539 25.5945 18.937 14.982 12.9295 10.1412 7.64479 6.62085 6.07335 4.23207 3.93418 6.11466 3.67774 2.51986 1.303 0.495694 0.484624 0.0311231 0.00244544 0.00151683 0.000470513
threshold=656.10744223194399 3.5000000000000004 18.500000000000004 1.0000000180025095e-35 1.0269326660364879 1.0000000180025095e-35 1.0000000180025095e-35 542.35198623284032 10.100197103036825 681.81485605849832 11.904814131400686 2.5000000000000004 0.24310793331475358 1.2380779662882002 111.50000000000001 320.50000000000006 0.1612242851497204 85.500000000000014 590.05000000000007 0.19456443266439483 59.500000000000007 588.91324843478685 699.43437202448376 9.0354198625925459 709.05387343833286 0.23240848649163137 258.50000000000006 3.5000000000000004
decision_type=2 2 2 2 2 2 2 2 2 2 2 2 2 2 2 2 2 2 2 2 2 2 2 2 2 2 2 2
left_child=1 3 9 5 -5 6 10 23 15 12 -1 13 -2 14 19 17 -7 -8 -19 -10 -11 -18 -22 -3 -24 -26 -27 -25
right_child=2 7 -4 4 -6 16 8 -9 11 20 -12 -13 -14 -15 -16 -17 21 18 -20 -21 22 -23 24 27 25 26 -28 -29
leaf_value=-0.0033193216559959963 0.0029393962174776469 0.0091545020667226154 -0.0076400671795250289 -0.0033332187074892419 0.0097631032599695168 -0.0098456012738408968 -0.012050789311723998 0.00081933871603365985 -0.0075317057470046618 0.0079327158603496577 0.00283829901971412 -0.0018496815699742999 0.0085751181012656379 -0.0043838505092482442 -0.0097972312418761962 -0.007423816277579506 -0.011973009292061913 -0.011066767967595785 -0.0069214082866425782 -0.0044898882239719409 0.0092497584725319149 -0.013769175346299102 0.0098631614145919394 0.010211993334898145 0.0101622715466701 0.010145372495824085 0.010084996846797105 0.010258903250191499
leaf_weight=43.079117000102997 27.739545598626137 22.969031468033791 33.221018239855766 37.888862922787666 28.89045587182045 28.662774249911308 34.58303128182888 30.342482835054398 41.406075894832611 27.640292555093765 24.68829844892025 27.583306223154068 23.363479509949684 44.57542684674263 33.700012981891632 39.790719896554947 37.088552564382553 34.507590964436531 23.938960298895836 25.517918586730957 33.947576284408569 28.284984245896339 23.738727614283562 37.327002048492432 30.854457780718803 24.470092818140984 108.7593819797039 23.216577082872391
leaf_count=178 116 97 136 156 121 117 141 126 170 117 103 114 99 184 138 163 151 141 98 105 144 115 101 158 131 104 464 98
internal_value=0 -0.00376697 0.00735355 -0.00616947 0.00233259 -0.00738418 -0.00625568 0.00750509 -0.00740427 0.00901105 -0.00107604 -0.00580517 0.00551597 -0.00655658 -0.00751907 -0.00948449 -0.0118648 -0.0103659 -0.0093689 -0.00637188 0.00972718 -0.0127502 0.00995083 0.00993421 0.0100775 0.0101085 0.0100961 0.01023
internal_weight=0 648.041 333.735 534.186 66.7793 467.407 373.37 113.855 305.603 300.514 67.7674 172.783 51.103 145.199 100.624 132.82 94.0363 93.0296 58.4466 66.924 249.411 65.3735 221.77 83.5126 187.823 164.084 133.229 60.5436
internal_count=4086 2674 1412 2195 277 1918 1535 479 1254 1276 281 711 215 597 413 543 383 380 239 275 1061 266 944 353 800 699 568 256
is_linear=0
shrinkage=0.00630227


Tree=13
num_leaves=31
num_cat=0
split_feature=6 2 6 9 8 10 8 9 10 0 0 3 6 7 4 13 6 6 0 0 13 0 6 6 6 13 4 7 3 0
split_gain=678.016 206.64 149.31 79.2455 114.836 184.096 52.9638 82.6081 363.663 35.1956 27.6714 24.1939 18.8177 16.2951 14.4123 10.0561 9.09504 6.8693 4.79598 4.20117 4.05683 2.50737 1.21994 0.493941 0.0310268 0.00236486 0.00234738 0.00146394 0.0014517 0.000248878
threshold=656.10744223194399 18.500000000000004 547.95000000000016 1.0000000180025095e-35 1.0000000180025095e-35 1.0000000180025095e-35 1.0000000180025095e-35 1.0000000180025095e-35 1.0000000180025095e-35 122.50000000000001 92.500000000000014 11.200911221919327 681.81485605849832 295.50000000000006 4.5000000000000009 0.24310793331475358 498.10000000000008 492.14793855748064 75.500000000000014 102.50000000000001 0.18814977075904232 59.500000000000007 597.88110982689352 699.43437202448376 709.05387343833286 0.23240848649163137 3.5000000000000004 258.50000000000006 10.678307761139813 92.500000000000014
decision_type=2 2 2 2 2 2 2 2 2 2 2 2 2 2 2 2 2 2 2 2 2 2 2 2 2 2 2 2 2 2
left_child=2 12 3 4 5 26 7 8 28 14 -7 19 15 -13 17 -2 -6 -5 -10 -9 -8 -14 -20 -23 -25 -26 29 -27 -4 -1
right_child=1 -3 6 9 16 10 20 11 18 -11 -12 13 21 -15 -16 -17 -18 -19 22 -21 -22 23 -24 24 25 27 -28 -29 -30 -31
leaf_value=0.010247929324335648 0.0029226682806040944 -0.0075832420854300888 0.010486078648162662 -0.0026189939435564101 -0.0085538040778924945 -0.0097605419845163653 -0.0099162563168048775 -0.0096170489224619484 -0.0086581498008790874 0.0004551310751804818 -0.00049233543769978288 -0.0027252283609701142 0.0078975494134936094 -0.0095973519518933112 -0.010257823512882852 0.0085385808345010018 -0.00344705846662815 -0.0073197705008947447 -0.013052161949990688 -0.01245814864133472 -0.013100771360712747 0.0092120135291071555 -0.011072707456117827 0.0098249642989499519 0.010123249726819848 0.01010658365417489 0.010294910765217727 0.010047039759983639 0.01041333164781078 0.010207358852358546
leaf_weight=22.959153562784195 27.7225441634655 33.258903428912163 23.016134425997734 25.912945732474327 26.409127414226532 23.290231764316559 27.24865485727787 43.335008129477501 23.447762161493301 36.256193593144417 28.392765700817108 32.572751879692078 27.588561192154884 23.659182503819466 32.555267840623856 23.31573124229908 29.132967680692673 23.585858345031738 26.181028380990028 39.535662159323692 38.121630638837814 33.87208716571331 23.45119497179985 23.68101093173027 30.778428882360458 24.409390568733215 32.747803285717964 108.48311819136143 32.01063896715641 34.47458989918232
leaf_count=97 116 136 96 107 108 96 111 177 96 150 118 134 117 97 133 99 120 97 107 161 155 144 96 101 131 104 138 464 134 146
internal_value=0 0.00732097 -0.00374172 -0.000637491 0.00180687 0.00481453 -0.00668856 -0.0054446 -0.00179316 -0.00471603 -0.00466894 -0.0088074 0.00897412 -0.00561664 -0.00700095 0.00548819 -0.00587522 -0.0048589 -0.0110072 -0.0109725 -0.0117734 0.00968918 -0.0121169 0.0099126 0.0100393 0.0100703 0.0102495 0.010058 0.0104438 0.0102236
internal_weight=0 333.11 648.297 315.717 197.407 141.865 332.58 267.209 128.107 118.31 51.683 139.103 299.851 56.2319 82.0541 51.0383 55.5421 49.4988 73.08 82.8707 65.3703 248.813 49.6322 221.224 187.352 163.671 90.1815 132.893 55.0268 57.4337
internal_count=4086 1412 2674 1310 823 595 1364 1098 529 487 214 569 1276 231 337 215 228 204 299 338 266 1061 203 944 800 699 381 568 230 243
is_linear=0
shrinkage=0.00630227


Tree=14
num_leaves=30
num_cat=0
split_feature=6 5 2 1 10 9 8 4 6 6 5 2 3 3 3 5 3 6 6 6 3 3 12 6 11 4 3 6 6
split_gain=670.268 433.64 204.492 136.221 65.367 141.988 515.451 56.832 45.8345 18.7011 8.83341 6.77726 8.35416 4.87935 4.66231 3.57899 3.08104 3.92544 2.49777 2.17914 0.804668 0.480154 0.245818 0.0309727 0.00561841 0.000693062 0.000531583 0.000362921 0.000118852
threshold=656.10744223194399 3.5000000000000004 18.500000000000004 1.0000000180025095e-35 1.0000000180025095e-35 1.0000000180025095e-35 1.0000000180025095e-35 2.5000000000000004 542.35198623284032 681.81485605849832 2.5000000000000004 18.500000000000004 8.3019186787154151 10.800532113270982 10.100197103036825 1.5000000000000002 9.8991466526367251 541.51824603686771 699.43437202448376 543.08694274499874 12.248519312190011 9.0354198625925459 1.3018244891700288 709.05387343833286 1.0000000180025095e-35 3.5000000000000004 10.903677913292677 750.04205783576401 726.6638110463233
decision_type=2 2 2 2 2 2 2 2 2 2 2 2 2 2 2 2 2 2 2 2 2 2 2 2 2 2 2 2 2
left_child=1 3 9 4 5 6 24 -5 21 13 11 12 -7 -2 -6 19 -14 -18 -11 -8 -16 -3 23 -20 -1 -23 -26 28 -25
right_child=2 8 -4 7 14 10 15 -9 -10 18 -12 -13 16 -15 20 -17 17 -19 22 -21 -22 25 -24 27 26 -27 -28 -29 -30
leaf_value=0.010292500077256496 0.0034659654280266663 0.0091057107099022684 -0.0075271167927112841 0.010385064338010635 -0.013461377576291865 -0.012579599727692558 -0.011108458815179358 -0.0018679368052854333 0.00083630168487665172 0.0081873982197861739 -0.006450284529677699 -0.012298918815626685 -0.0066557452304980549 0.0073667762409328902 -0.011441865620258609 -0.010024466105387486 -0.0075751648861662173 -0.010414722620963903 0.009787267693893353 -0.013546280466644654 -0.0098067823517078451 0.010157427457766479 0.0093168771472405768 0.01002984470716501 0.010440622420950185 0.010210534110277072 0.010388680813827539 0.010020345132616858 0.010059653378215043
leaf_weight=24.447235301136971 24.908563897013664 22.903951376676559 33.295609161257744 22.873769834637642 45.395206138491631 27.051074281334877 23.815860211849213 43.871750384569168 30.355065688490868 39.00448314845562 29.316819801926613 44.927497357130051 23.792210310697556 26.0644551217556 24.445560291409492 32.964883476495743 32.981279090046883 46.747702196240425 23.622585982084274 37.508186280727386 23.41474537551403 37.19911926984787 23.492505058646202 35.493986859917641 22.964985579252243 23.148623540997505 28.393043547868729 84.010904297232628 42.58295838534832
leaf_count=103 105 97 136 96 185 110 97 181 126 166 120 183 97 110 100 134 135 191 101 152 96 158 100 152 96 98 119 360 182
internal_value=0 -0.00371682 0.00728876 -0.00609181 -0.00729266 -0.00611817 -0.00186221 0.00233118 0.00746568 0.00893761 -0.00965261 -0.0101876 -0.00946106 0.00546061 -0.0120144 -0.0116993 -0.00864615 -0.0092401 0.00965166 -0.0125995 -0.010642 0.00988287 0.00992466 0.0100015 0.0103734 0.0101778 0.0104119 0.0100328 0.0100461
internal_weight=0 648.519 332.476 534.912 468.166 374.911 170.094 66.7455 113.607 299.18 204.817 175.5 130.572 50.973 93.2555 94.2889 103.521 79.729 248.207 61.324 47.8603 83.2517 209.203 185.71 75.8053 60.3477 51.358 162.088 78.0769
internal_count=4086 2674 1412 2195 1918 1537 701 277 479 1276 836 716 533 215 381 383 423 326 1061 249 196 353 895 795 318 256 215 694 334
is_linear=0
shrinkage=0.00630227


Tree=15
num_leaves=32
num_cat=0
split_feature=6 5 1 14 10 9 8 6 6 14 9 8 5 3 14 6 7 7 13 13 3 10 6 14 3 11 14 6 3 13 4
split_gain=662.644 428.201 134.325 69.0298 64.2829 139.799 508.984 45.459 42.1674 15.3108 8.99386 10.7125 8.69465 5.84642 5.76684 5.21157 4.53678 6.6301 4.07342 3.69391 6.17298 1.67688 1.23495 1.20863 0.477758 0.00543821 0.00317939 0.00281382 0.00111327 0.00218777 0.000664275
threshold=656.10744223194399 3.5000000000000004 1.0000000180025095e-35 1.0269326660364879 1.0000000180025095e-35 1.0000000180025095e-35 1.0000000180025095e-35 542.35198623284032 681.81485605849832 0.65523244443628703 1.0000000180025095e-35 1.0000000180025095e-35 2.5000000000000004 8.3019186787154151 0.86948626471579449 736.15111896887743 273.50000000000006 330.50000000000006 0.1612242851497204 0.16697441485068606 11.186885587874958 1.0000000180025095e-35 588.91324843478685 0.53264081009511965 9.0354198625925459 1.0000000180025095e-35 0.86948626471579449 757.64548200526951 11.801969509296983 0.26416430607916946 3.5000000000000004
decision_type=2 2 2 2 2 2 2 2 2 2 2 2 2 2 2 2 2 2 2 2 2 2 2 2 2 2 2 2 2 2 2
left_child=1 2 4 -4 5 6 25 24 9 -2 11 21 13 -7 23 -12 -15 19 -8 -18 -21 27 -20 -6 -3 -1 -27 28 29 -10 -26
right_child=8 7 3 -5 14 12 18 -9 10 -11 15 -13 -14 16 -16 -17 17 -19 22 20 -22 -23 -24 -25 30 26 -28 -29 -30 -31 -32
leaf_value=0.010251648225219867 -0.00076558275766143338 0.0090679556912909021 -0.0032636844595030209 0.0096815872651496802 -0.014158715589586118 -0.012247109285698266 -0.0096318571055119019 0.0008311635749671094 0.010002807998835513 0.0053893846322178021 0.0047351073990446494 0.0057880250247701595 -0.0064034795358036203 -0.011743458085039611 -0.010043094575805255 0.0081550895577335771 -0.0062483864170465066 -0.011785799841390051 -0.011720708462479716 -0.01116369009825401 -0.0069202047136706852 0.0083367206441564597 -0.013465605582718577 -0.012290577363507941 0.010118477476716294 0.010426701836991317 0.010321937114017011 0.0099798017042746906 0.010087714963814935 0.010084224850765319 0.010170840942886507
leaf_weight=24.390148371458054 28.339892402291298 22.854521945118904 37.946091666817665 28.76194167137146 27.564619109034538 39.418348267674446 28.770951002836227 30.350239276885986 44.983879908919334 37.023160725831985 35.408378422260284 32.935416281223297 29.344903811812401 28.18196564912796 38.368753150105476 35.384254366159439 29.14890356361866 24.524273455142975 37.236694797873497 27.057471111416817 27.410276249051094 28.364114344120026 28.412692055106163 27.477986395359039 37.10726173222065 23.190072000026703 28.054106757044792 44.213529542088509 22.707838103175163 22.47554124891758 23.092682793736458
leaf_count=103 118 97 156 121 112 160 117 126 193 156 150 140 120 115 157 151 119 100 151 110 112 121 115 112 158 97 118 190 97 96 98
internal_value=0 -0.00369251 -0.00604943 0.00231782 -0.00724068 -0.00607583 -0.00185084 0.00743191 0.00725686 0.00272073 0.00836952 0.00906593 -0.00957913 -0.0101094 -0.0119187 0.00644453 -0.00949125 -0.00890431 -0.0116093 -0.00805917 -0.00902822 0.00972929 -0.0124759 -0.0132261 0.00984398 0.0103314 0.0103694 0.0100232 0.0100445 0.0100299 0.0101386
internal_weight=0 648.665 535.26 66.708 468.552 375.141 170.055 113.405 331.836 65.3631 266.473 195.68 205.086 175.741 93.4114 70.7926 136.323 108.141 94.4203 83.6167 54.4677 162.745 65.6494 55.0426 83.0545 75.6343 51.2442 134.381 90.1673 67.4594 60.1999
internal_count=4086 2674 2195 277 1918 1537 701 479 1412 274 1138 837 836 716 381 301 556 441 383 341 222 697 266 224 353 318 215 576 386 289 256
is_linear=0
shrinkage=0.00630227


Tree=16
num_leaves=30
num_cat=0
split_feature=6 5 2 1 14 10 9 8 6 6 5 14 2 14 14 6 7 5 0 6 14 6 14 6 6 14 7 7 12
split_gain=655.075 422.854 202.272 132.464 68.2965 63.2262 137.651 502.632 45.0897 18.4243 8.56003 8.32208 6.63851 7.11398 5.67696 3.71103 6.20364 3.51751 2.50383 2.12104 1.19019 0.484234 0.460235 0.0306541 0.00331511 0.0010675 0.000614658 0.00103115 0.000366803
threshold=656.10744223194399 3.5000000000000004 18.500000000000004 1.0000000180025095e-35 1.0269326660364879 1.0000000180025095e-35 1.0000000180025095e-35 1.0000000180025095e-35 542.35198623284032 681.81485605849832 2.5000000000000004 0.72760523450515324 18.500000000000004 1.2158333333333335 0.86948626471579449 585.04488257123705 302.50000000000006 1.5000000000000002 59.500000000000007 543.08694274499874 0.53264081009511965 699.43437202448376 0.54615521294474756 709.05387343833286 540.28316693261161 0.8319421307491689 258.50000000000006 326.50000000000006 0.45799225955882622
decision_type=2 2 2 2 2 2 2 2 2 2 2 2 2 2 2 2 2 2 2 2 2 2 2 2 2 2 2 2 2
left_child=1 3 9 5 -5 6 7 24 22 11 12 -2 13 15 20 16 -8 19 -11 -9 -7 -20 -3 -23 -1 -26 -25 -28 -24
right_child=2 8 -4 4 -6 14 10 17 -10 18 -12 -13 -14 -15 -16 -17 -18 -19 21 -21 -22 23 28 26 25 -27 27 -29 -30
leaf_value=0.010234740923176288 0.0025903634827438059 0.0090435556237911472 -0.0075041922681509084 -0.0032414053128584923 0.0096413412409460577 -0.014045494218685934 -0.013022503747581097 -0.010943102187007345 0.00082605667438867493 0.0077865358264362231 -0.0063571865751192481 0.0077157678305375989 -0.012119020194540267 -0.0064594554667979261 -0.0099651589279211254 -0.0084753882887319016 -0.0091598983616203479 -0.0098626878282530653 0.0091107357140613465 -0.013344891195422605 -0.012193199586298385 0.0097187007599089121 0.010073322210532584 0.0099993087639437105 0.010358973815515149 0.010289850401612744 0.0099454657596387691 0.0099902566576188494 0.01011586750479514
leaf_weight=29.095800504088402 22.813020423054695 22.82292178273201 33.310295060276985 37.966053292155266 28.700176164507866 27.611548706889153 30.979997083544731 23.881395697593689 30.345433011651039 27.418208032846451 29.372219726443291 28.058972656726837 45.058128014206886 27.410589471459389 38.424947738647461 37.147897228598595 35.374937802553177 33.050445258617401 33.660008698701859 37.612643361091614 27.52273266017437 23.512307569384575 29.036849439144135 24.232708916068077 23.344945356249809 23.01989272236824 102.36598937213421 35.85902251303196 30.994914695620537
leaf_count=123 96 97 136 156 121 112 126 97 126 117 120 119 183 112 157 151 144 134 144 152 112 101 124 104 98 97 441 154 132
internal_value=0 -0.00366857 0.00722435 -0.00600773 0.00230469 -0.00718953 -0.00603414 -0.00183965 0.00739847 0.00887115 -0.00950678 0.00541735 -0.0100325 -0.00931433 -0.0118248 -0.0100704 -0.0109633 -0.0115209 0.00958235 -0.0124122 -0.0131209 0.00980653 0.0098056 0.00993246 0.01029 0.0103247 0.00996339 0.00995709 0.0100953
internal_weight=0 648.774 331.231 535.574 66.6662 468.908 375.349 170.005 113.2 297.92 205.344 50.872 175.972 130.913 93.5592 103.503 66.3549 94.5445 247.048 61.494 55.1343 219.63 82.8547 185.97 75.4606 46.3648 162.458 138.225 60.0318
internal_count=4086 2674 1412 2195 277 1918 1537 701 479 1276 836 215 716 533 381 421 270 383 1061 249 224 944 353 800 318 195 699 595 256
is_linear=0
shrinkage=0.00630227


Tree=17
num_leaves=33
num_cat=0
split_feature=6 2 6 9 8 10 8 9 10 3 12 6 12 7 4 13 6 6 13 12 6 6 6 13 13 3 4 4 12 13 7 12
split_gain=647.671 200.184 141.93 75.2923 109.623 176.909 50.343 78.221 347.783 23.4128 19.7151 18.3181 17.4218 15.9092 13.9348 10.0105 8.68163 6.24756 3.946 3.62518 2.78233 2.4833 2.31593 1.21919 0.250153 0.0396289 0.00273554 0.00214476 0.00176207 0.00104088 0.000676644 0.000261743
threshold=656.10744223194399 18.500000000000004 547.95000000000016 1.0000000180025095e-35 1.0000000180025095e-35 1.0000000180025095e-35 1.0000000180025095e-35 1.0000000180025095e-35 1.0000000180025095e-35 11.200911221919327 0.45799225955882622 681.81485605849832 0.37866728033779634 295.50000000000006 4.5000000000000009 0.24310793331475358 498.10000000000008 503.01037056532522 0.18814977075904232 0.77274999999999994 583.75923157300156 699.43437202448376 614.30000000000007 0.19396409309286175 0.2188708470244102 7.8015714710858974 3.5000000000000004 3.5000000000000004 1.1984862295319889 0.2352093495775345 260.50000000000006 0.49958569500674771
decision_type=2 2 2 2 2 2 2 2 2 2 2 2 2 2 2 2 2 2 2 2 2 2 2 2 2 2 2 2 2 2 2 2
left_child=2 11 3 4 5 26 7 8 27 20 -7 15 -5 -11 17 -2 -6 -14 -8 23 -9 -13 -22 -10 -23 -26 31 -4 29 -27 -31 -1
right_child=1 -3 6 12 16 10 18 9 19 13 -12 21 14 -15 -16 -17 -18 -19 -20 -21 22 24 -24 -25 25 28 -28 -29 -30 30 -32 -33
leaf_value=0.010055800562363068 0.0028270642056341371 -0.0074490307344272297 0.010262168940376784 -0.00057972320576915864 -0.0083233508119520475 -0.00028755680878319982 -0.0096287841992479979 -0.012352926189553979 -0.012632533756033664 -0.00257380355318377 -0.0080951187304584803 0.0080817441227864963 -0.0021467869879003747 -0.0093502662801030097 -0.0092362100419425344 0.0084434452768431256 -0.0033404998917482102 -0.0064866153487128991 -0.01276235137269891 -0.0086746588995004585 -0.008500681705474895 0.0092140813399513109 -0.01106455598767643 -0.010656438616164027 0.0096498556214388385 0.0099679108487838383 0.010150231327134862 0.010346989525804385 0.0099886595734895254 0.0099516836323323577 0.0099059008262268652 0.010096231256263632
leaf_weight=31.802500143647194 27.621345341205597 33.345368444919586 28.192445650696754 31.667765870690346 26.507194951176643 23.597732052206993 27.369955942034721 26.887335136532784 25.346607610583305 32.682254150509834 28.193552508950233 38.761935964226723 30.087434470653534 23.768142715096474 33.371361151337624 23.185758665204048 29.173238277435303 23.439859911799431 38.301563665270805 23.82553006708622 25.847721934318542 24.001233369112015 30.520995944738388 24.294734507799149 22.489136904478073 23.247273579239845 32.463399410247803 26.422426521778107 23.04953308403492 23.453601360321045 91.420549839735031 25.088894709944725
leaf_count=136 116 136 119 131 108 98 111 109 103 134 116 166 124 97 136 99 120 96 155 97 105 103 124 99 97 100 138 111 99 101 395 107
internal_value=0 0.00719311 -0.00364497 -0.000614173 0.00177576 0.00472984 -0.00651155 -0.00529889 -0.00174153 -0.00856024 -0.00453776 0.00883577 -0.00458158 -0.00542701 -0.00603994 0.00539011 -0.00571265 -0.00404723 -0.0114564 -0.0106955 -0.0106847 0.00954618 -0.00988891 -0.0116654 0.00981953 0.00989865 0.0101015 0.0103032 0.00993336 0.00992412 0.00991526 0.0100736
internal_weight=0 330.576 648.853 315.393 196.827 141.146 333.46 267.788 128.082 139.706 51.7913 297.23 118.566 56.4504 86.8987 50.8071 55.6804 53.5273 65.6715 73.4669 83.2561 246.423 56.3687 49.6413 207.661 183.66 89.3548 54.6149 161.171 138.121 114.874 56.8914
internal_count=4086 1412 2674 1310 823 595 1364 1098 529 569 214 1276 487 231 356 215 228 220 266 299 338 1061 229 202 895 792 381 230 695 596 496 243
is_linear=0
shrinkage=0.00630227


Tree=18
num_leaves=31
num_cat=0
split_feature=6 5 2 1 14 10 8 6 11 14 6 12 3 13 12 6 3 7 14 3 13 0 6 14 6 3 6 13 7 12
split_gain=640.35 415.227 198.125 129.999 67.1476 61.4197 93.0581 44.4226 36.0659 25.5988 18.2128 13.2495 10.6551 9.92812 8.28872 11.6913 6.887 5.9701 5.57902 5.48394 3.93037 2.50129 1.17452 1.16256 0.477517 0.47467 0.0306842 0.00206671 0.00130283 0.00060909
threshold=656.10744223194399 3.5000000000000004 18.500000000000004 1.0000000180025095e-35 1.0269326660364879 1.0000000180025095e-35 1.0000000180025095e-35 542.35198623284032 1.0000000180025095e-35 0.73509158324485357 681.81485605849832 0.74138892217934804 11.200911221919327 0.24310793331475358 0.59355062161525562 524.35184779536496 11.101030721259713 281.50000000000006 0.86948626471579449 9.2894107167225695 0.1612242851497204 59.500000000000007 588.91324843478685 0.53264081009511965 699.43437202448376 9.0354198625925459 709.05387343833286 0.23240848649163137 258.50000000000006 0.45995244003308527
decision_type=2 2 2 2 2 2 2 2 2 2 2 2 2 2 2 2 2 2 2 2 2 2 2 2 2 2 2 2 2 2
left_child=1 3 10 5 -5 6 8 25 16 12 13 14 17 -2 15 -11 -1 -10 23 -19 -8 -12 -22 -7 -23 -3 -26 -28 -29 -27
right_child=2 7 -4 4 -6 18 20 -9 9 11 21 -13 -14 -15 -16 -17 -18 19 -20 -21 22 24 -24 -25 26 29 27 28 -30 -31
leaf_value=-0.0017051898984108351 0.0028109844122045256 0.0089819580698417955 -0.0073945344799693953 -0.0031869937137953197 0.0095946041478213468 -0.013862255716223204 -0.0094269423429891083 0.00084179296361304012 -0.011104726029364173 0.00018598637856893048 0.0077116978635038093 -0.0071115193339192752 -0.0040112785800012693 0.0084082446456832122 0.0010997982530842568 -0.0054608844658833909 0.002802005459618733 -0.0059605494877069381 -0.0098251612538345356 -0.0098029933777167254 -0.011480587464947777 0.0090427493846392763 -0.013179236172836091 -0.012033915026794316 0.0096462202404909297 0.01002681680526385 0.0099418403496052722 0.0099265491353817317 0.0098695474388432042 0.010076338005684065
leaf_weight=27.631467655301094 27.604330971837044 22.733712688088417 33.379309222102165 38.007088080048561 28.616481140255928 27.682438030838966 28.866314321756363 30.355689838528633 23.891403004527092 24.430345386266708 27.298034176230431 25.108886048197746 29.01797191798687 23.136246398091316 25.572265967726707 36.053562894463539 26.263701200485229 39.272899240255356 38.520655438303947 23.630096673965454 37.36304447054863 33.510647416114807 28.518009349703789 27.592079043388367 23.390388488769531 29.408723726868629 30.39610855281353 24.105288326740265 107.09145967662334 30.442397922277451
leaf_count=114 116 97 136 156 121 112 117 126 97 101 117 103 119 99 106 148 110 160 157 96 151 144 115 112 101 126 131 104 464 130
internal_value=0 -0.00362125 0.00716222 -0.00593518 0.00230302 -0.00710442 -0.00596525 0.00736115 -0.00414333 -0.00524379 0.00880081 -0.00308351 -0.00731738 0.00536319 -0.00190824 -0.00318003 0.000491209 -0.0084227 -0.0116664 -0.00740401 -0.0113662 0.00951046 -0.0122159 -0.0129496 0.00973519 0.00975747 0.00986063 0.00989166 0.00988003 0.010052
internal_weight=0 648.979 329.912 536.039 66.6236 469.415 375.62 112.941 280.873 226.977 296.533 111.165 115.812 50.7406 86.0562 60.4839 53.8952 86.7944 93.7952 62.903 94.7474 245.792 65.8811 55.2745 218.494 82.5848 184.983 161.593 131.197 59.8511
internal_count=4086 2674 1412 2195 277 1918 1537 479 1154 930 1276 458 472 215 355 249 224 353 381 256 383 1061 266 224 944 353 800 699 568 256
is_linear=0
shrinkage=0.00630227


Tree=19
num_leaves=31
num_cat=0
split_feature=6 5 2 1 14 11 6 8 3 3 6 5 6 13 2 14 0 2 6 5 13 0 13 0 6 3 6 13 4 13
split_gain=633.127 410.043 196.094 128.189 66.4399 54.337 44.0688 30.7607 23.4155 21.8658 18.11 12.0394 11.8044 9.84695 7.13115 10.3917 5.51911 5.2905 9.45637 10.6987 4.25803 2.49069 1.53348 1.27803 0.476401 0.472563 0.0306207 0.00199908 0.00111782 0.00104041
threshold=656.10744223194399 3.5000000000000004 18.500000000000004 1.0000000180025095e-35 1.0269326660364879 1.0000000180025095e-35 542.35198623284032 1.0000000180025095e-35 10.100197103036825 12.248519312190011 681.81485605849832 2.5000000000000004 551.35000000000002 0.24310793331475358 18.500000000000004 1.2278731358508423 103.50000000000001 18.500000000000004 583.75923157300156 1.5000000000000002 0.15790832088808404 59.500000000000007 0.1864135401635402 109.50000000000001 699.43437202448376 9.0354198625925459 709.05387343833286 0.23240848649163137 3.5000000000000004 0.29945011347361938
decision_type=2 2 2 2 2 2 2 2 2 2 2 2 2 2 2 2 2 2 2 2 2 2 2 2 2 2 2 2 2 2
left_child=1 3 10 5 -5 9 25 8 17 12 13 14 -1 -2 15 16 22 18 19 -7 -9 -12 -10 -22 -23 -3 -26 -28 -27 -29
right_child=2 6 -4 4 -6 7 -8 20 11 -11 21 -13 -14 -15 -16 -17 -18 -19 -20 -21 23 24 -24 -25 26 28 27 29 -30 -31
leaf_value=-0.0016837361048773808 0.0027949966700640629 0.0089455947837040663 -0.0073406900475328392 -0.0031653337230758308 0.0095554610622674511 -0.012628403644792849 0.00083662175586374482 -0.0091311104521092108 -0.0066908149897451363 0.0028003925194532448 0.0076785133611001685 -0.0017421965913868936 -0.0075599827257404675 0.0083733941727287872 -0.008889049720422414 -0.0027723383483648891 -0.0091295493109769307 -0.011190301060730609 -0.0060882221812959061 -0.0071325863369830272 -0.013093187438458267 0.0090073685880755934 -0.0044742987668924799 -0.011250613359114437 0.0096108250993684977 0.0099901651725879392 0.0099058418027341937 0.0098351468796743727 0.010053604205863209 0.0098869593291030997
leaf_weight=28.806518957018852 27.587319910526276 22.682429432868958 33.412135824561119 38.02593669295311 28.552819594740868 29.643845692276955 30.350843578577042 23.967356145381927 25.191112920641899 23.675841704010963 27.243398874998093 27.617617189884186 25.684953778982162 23.086280837655067 32.377761021256447 36.611002221703529 27.268547177314758 34.573338344693184 42.671293690800667 26.778938949108124 33.47401961684227 33.430507361888885 24.415195927023888 27.036564856767654 23.328770875930786 36.781689375638962 30.314567178487778 106.34140129387379 22.915354430675507 24.495426759123802
leaf_count=119 116 97 136 156 121 120 126 97 103 99 117 114 105 99 132 151 111 140 174 109 135 144 100 109 101 158 131 462 98 106
internal_value=0 -0.00359771 0.00713168 -0.00589408 0.00229008 -0.00705393 0.00732846 -0.00801149 -0.00708518 -0.00225643 0.00876626 -0.00555774 -0.00445356 0.00533646 -0.00628017 -0.00553584 -0.00685193 -0.00906757 -0.00832695 -0.01002 -0.0113794 0.00947519 -0.0055999 -0.0122699 0.00969981 0.00972022 0.00982529 0.00985633 0.0100145 0.00984485
internal_weight=0 649.103 329.24 536.373 66.5788 469.794 112.73 391.627 307.149 78.1673 295.828 173.481 54.4915 50.6736 145.864 113.486 76.8749 133.667 99.0941 56.4228 84.4779 245.154 49.6063 60.5106 217.911 82.3795 184.48 161.151 59.697 130.837
internal_count=4086 2674 1412 2195 277 1918 479 1595 1254 323 1276 711 224 215 597 465 314 543 403 229 341 1061 203 244 944 353 800 699 256 568
is_linear=0
shrinkage=0.00630227


Tree=20
num_leaves=31
num_cat=0
split_feature=6 5 14 3 6 6 8 9 10 11 10 9 14 9 8 5 12 5 6 12 6 12 10 3 3 6 6 3 7 4
split_gain=626 404.931 82.5074 67.2719 43.7208 40.5164 40.4209 78.7281 167.086 26.8523 16.1282 23.9555 14.7652 8.8409 10.5724 7.81236 5.78833 5.25053 5.11564 4.16254 3.26281 2.91748 1.65612 1.28039 0.470547 0.00456336 0.00403709 0.00230516 0.00277234 0.001077
threshold=656.10744223194399 3.5000000000000004 0.89014614776791878 12.806695455105711 542.35198623284032 681.81485605849832 1.0000000180025095e-35 1.0000000180025095e-35 1.0000000180025095e-35 1.0000000180025095e-35 1.0000000180025095e-35 1.0000000180025095e-35 0.65523244443628703 1.0000000180025095e-35 1.0000000180025095e-35 1.5000000000000002 0.58890123596805244 1.5000000000000002 736.15111896887743 0.53423706896551737 509.7768749219461 0.61550241429241936 1.0000000180025095e-35 9.1970391156448859 9.0354198625925459 547.95000000000016 755.86762175269439 11.801969509296983 285.50000000000006 3.5000000000000004
decision_type=2 2 2 2 2 2 2 2 2 2 2 2 2 2 2 2 2 2 2 2 2 2 2 2 2 2 2 2 2 2
left_child=1 2 3 9 24 12 7 8 25 -1 11 17 -2 14 22 -9 -5 19 -15 -11 -13 -22 26 -12 -3 -4 27 28 -7 -26
right_child=5 4 6 16 -6 13 -8 15 -10 10 23 20 -14 18 -16 -17 -18 -19 -20 -21 21 -23 -24 -25 29 -27 -28 -29 -30 -31
leaf_value=-0.0044204422361646834 -0.00077250155621071917 0.0089096320309521963 0.010072387416179924 -0.0031520971603453663 0.00083148179382555663 0.0099202054466682264 -0.0090814819322006229 -0.007933271664374365 -0.0067082496952875674 -0.0093751268343537225 -0.013954575371833278 -0.0089592668113192744 0.0052815080234719517 0.0045847414219262368 0.0056257371719477403 -0.0038230244609819045 0.0011656463221995244 -0.0040799297655025098 0.0079898176776737224 -0.0056700661665793368 -0.012486806063173577 -0.010120840795803413 0.0081692870565367136 -0.011963750667131857 0.0099535210384783072 0.010196157636384677 0.0098040879315799447 0.0099396479135500856 0.0098296163068275298 0.01001609252132018
leaf_weight=43.833962023258209 28.304556325078011 22.630620449781418 27.622282013297081 24.570586651563644 30.346017837524414 22.664630964398384 32.862708225846291 44.373092785477638 43.283997192978859 23.656583473086357 24.509536817669868 28.874467059969902 36.810300558805466 35.110954225063324 32.622440248727798 31.340130880475044 24.757846370339394 28.596354022622108 34.988509863615036 24.536830678582191 45.777938336133957 37.79744578897953 28.046011283993721 26.949255585670471 36.684746444225311 23.358435407280922 44.31199149787426 22.218835234642029 43.481841489672661 22.856402173638344
leaf_count=180 118 97 118 101 126 98 133 181 177 96 99 117 156 150 140 128 102 117 151 100 185 153 121 109 158 99 193 96 189 98
internal_value=0 -0.00357436 -0.00585332 -0.00777939 0.00729608 0.00710146 -0.00268315 -0.00144612 0.00239782 -0.0089573 -0.00978352 -0.0089328 0.00264991 0.00820173 0.00889691 -0.00623192 -0.000985024 -0.00621934 0.00628432 -0.00748878 -0.0107858 -0.0114168 0.00956086 -0.012912 0.00968345 0.0101291 0.00985501 0.00988054 0.00986067 0.00997756
internal_weight=0 649.219 536.701 333.861 112.518 328.56 202.841 169.978 94.2647 284.532 240.698 189.24 65.1149 263.445 193.346 75.7132 49.3284 76.7898 70.0995 48.1934 112.45 83.5754 160.723 51.4588 82.1718 50.9807 132.677 88.3653 66.1465 59.5411
internal_count=4086 2674 2195 1359 479 1412 836 703 394 1156 976 768 274 1138 837 309 203 313 301 196 455 338 697 208 353 217 576 383 287 256
is_linear=0
shrinkage=0.00630227


Tree=21
num_leaves=30
num_cat=0
split_feature=6 5 2 1 14 10 9 8 6 6 5 14 2 3 14 14 5 0 7 7 14 6 3 6 14 4 9 7 7
split_gain=618.906 399.908 194.014 125.73 65.2999 59.8577 132.931 482.822 43.3783 17.8588 8.20426 8.19994 6.36455 7.84591 5.33843 4.90044 3.42477 2.48685 2.46274 2.04311 1.12161 0.473868 0.468622 0.0303848 0.00950042 0.00103755 0.00061897 0.000244965 4.52304e-05
threshold=656.10744223194399 3.5000000000000004 18.500000000000004 1.0000000180025095e-35 1.0269326660364879 1.0000000180025095e-35 1.0000000180025095e-35 1.0000000180025095e-35 542.35198623284032 681.81485605849832 2.5000000000000004 0.72760523450515324 18.500000000000004 8.3019186787154151 0.86948626471579449 1.2158333333333335 1.5000000000000002 59.500000000000007 301.50000000000006 303.50000000000006 0.53264081009511965 699.43437202448376 9.0354198625925459 709.05387343833286 0.87301353474268761 3.5000000000000004 1.0000000180025095e-35 267.50000000000006 326.50000000000006
decision_type=2 2 2 2 2 2 2 2 2 2 2 2 2 2 2 2 2 2 2 2 2 2 2 2 2 2 2 2 2
left_child=1 3 9 5 -5 6 7 24 22 11 12 -2 13 -8 20 18 19 -11 -15 -9 -7 -19 -3 -23 -1 -24 27 -25 -29
right_child=2 8 -4 4 -6 14 10 16 -10 17 -12 -13 -14 15 -16 -17 -18 21 -20 -21 -22 23 25 26 -26 -27 -28 28 -30
leaf_value=0.010295207956845303 0.0024843573465417909 0.0088740622545210833 -0.0073187394439454432 -0.0031037821666912253 0.009514132305674862 -0.013604626164224282 -0.012060884021614605 -0.013128580484911605 0.00082637290342476048 0.0076110604500840839 -0.006160543660740851 0.0075865291013192853 -0.011790134604498573 -0.010212417222741818 -0.0096578135444015754 -0.0059086724893477986 -0.0095230926008915001 0.0089430271367740236 -0.0079706448801545194 -0.010834068018784729 -0.011811637759499439 0.0095464927684849529 0.0099173735072894172 0.0098110793773151898 0.010151106258361483 0.0099790936586361383 0.0098172844525713371 0.0097691093598899787 0.0097961437068722103
leaf_weight=37.499000146985054 22.713459476828575 22.578299790620804 33.425027683377266 38.074343085289001 28.472469970583916 27.771218165755272 27.252659872174263 32.279143497347832 30.341212436556816 27.128982737660408 29.478906914591789 27.854121282696724 45.267874285578728 37.742054089903831 38.628367111086845 26.269680559635162 33.208193093538284 33.279673010110855 40.199320524930954 29.511463329195976 27.680103272199631 23.212867930531502 36.586727365851402 22.052244916558266 37.653665766119957 22.796752274036407 41.367223784327507 71.198725894093513 25.696417599916458
leaf_count=158 96 97 136 156 121 112 110 130 126 117 120 119 183 153 157 107 134 144 163 119 112 101 158 96 160 98 180 311 112
internal_value=0 -0.00355141 0.00707034 -0.00581329 0.00229487 -0.00696024 -0.00583628 -0.00171299 0.00726403 0.00870345 -0.00923855 0.0052948 -0.00975196 -0.00905014 -0.0114566 -0.00826278 -0.0111555 0.00941005 -0.0090562 -0.0120327 -0.0127096 0.00963516 0.00964716 0.00976066 0.010223 0.00994108 0.00979166 0.00978275 0.00977629
internal_weight=0 649.291 327.929 536.988 66.5468 470.442 376.362 170.151 112.303 294.504 206.21 50.5676 176.732 131.464 94.0797 104.211 94.9988 243.936 77.9414 61.7906 55.4513 216.807 81.9618 183.527 75.1527 59.3835 160.315 118.947 96.8951
internal_count=4086 2674 1412 2195 277 1918 1537 701 479 1276 836 215 716 533 381 423 383 1061 316 249 224 944 353 800 318 256 699 519 423
is_linear=0
shrinkage=0.00630227


Tree=22
num_leaves=29
num_cat=0
split_feature=6 5 2 1 14 10 9 8 6 6 14 5 2 3 14 14 5 6 7 7 14 3 6 7 14 7 4 6
split_gain=612.006 395.01 192.039 124.035 64.6171 58.9182 130.93 476.948 43.0411 17.7651 8.12929 8.08479 6.2701 7.73376 5.26467 4.82891 3.3752 2.47398 2.42474 2.01351 1.10696 0.466785 0.238408 0.0217681 0.00920599 0.00163486 0.000999462 0.000272581
threshold=656.10744223194399 3.5000000000000004 18.500000000000004 1.0000000180025095e-35 1.0269326660364879 1.0000000180025095e-35 1.0000000180025095e-35 1.0000000180025095e-35 542.35198623284032 681.81485605849832 0.72760523450515324 2.5000000000000004 18.500000000000004 8.3019186787154151 0.86948626471579449 1.2158333333333335 1.5000000000000002 699.43437202448376 301.50000000000006 303.50000000000006 0.53264081009511965 9.0354198625925459 709.05387343833286 338.50000000000006 0.87301353474268761 256.50000000000006 3.5000000000000004 748.56119608611016
decision_type=2 2 2 2 2 2 2 2 2 2 2 2 2 2 2 2 2 2 2 2 2 2 2 2 2 2 2 2
left_child=1 3 9 5 -5 6 7 24 21 10 -2 12 13 -8 20 18 19 -11 -15 -9 -7 -3 -19 25 -1 -24 -23 -27
right_child=2 8 -4 4 -6 14 11 16 -10 17 -12 -13 -14 15 -16 -17 -18 22 -20 -21 -22 26 23 -25 -26 27 -28 -29
leaf_value=0.0102543289868896 0.0024701183888799737 0.008838878058864158 -0.0072657928647549275 -0.003082785493366747 0.0094759960210575832 -0.013503223221498717 -0.011971729426301396 -0.013032557829901358 0.0008212947664810984 0.007906317193201607 0.0075532541843599905 -0.0061168529404279637 -0.011702343010467152 -0.010136567609024452 -0.009585705393856685 -0.005866851028184657 -0.0094549576688032176 0.0090969369670514492 -0.0079132862935467688 -0.010755823709579188 -0.011723027514362851 0.0098817129543383245 0.009817786754251252 0.0095636078765932771 0.010112245982722803 0.0097685638333486809 0.0099425982968716943 0.0097419799381253131
leaf_weight=37.411495551466942 22.700461655855179 22.52548123896122 33.456311300396919 38.092020243406296 28.407101079821587 27.803328052163124 27.282485172152519 32.311937615275383 30.336427018046379 38.329120963811874 27.800680533051491 29.502280086278915 45.319878950715065 37.784693241119385 38.673526108264923 26.290138825774193 33.236614629626274 26.851324707269669 40.235402897000313 29.538718149065971 27.713454991579056 36.487660497426987 22.062864884734154 25.718945428729057 37.560443505644798 58.599006235599518 22.736422255635262 71.71963132917881
leaf_count=158 96 97 136 156 121 112 110 130 126 166 119 120 183 153 157 107 134 117 163 119 112 158 96 112 160 256 98 314
internal_value=0 -0.00352921 0.00704067 -0.00577473 0.00228207 -0.00691306 -0.00579773 -0.00170306 0.00723228 0.00866991 0.00526838 -0.00917121 -0.00968056 -0.00898426 -0.011371 -0.00820287 -0.0110748 0.00937601 -0.00899002 -0.0119452 -0.0126146 0.00961132 0.00965087 0.00973437 0.0101832 0.00976319 0.0099051 0.00975394
internal_weight=0 649.25 327.238 537.164 66.4991 470.664 376.474 170.059 112.086 293.782 50.5011 206.415 176.913 131.593 94.1903 104.31 95.0873 243.281 78.0201 61.8507 55.5168 81.7496 204.952 178.1 74.9719 152.382 59.2241 130.319
internal_count=4086 2674 1412 2195 277 1918 1537 701 479 1276 215 836 716 533 381 423 383 1061 316 249 224 353 895 778 318 666 256 570
is_linear=0
shrinkage=0.00630227


Tree=23
num_leaves=31
num_cat=0
split_feature=6 5 2 1 10 9 8 3 6 6 13 5 2 3 3 13 3 6 6 6 3 13 13 3 11 12 4 3 13 13
split_gain=605.202 390.189 190.089 122.372 58.0006 128.965 471.174 46.9725 42.7093 17.6735 9.79449 7.96861 6.17867 7.62514 4.28912 3.81043 3.15294 3.69611 2.46496 1.15728 0.748558 0.476369 0.253843 0.0407693 0.0082118 0.00260497 0.00149553 0.00123765 0.000849514 0.000381414
threshold=656.10744223194399 3.5000000000000004 18.500000000000004 1.0000000180025095e-35 1.0000000180025095e-35 1.0000000180025095e-35 1.0000000180025095e-35 12.204368397703641 542.35198623284032 681.81485605849832 0.24310793331475358 2.5000000000000004 18.500000000000004 8.3019186787154151 10.100197103036825 0.1612242851497204 9.8991466526367251 541.51824603686771 699.43437202448376 588.91324843478685 12.248519312190011 0.16697441485068606 0.2188708470244102 7.8015714710858974 1.0000000180025095e-35 1.1984862295319889 3.5000000000000004 11.101030721259713 0.2352093495775345 0.29076799761001432
decision_type=2 2 2 2 2 2 2 2 2 2 2 2 2 2 2 2 2 2 2 2 2 2 2 2 2 2 2 2 2 2
left_child=1 3 9 4 5 6 24 -5 21 10 -2 12 13 -7 -6 -8 -15 -18 -11 -17 -16 26 -20 -24 -1 28 -3 -26 -25 -30
right_child=2 8 -4 7 14 11 15 -9 -10 18 -12 -13 -14 16 20 19 17 -19 22 -21 -22 -23 23 25 27 -27 -28 -29 29 -31
leaf_value=0.010046148546855059 0.0027044070454159204 0.0098404893762281224 -0.0072134669817698069 -0.0016657604710981571 -0.012667037989488653 -0.011884180526224083 -0.009090690029397103 0.0094041308908274102 0.00081624740954536223 0.0078738192310540758 0.0082816869224141623 -0.0060736188058321209 -0.011616097574294685 -0.0061388200146372121 -0.010744939128631689 -0.011102273907651372 -0.0071326870774518361 -0.009876552572760865 0.0090026827972754884 -0.012784816478977019 -0.0091766170161532209 0.0087996920110757805 0.0094432055916716332 0.0097627299373116531 0.010227235284093934 0.0097989982203646898 0.0099102394057528111 0.010157245758495663 0.0097057588908765254 0.0097437239081339094
leaf_weight=24.07325467467308 27.486198499798775 29.694344580173492 33.486524686217308 42.828437805175781 45.900094121694565 27.31017404794693 29.003317043185234 23.62192003428936 30.331661969423294 38.24502669274807 22.94811686873436 29.524961099028587 45.368469193577766 23.99583911895752 24.719747230410576 37.531308084726334 33.247404351830482 47.161925464868546 23.639443635940552 28.634635075926781 23.674213588237762 22.68035876750946 22.127608761191368 22.877719894051552 23.876978084445 22.717085331678391 29.160477995872498 26.838452905416489 89.257134482264519 23.756184905767441
leaf_count=103 116 129 136 178 185 110 117 99 126 166 99 120 183 97 100 151 135 191 103 115 96 98 97 100 101 99 126 114 392 104
internal_value=0 -0.00350731 0.00701131 -0.00573673 -0.00686659 -0.00575974 -0.00169329 0.00226939 0.00720084 0.00863673 0.00524214 -0.00910483 -0.00961022 -0.0089193 -0.0112868 -0.0109955 -0.00814374 -0.00874204 0.00934238 -0.0118304 -0.00997774 0.00957594 0.00961719 0.00969755 0.0101439 0.00973303 0.00987506 0.0101902 0.009722 0.00971375
internal_weight=0 649.178 326.541 537.311 470.861 376.567 169.958 66.4504 111.867 293.055 50.4343 206.609 177.084 131.715 94.2941 95.1693 104.405 80.4093 242.62 66.1659 48.394 81.5352 204.375 180.736 74.7887 158.608 58.8548 50.7154 135.891 113.013
internal_count=4086 2674 1412 2195 1918 1537 701 277 479 1276 215 836 716 533 381 383 423 326 1061 266 196 353 895 792 318 695 255 215 596 496
is_linear=0
shrinkage=0.00630227


Tree=24
num_leaves=31
num_cat=0
split_feature=6 5 2 1 14 10 9 8 6 6 13 5 2 3 14 14 13 6 12 12 6 14 13 13 3 14 12 14 13 13
split_gain=598.49 385.434 188.166 120.75 63.9721 57.103 127.033 465.499 42.3826 17.5825 9.7159 7.85524 6.09065 7.52043 5.17979 4.76649 3.76044 2.45633 2.1894 4.27736 1.14246 1.0883 0.474463 0.25335 0.04059 0.00871755 0.00252289 0.0012041 0.000818089 0.000363383
threshold=656.10744223194399 3.5000000000000004 18.500000000000004 1.0000000180025095e-35 1.0269326660364879 1.0000000180025095e-35 1.0000000180025095e-35 1.0000000180025095e-35 542.35198623284032 681.81485605849832 0.24310793331475358 2.5000000000000004 18.500000000000004 8.3019186787154151 0.86948626471579449 1.2158333333333335 0.1612242851497204 699.43437202448376 0.68303508857278838 0.46458509989817348 588.91324843478685 0.53264081009511965 0.16697441485068606 0.2188708470244102 7.8015714710858974 0.87301353474268761 1.1984862295319889 0.75995974249862275 0.2352093495775345 0.29076799761001432
decision_type=2 2 2 2 2 2 2 2 2 2 2 2 2 2 2 2 2 2 2 2 2 2 2 2 2 2 2 2 2 2
left_child=1 3 9 5 -5 6 7 25 22 10 -2 12 13 -8 21 18 -9 -11 19 -15 -18 -7 27 -19 -25 -1 28 -3 -26 -30
right_child=2 8 -4 4 -6 14 11 16 -10 17 -12 -13 -14 15 -16 -17 20 23 -20 -21 -22 -23 -24 24 26 -27 -28 -29 29 -31
leaf_value=0.010174565408709242 0.0026890270023428894 0.0098732377965048829 -0.0071617491696836667 -0.0030771578453233093 0.0094292224095997527 -0.013316775416261207 -0.011798192389430836 -0.0090260741680825273 0.00081123056842172551 0.0078416089201809418 0.0082480715380519216 -0.0060308331605798716 -0.011531355102301591 -0.0080031807402949368 -0.0094353774285262822 -0.0057664633934908045 -0.011023511142344598 0.0089692458128121273 -0.0072802855340354175 -0.011571432664642488 -0.012694599020337618 -0.011553439290203762 0.0087654073767068994 0.0094102086318516055 0.0097291169721535307 0.010035858078946155 0.0097649075465652407 0.0098092710307871936 0.009672885627845516 0.0097103577234150477
leaf_weight=37.233260899782181 27.469245195388794 28.154429286718369 33.515686064958572 38.093266546726227 28.32384318113327 27.856518253684044 27.335764989256859 29.02677546441555 30.326917439699173 38.160369604825974 22.896591290831566 29.546961173415184 45.413705870509148 30.42792147397995 38.762666419148445 26.337567985057831 37.561150550842285 23.578226581215858 23.965043812990189 23.766957342624664 28.65631964802742 27.772617042064667 22.625745564699173 22.065452605485916 22.812286749482155 37.369711384177208 22.652927547693253 30.538559675216675 88.996861934661865 23.687798336148262
leaf_count=158 116 122 136 156 121 112 110 117 126 166 99 120 183 123 157 107 151 103 97 96 115 112 98 97 100 160 99 133 392 104
internal_value=0 -0.00348561 0.00698227 -0.00569906 0.00225624 -0.00682078 -0.00572227 -0.00168366 0.00716969 0.00860395 0.00521621 -0.00903932 -0.00954083 -0.00885513 -0.0112041 -0.00808524 -0.0109176 0.00930914 -0.00886659 -0.00956804 -0.0117467 -0.0124365 0.009541 0.00958394 0.00966435 0.0101051 0.00969981 0.00983997 0.00968892 0.00968077
internal_weight=0 649.096 325.835 537.45 66.4171 471.033 376.641 169.847 111.646 292.32 50.3658 206.794 177.247 131.833 94.3918 104.497 95.2442 241.954 78.1599 54.1949 66.2175 55.6291 81.3187 203.794 180.215 74.603 158.15 58.693 135.497 112.685
internal_count=4086 2674 1412 2195 277 1918 1537 701 479 1276 215 836 716 533 381 423 383 1061 316 219 266 224 353 895 792 318 695 255 596 496
is_linear=0
shrinkage=0.00630227


Tree=25
num_leaves=30
num_cat=0
split_feature=6 5 2 1 14 8 9 6 3 6 6 6 13 5 6 2 3 14 0 13 0 7 6 13 6 14 13 4 7
split_gain=591.878 380.763 186.268 119.148 63.3073 49.7142 120.982 42.0609 32.9905 17.4934 14.505 12.7282 9.63843 7.74535 6.55869 6.00484 7.41837 4.69899 4.68551 3.71216 2.50553 2.3717 1.12823 0.472643 0.460487 0.415492 0.00238803 0.00139857 0.00121594
threshold=656.10744223194399 3.5000000000000004 18.500000000000004 1.0000000180025095e-35 1.0269326660364879 1.0000000180025095e-35 1.0000000180025095e-35 542.35198623284032 10.100197103036825 681.81485605849832 558.55000000000007 524.35184779536496 0.24310793331475358 2.5000000000000004 608.45000000000016 18.500000000000004 8.3019186787154151 1.2158333333333335 88.500000000000014 0.1612242851497204 59.500000000000007 301.50000000000006 588.91324843478685 0.16697441485068606 706.05863635976414 0.84472606161392949 0.23240848649163137 3.5000000000000004 257.50000000000006
decision_type=2 2 2 2 2 2 2 2 2 2 2 2 2 2 2 2 2 2 2 2 2 2 2 2 2 2 2 2 2
left_child=1 3 9 5 -5 6 8 23 18 12 11 -10 -2 15 -12 16 -8 21 -1 -7 -11 -18 -21 27 25 -22 -26 -3 -28
right_child=2 7 -4 4 -6 19 13 -9 10 20 14 -13 -14 -15 -16 -17 17 -19 -20 22 24 -23 -24 -25 26 -27 28 -29 -30
leaf_value=-0.0071926844878576141 0.0026737342111446279 0.0097716489583829693 -0.0071106277572113592 -0.0030563719814195043 0.0093921172290861877 -0.0089623341858880833 -0.011713721726199312 0.00080624396939902633 6.0770808902081049e-05 0.007461795840767233 -0.0042388073843213202 0.0062980945791228709 0.0082147772964171976 -0.0059884883793886456 0.00041692454014635331 -0.011448074356558731 -0.0099353272476966209 -0.005726083519809624 -0.0038192755806845959 -0.010946034884667452 0.009496334196984528 -0.0077394262156364945 -0.012606104358738513 0.0087314853353145632 0.0097111664459726393 0.0083209810907949669 0.0096957988961772525 0.0098396232891970452 0.0096386453168438441
leaf_weight=27.473001077771187 27.452304512262344 29.528141915798187 33.543812319636345 38.110570251941681 28.2567438185215 29.048907741904259 27.359295427799225 30.322192996740341 29.853906393051147 26.863311573863029 25.056618258357048 23.010599240660667 22.844669237732887 29.568291395902634 23.095272436738014 45.455649077892303 37.89011162519455 26.356082767248154 40.407688036561012 37.588525339961052 26.247648596763611 40.337737128138542 28.675556689500809 22.570673644542694 33.70897351205349 21.949849024415016 22.065147206187248 29.001417234539986 110.44730554521084
leaf_count=112 116 129 136 156 121 117 110 126 125 117 103 97 99 120 96 183 153 107 166 151 115 163 115 98 148 96 97 126 488
internal_value=0 -0.00346429 0.00695354 -0.00566211 0.00224373 -0.00677569 -0.00574481 0.00713884 -0.00178675 0.00857151 0.000496518 0.00277573 0.00519047 -0.00897481 -0.00200576 -0.00947256 -0.00879197 -0.00802762 -0.00518459 -0.0108409 0.00927631 -0.00880303 -0.0116644 0.00950649 0.00950364 0.00896108 0.00966095 0.00980535 0.00964817
internal_weight=0 648.967 325.123 537.545 66.3673 471.177 375.864 111.422 168.897 291.579 101.016 52.8645 50.297 206.967 48.1519 177.399 131.943 104.584 67.8807 95.313 241.282 78.2278 66.2641 81.1002 214.419 48.1975 166.221 58.5296 132.512
internal_count=4086 2674 1412 2195 277 1918 1535 479 699 1276 421 222 215 836 199 716 533 423 278 383 1061 316 266 353 944 211 733 255 585
is_linear=0
shrinkage=0.00630227


Tree=26
num_leaves=30
num_cat=0
split_feature=6 5 2 1 10 9 8 3 6 6 13 5 2 3 3 13 7 3 0 0 6 3 6 0 3 6 13 7 4
split_gain=585.32 376.101 184.395 117.531 56.9257 124.419 456.862 46.5324 41.7441 17.4064 9.56204 7.63831 5.92182 7.31956 4.10219 3.66551 3.58319 3.10712 3.76249 2.49663 1.11456 0.472377 0.459883 0.412459 0.00801057 0.0023701 0.00231304 0.00117425 0.000842751
threshold=656.10744223194399 3.5000000000000004 18.500000000000004 1.0000000180025095e-35 1.0000000180025095e-35 1.0000000180025095e-35 1.0000000180025095e-35 12.204368397703641 542.35198623284032 681.81485605849832 0.24310793331475358 2.5000000000000004 18.500000000000004 8.3019186787154151 10.100197103036825 0.1612242851497204 296.50000000000006 9.8991466526367251 95.500000000000014 59.500000000000007 588.91324843478685 9.0354198625925459 706.05863635976414 108.50000000000001 10.136766305578391 551.35000000000002 0.23240848649163137 257.50000000000006 3.5000000000000004
decision_type=2 2 2 2 2 2 2 2 2 2 2 2 2 2 2 2 2 2 2 2 2 2 2 2 2 2 2 2 2
left_child=1 3 9 4 5 6 24 -5 21 10 -2 12 13 -7 -6 -8 -16 -15 -19 -11 -17 -3 23 -21 -1 -26 -24 -28 -23
right_child=2 8 -4 7 14 11 15 -9 -10 19 -12 -13 -14 17 16 20 -18 18 -20 22 -22 28 26 -25 25 -27 27 -29 -30
leaf_value=0.010169990946084416 0.0026585281568594237 0.0086913510857138544 -0.0070600908528829082 -0.0016848344907919224 -0.01245143826728084 -0.01163072642417735 -0.0088994495983429726 0.0093478212934064234 0.0008012874645313392 0.0074307150683400516 0.0081817982455466721 -0.0059465768623849762 -0.011366215501638579 -0.0059824121268850072 -0.0081084212597803355 -0.010869811412470972 -0.011534748522034666 -0.0099423435330429095 -0.0072190655558504752 0.0082897971574615315 -0.012519284180054593 0.0097475838918017615 0.0096782290326034998 0.0094623893912469705 0.0099834725233759677 0.010074531808025028 0.0096630583860796686 0.0096066419014158282 0.0098048618617800135
leaf_weight=22.615921691060066 27.435377150774002 22.292037189006805 33.570921123027802 42.776696532964706 46.003199383616447 27.380802631378174 29.069736957550049 23.539799898862839 30.317488819360733 26.805847644805908 22.792363077402115 29.588962852954865 45.494357258081436 24.046990364789963 24.210402116179466 37.613477170467377 24.285252064466476 39.807653903961182 40.812079280614853 21.895644545555115 28.692390844225883 36.093036934733391 33.61083722114563 26.174354091286659 28.15609036386013 23.65027879178524 22.000580862164497 110.11789956688881 22.494660973548889
leaf_count=96 116 97 136 178 185 110 117 99 126 117 99 120 183 97 98 151 98 161 165 96 115 158 148 115 121 101 97 488 98
internal_value=0 -0.00344257 0.0069251 -0.00562432 -0.00672939 -0.00563284 -0.0016337 0.00223133 0.00710827 0.00853942 0.00516489 -0.00891118 -0.00940525 -0.00872963 -0.0111032 -0.0107655 -0.00982425 -0.0079707 -0.00856375 0.00924387 -0.0115836 0.00947242 0.0094712 0.0089283 0.0100691 0.0100251 0.00962866 0.00961604 0.00976959
internal_weight=0 648.941 324.404 537.744 471.428 376.929 169.798 66.3165 111.197 290.833 50.2277 207.131 177.542 132.048 94.4989 95.3756 48.4957 104.667 80.6197 240.605 66.3059 80.8797 213.799 48.07 74.4223 51.8064 165.729 132.118 58.5877
internal_count=4086 2674 1412 2195 1918 1537 701 277 479 1276 215 836 716 533 381 383 196 423 326 1061 266 353 944 211 318 222 733 585 256
is_linear=0
shrinkage=0.00630227


Tree=27
num_leaves=30
num_cat=0
split_feature=6 5 2 1 10 9 3 6 11 4 6 13 3 5 2 3 3 5 12 3 0 0 3 13 6 0 13 4 13
split_gain=578.882 371.561 182.547 115.996 56.0582 122.574 46.0458 41.4321 32.9006 17.5202 17.3212 9.48671 9.31375 7.53353 5.84213 7.22453 4.05065 3.65153 3.24726 3.06 3.70519 2.48809 0.731898 0.473238 0.459342 0.410757 0.00224045 0.00135555 0.000804096
threshold=656.10744223194399 3.5000000000000004 18.500000000000004 1.0000000180025095e-35 1.0000000180025095e-35 1.0000000180025095e-35 12.204368397703641 542.35198623284032 1.0000000180025095e-35 3.5000000000000004 681.81485605849832 0.24310793331475358 12.193908066391392 2.5000000000000004 18.500000000000004 8.3019186787154151 10.100197103036825 1.5000000000000002 0.57975735294117658 9.8991466526367251 95.500000000000014 59.500000000000007 12.248519312190011 0.16697441485068606 706.05863635976414 108.50000000000001 0.23240848649163137 3.5000000000000004 0.29945011347361938
decision_type=2 2 2 2 2 2 2 2 2 2 2 2 2 2 2 2 2 2 2 2 2 2 2 2 2 2 2 2 2
left_child=1 3 10 4 5 8 -5 23 -1 17 11 -2 18 14 15 -7 -6 -10 -11 -17 -21 -12 -18 27 25 -23 -26 -3 -28
right_child=2 7 -4 6 16 13 -8 -9 9 12 21 -13 -14 -15 -16 19 22 -19 -20 20 -22 24 -24 -25 26 -27 28 -29 -30
leaf_value=0.0038860842699592448 0.0026434079828020762 0.0097053407940678703 -0.007010127131968932 -0.0016737001589896916 -0.012362787421625774 -0.011549166421202444 0.0093076170954757721 0.00079636094106413523 -0.0019764143309785481 -0.008260868262074764 0.0073998857042515574 0.0081491287891109244 -0.0018760448997741683 -0.00590509118426 -0.01128574003171208 -0.0059415831798958875 -0.010510801569112192 0.0010842091869606293 -0.0050235556468701112 -0.0098697785261845049 -0.0071684753141399906 0.0082579639782601327 -0.0089623771271416259 0.0086612843160090575 0.009645719939245628 0.0094296798005939538 0.0095757467815017604 0.0097725782881069572 0.0096229178509848416
leaf_weight=34.32515287399292 27.418464869260788 29.360742658376694 33.59702941775322 42.789842844009399 46.040953323245049 27.400323167443275 23.492634147405624 30.31280492246151 33.64678943157196 25.21110463142395 26.748067200183868 22.739683747291565 23.755284950137138 29.608986184000969 45.529889047145844 24.0596032589674 24.793162405490875 28.679930910468102 24.045906364917755 39.847479522228241 40.84098756313324 21.841695293784142 23.747314229607582 22.453313082456589 33.511890470981598 26.099852621555328 107.76825986802578 28.843223288655281 23.953214630484581
leaf_count=145 116 129 136 178 185 110 99 126 139 102 117 99 98 120 183 97 100 119 98 161 165 96 96 98 148 115 479 126 106
internal_value=0 -0.00342166 0.00689696 -0.0055881 -0.00668546 -0.00559697 0.00221843 0.00707799 -0.00162464 -0.00302229 0.00850767 0.00513949 -0.00511734 -0.00884831 -0.00933878 -0.00866797 -0.0110236 -0.000568049 -0.00668052 -0.00791429 -0.00850251 0.00921181 -0.00975329 0.00943876 0.00943916 0.00889587 0.00959679 0.00973868 0.00958433
internal_weight=0 648.785 323.678 537.815 471.533 376.951 66.2825 110.97 169.664 135.339 290.081 50.1581 73.0123 207.287 177.678 132.148 94.5814 62.3267 49.257 104.748 80.6885 239.923 48.5405 80.6573 213.175 47.9415 165.233 58.204 131.721
internal_count=4086 2674 1412 2195 1918 1537 277 479 701 556 1276 215 298 836 716 533 381 258 200 423 326 1061 196 353 944 211 733 255 585
is_linear=0
shrinkage=0.00630227


Tree=28
num_leaves=32
num_cat=0
split_feature=6 5 1 14 10 9 8 6 6 14 9 8 5 14 6 14 7 13 6 6 13 10 6 14 13 11 14 6 4 4 6
split_gain=572.49 367.017 114.438 62.7119 55.2598 120.87 450.659 41.1249 38.108 13.9619 8.63927 10.4044 7.43151 5.0448 4.98912 4.36846 5.51054 6.68034 7.37349 4.40029 3.629 1.62991 1.10154 1.05503 0.471606 0.0106115 0.0106916 0.00663721 0.00278886 0.00130932 0.000633745
threshold=656.10744223194399 3.5000000000000004 1.0000000180025095e-35 1.0269326660364879 1.0000000180025095e-35 1.0000000180025095e-35 1.0000000180025095e-35 542.35198623284032 681.81485605849832 0.65523244443628703 1.0000000180025095e-35 1.0000000180025095e-35 2.5000000000000004 0.86948626471579449 736.15111896887743 1.2158333333333335 273.50000000000006 0.19678313941099787 554.621069751552 507.11913451007496 0.1612242851497204 1.0000000180025095e-35 588.91324843478685 0.53264081009511965 0.16697441485068606 1.0000000180025095e-35 0.88024521574189019 755.86762175269439 4.5000000000000009 3.5000000000000004 712.07282265041329
decision_type=2 2 2 2 2 2 2 2 2 2 2 2 2 2 2 2 2 2 2 2 2 2 2 2 2 2 2 2 2 2 2
left_child=1 2 4 -4 5 6 25 24 9 -2 11 21 15 23 -12 16 -7 18 19 -18 -8 27 -22 -6 29 -1 -27 28 30 -3 -10
right_child=8 7 3 -5 13 12 20 -9 10 -11 14 -13 -14 -15 -16 -17 17 -19 -20 -21 22 -23 -24 -25 -26 26 -28 -29 -30 -31 -32
leaf_value=0.0099210482887362953 -0.00078425826013718038 0.0096724862524632388 -0.0030656750048817746 0.0093383326321564483 -0.013025893448107426 -0.012240837191830996 -0.008816369805536451 0.00079146417104178845 0.0096397017147051723 0.0051198427895691517 0.004352303202266837 0.0053763912829608677 -0.0058640243144815248 -0.0092026709082839372 0.0077443191438336398 -0.0072994921018229497 -0.010127294532628877 -0.0062019463490332327 -0.012204250579427482 -0.0065351172196643362 -0.010776716432826542 0.0079209705800385114 -0.0124160028886732 -0.011291963607256063 0.0086284457084230513 0.010182200172133254 0.0099956851078582664 0.0095450071645343075 0.0096887533015278231 0.0097388441991421455 0.0095863258450028018
leaf_weight=23.858171045780182 28.228913888335228 29.275075122714043 38.094520330429077 28.153133735060692 27.922652214765549 28.589972615242004 29.095003977417946 30.308141216635704 24.875597357749939 36.449881359934807 34.587202936410904 32.075524479150772 29.628371939063072 38.884934052824974 34.30693793296814 35.618654549121857 29.788286417722702 24.124941676855087 34.843480706214905 24.840367943048477 37.640094086527824 27.50137397646904 28.709029793739319 27.850472509860992 22.396900177001953 24.052513107657433 26.320325911045074 43.290720775723457 34.627181172370911 28.760984793305397 27.002865254878998
leaf_count=103 118 129 156 121 112 115 117 126 110 156 150 140 120 157 151 144 120 97 140 100 151 121 115 112 98 102 113 193 153 126 120
internal_value=0 -0.00340022 -0.00555081 0.00220563 -0.00664 -0.00555936 -0.00161429 0.00704799 0.00686909 0.00254301 0.00795248 0.00864773 -0.00878631 -0.0109452 0.00604142 -0.00927325 -0.00976768 -0.00914524 -0.00993885 -0.0084939 -0.0106722 0.0093148 -0.011486 -0.0121601 0.00940552 0.0100322 0.0100848 0.00961012 0.0096427 0.00970539 0.00961194
internal_weight=0 648.756 538.015 66.2477 471.767 377.109 169.675 110.741 322.946 64.6788 258.267 189.373 207.434 94.6581 68.8941 177.806 142.187 113.597 89.4721 54.6287 95.4441 157.298 66.3491 55.7731 80.433 74.231 50.3728 129.796 86.5056 58.0361 51.8785
internal_count=4086 2674 2195 277 1918 1537 701 479 1412 274 1138 837 836 381 301 716 572 457 360 220 383 697 266 224 353 318 215 576 383 255 230
is_linear=0
shrinkage=0.00630227


Tree=29
num_leaves=29
num_cat=0
split_feature=6 2 6 9 8 10 8 9 10 0 0 3 14 6 13 6 0 14 0 13 0 6 6 14 14 3 13 13
split_gain=566.143 180.677 123.51 66.3569 97.8314 160.885 45.52 69.5926 315.54 31.57 24.7441 21.4614 20.5362 17.1078 9.41447 7.69705 5.41516 5.22708 3.87424 3.74877 2.48719 0.458519 0.0296006 0.0154594 0.00703406 0.005236 0.00154249 0.000783129
threshold=656.10744223194399 18.500000000000004 547.95000000000016 1.0000000180025095e-35 1.0000000180025095e-35 1.0000000180025095e-35 1.0000000180025095e-35 1.0000000180025095e-35 1.0000000180025095e-35 122.50000000000001 92.500000000000014 11.200911221919327 0.71079173317383504 681.81485605849832 0.24310793331475358 498.10000000000008 86.500000000000014 0.6692131111360069 102.50000000000001 0.18814977075904232 59.500000000000007 699.43437202448376 709.05387343833286 1.0269326660364879 0.98182117176239736 10.439483794281786 0.23240848649163137 0.29945011347361938
decision_type=2 2 2 2 2 2 2 2 2 2 2 2 2 2 2 2 2 2 2 2 2 2 2 2 2 2 2 2
