tree
version=v3
num_class=1
num_tree_per_iteration=1
label_index=0
max_feature_idx=15
objective=binary sigmoid:1
feature_names=account_length international_plan number_vmail_messages total_intl_minutes total_intl_calls number_customer_service_calls total_minutes total_calls area_code_area_code_408 area_code_area_code_415 area_code_area_code_510 state_other avg_mt_charge avg_call_charge avg_intl_call_charge both_plans
feature_infos=[1:232] [0:1] [0:50] [0:20] [0:18] [0:9] [300.89999999999998:871.69999999999993] [188:410] [0:1] [0:1] [0:1] [0:1] [0.17518914439216754:68.060000000000002] [0.063580901856763919:0.40254807692307693] [0:4.54] [0:1]
tree_sizes=753 794 1112 793 794 677 577 1322 788 577 1559 1115 895 676 905 1011 903 678 675 676 674 792 796 1013 1234 902 791 569 678 1107 1337 781 1117 898 1012 681 1229 1005 1008 1012 1225 1125 788 796 904 1013 1010 793 1006 793 1341 901 907 997 907 1452 676 679 1335 792 1115 1010 679 584 1443 901 1118 794 1228

Tree=0
num_leaves=6
num_cat=0
split_feature=13 5 2 11 7
split_gain=7.66244 6.99934 1.29965 0.478402 0.186619
threshold=0.23171711712595097 3.5000000000000004 16.500000000000004 1.0000000180025095e-35 232.50000000000003
decision_type=2 2 2 2 2
left_child=1 3 4 -1 -2
right_child=2 -3 -4 -5 -6
leaf_value=0.36324584546036309 0.36320219170840434 0.36369443110397448 0.36308973818541573 0.36184662803899814 0.36415520338802609
leaf_weight=57.096051573753357 7.4999050796031943 65.321753919124603 11.8546886742115 233.70671957731247 119.99848127365112
leaf_count=236 31 270 49 966 496
internal_value=0.36322 0.362351 0.364007 0.361884 0.364137
internal_weight=0 356.125 139.353 290.803 127.498
internal_count=2048 1472 576 1202 527
is_linear=0
shrinkage=1


Tree=1
num_leaves=6
num_cat=0
split_feature=13 5 11 12 1
split_gain=7.64362 6.98804 0.477575 0.085399 0.0193454
threshold=0.23171711712595097 3.5000000000000004 1.0000000180025095e-35 0.42910983130017216 1.0000000180025095e-35
decision_type=2 2 2 2 2
left_child=1 2 4 -2 -1
right_child=3 -3 -4 -5 -6
leaf_value=-3.0954779701046168e-05 -9.4061702904897759e-06 0.00047428576441912735 -0.0013716470800558113 0.00079657233762635022 5.7366257620666471e-05
leaf_weight=49.112054780125618 6.047705501317977 65.316185653209686 233.76428326964378 133.2854862511158 7.983733043074607
leaf_count=203 25 270 966 551 33
internal_value=0 -0.000867845 -0.00133453 0.000786465 2.58593e-05
internal_weight=0 356.176 290.86 139.333 57.0958
internal_count=2048 1472 1202 576 236
is_linear=0
shrinkage=0.0339163


Tree=2
num_leaves=9
num_cat=0
split_feature=13 11 2 14 14 3 3 14
split_gain=7.62495 2.25682 1.29839 0.178684 0.125546 0.0308735 0.00480557 0.00473437
threshold=0.23171711712595097 1.0000000180025095e-35 16.500000000000004 1.8673711834431905 0.54008277906439928 13.803843402754621 14.711170764180748 2.6099463938466525
decision_type=2 2 2 2 2 2 2 2
left_child=1 4 -2 5 -1 -3 -7 -5
right_child=2 3 -4 7 -6 6 -8 -9
leaf_value=-4.8423752305824672e-05 0.0009154073192332411 -0.0010813082391982582 -0.00013027454224678878 2.8780382559811295e-05 0.00023836577222320927 2.1495052417396676e-05 -2.0680509722625404e-05 -1.5151212181286334e-05
leaf_weight=11.854359939694403 127.46052074432373 238.393479347229 11.853548899292944 11.374970406293871 64.351018026471138 8.2289439588785189 13.070130497217177 8.9552580863237363
leaf_count=49 527 985 49 47 266 34 54 37
internal_value=0 -0.000866335 0.0007859 -0.00106053 0.000189847 -0.00107698 6.54215e-07 1.34729e-05
internal_weight=0 356.228 139.314 280.023 76.2054 259.693 21.2991 20.3302
internal_count=2048 1472 576 1157 315 1073 88 84
is_linear=0
shrinkage=0.0339163


Tree=3
num_leaves=6
num_cat=0
split_feature=13 14 0 14 14
split_gain=7.60798 0.996294 0.0954485 0.0139872 0.00138076
threshold=0.23171711712595097 1.1610956181482706 90.500000000000014 2.6099463938466525 1.3488830046484719
decision_type=2 2 2 2 2
left_child=1 -1 4 -4 -3
right_child=-2 2 3 -5 -6
leaf_value=-0.00096361387581560211 0.00078528697417582622 1.9072943640410564e-06 0.00015630144651114451 -8.0717186568875254e-06 -6.1307126853383295e-05
leaf_weight=264.06551083922386 139.29327408969402 8.471083924174307 51.78856135904789 6.7759534120559684 25.170351147651672
leaf_count=1091 576 35 214 28 104
internal_value=0 -0.000865074 8.84226e-05 0.000147986 -5.9182e-05
internal_weight=0 356.271 92.2059 58.5645 33.6414
internal_count=2048 1472 381 242 139
is_linear=0
shrinkage=0.0339163


Tree=4
num_leaves=6
num_cat=0
split_feature=13 5 11 12 1
split_gain=7.5911 6.97194 0.478087 0.0855911 0.0192623
threshold=0.23171711712595097 3.5000000000000004 1.0000000180025095e-35 0.42910983130017216 1.0000000180025095e-35
decision_type=2 2 2 2 2
left_child=1 2 4 -2 -1
right_child=3 -3 -4 -5 -6
leaf_value=-3.0818447244787499e-05 -9.450964648663311e-06 0.00047456539459574977 -0.001367911753437016 0.00079485462315107848 5.7369372886194191e-05
leaf_weight=49.116563528776169 6.046226128935813 65.325484499335289 233.88975957036018 133.22725161910057 7.9838350117206565
leaf_count=203 25 270 966 551 33
internal_value=0 -0.000863786 -0.00133069 0.000784705 2.59986e-05
internal_weight=0 356.316 290.99 139.273 57.1004
internal_count=2048 1472 1202 576 236
is_linear=0
shrinkage=0.0339163


Tree=5
num_leaves=5
num_cat=0
split_feature=13 5 7 1
split_gain=7.57253 6.9606 0.333509 0.236801
threshold=0.23171711712595097 3.5000000000000004 234.50000000000003 1.0000000180025095e-35
decision_type=2 2 2 2
left_child=1 3 -2 -1
right_child=2 -3 -4 -5
leaf_value=-0.0013480735019589017 -3.6711919417804323e-05 0.0004743981450432546 0.00082172511114016167 1.25504065069218e-05
leaf_weight=257.87734317779541 11.364693790674208 65.319917768239975 127.88958390057087 33.169704854488373
leaf_count=1065 47 270 529 137
internal_value=0 -0.00086228 0.000784141 -0.001329
internal_weight=0 356.367 139.254 291.047
internal_count=2048 1472 576 1202
is_linear=0
shrinkage=0.0339163


Tree=6
num_leaves=4
num_cat=0
split_feature=13 11 7
split_gain=7.55286 2.25013 0.333257
threshold=0.23171711712595097 1.0000000180025095e-35 234.50000000000003
decision_type=2 2 2
left_child=1 -1 -2
right_child=2 -3 -4
leaf_value=0.00019028169000998851 -3.6709642431559695e-05 -0.0010551865490025306 0.00082116485859234532
leaf_weight=76.219804286956787 11.364769354462622 280.20305500924587 127.87048597633839
leaf_count=315 47 1157 529
internal_value=0 -0.000860638 0.000783584
internal_weight=0 356.423 139.235
internal_count=2048 1472 576
is_linear=0
shrinkage=0.0339163


Tree=7
num_leaves=11
num_cat=0
split_feature=13 14 3 14 3 3 3 3 3 3
split_gain=7.5348 1.00185 0.228114 0.031702 0.0492677 0.0069379 0.00558897 0.00565854 0.00253614 0.0026707
threshold=0.23171711712595097 1.1610956181482706 13.304300512023715 2.6099463938466525 12.39936746895521 12.1030058846898 13.803843402754621 14.604420459035916 14.098482318463253 15.064362144172808
decision_type=2 2 2 2 2 2 2 2 2 2
left_child=1 2 -1 4 -3 -5 -6 -8 -4 -10
right_child=-2 3 8 5 6 -7 7 -9 9 -11
leaf_value=-0.00098158382070861853 0.00078302758643094888 0.00014608723805779398 2.7693972412928534e-05 -4.1053323265469455e-05 -4.2956508856532987e-05 1.5553090532244521e-05 2.9668042056164796e-05 -1.7597235320077356e-05 -2.0498478758637328e-05 1.1997078486681158e-05
leaf_weight=235.65818440914154 139.21620219945908 57.131373509764671 10.654627203941347 5.568287715315817 10.654418095946314 5.8117547035217285 5.5689202547073346 7.5060780197381973 8.9588369876146334 8.9599936753511411
leaf_count=973 576 236 44 23 44 24 23 31 37 37
internal_value=0 -0.000859179 -0.000958669 8.94825e-05 0.000114839 -2.5333e-05 -3.08362e-05 1.1908e-05 1.91397e-05 -8.34654e-06
internal_weight=0 356.472 264.232 92.2408 80.8608 11.38 23.7294 13.075 28.5735 17.9188
internal_count=2048 1472 1091 381 334 47 98 54 118 74
is_linear=0
shrinkage=0.0339163


Tree=8
num_leaves=6
num_cat=0
split_feature=6 11 13 6 6
split_gain=13.8433 1.58557 0.44496 0.173082 0.00224117
threshold=652.15000000000009 1.0000000180025095e-35 0.19111904299404303 552.18527969625904 623.00000000000011
decision_type=2 2 2 2 2
left_child=1 3 -2 -1 -5
right_child=2 -3 -4 4 -6
leaf_value=0.00019198296848758342 -3.643553881490714e-05 -0.0012676849920421529 0.0011106711492249485 -8.5414948840450484e-05 2.2545189518039291e-06
leaf_weight=42.099692165851593 6.0565428584814063 258.44495576620102 162.73230962455273 20.809364289045337 5.5653127431869498
leaf_count=174 25 1067 673 86 23
internal_value=0 -0.00114992 0.00107397 0.000108642 -8.29493e-05
internal_weight=0 326.919 168.789 68.4744 26.3747
internal_count=2048 1350 698 283 109
is_linear=0
shrinkage=0.0339163


Tree=9
num_leaves=4
num_cat=0
split_feature=13 2 1
split_gain=7.50178 1.29529 0.302653
threshold=0.23171711712595097 16.500000000000004 1.0000000180025095e-35
decision_type=2 2 2
left_child=2 -2 -1
right_child=1 -3 -4
leaf_value=-0.00088912341125057929 0.00091157827862764474 -0.00013051491033986797 2.8809473770834465e-05
leaf_weight=320.47116208076477 127.32985609769821 11.845579475164412 36.085419684648514
leaf_count=1323 527 49 149
internal_value=0 0.000781841 -0.000856696
internal_weight=0 139.175 356.557
internal_count=2048 576 1472
is_linear=0
shrinkage=0.0339163


Tree=10
num_leaves=13
num_cat=0
split_feature=9 5 14 3 7 3 14 14 3 3 7 14
split_gain=4.33153 0.918664 0.491961 0.163999 0.134026 0.0985593 0.0706137 0.0513907 0.0292696 0.0119935 0.00977855 0.00131172
threshold=1.0000000180025095e-35 3.5000000000000004 0.38698649795626622 13.892252996394474 364.50000000000006 14.711170764180748 1.8923639823604914 2.6099463938466525 6.3404010725680289 10.371537916272702 317.50000000000006 1.0702863279998953
decision_type=2 2 2 2 2 2 2 2 2 2 2 2
left_child=2 3 9 6 5 7 -2 8 -4 -1 -7 -5
right_child=1 -3 4 11 -6 10 -8 -9 -10 -11 -12 -13
leaf_value=-8.2981223877385554e-05 -0.00081495958438605319 0.00010670052258922801 -3.4495346769176655e-06 -5.1884976576512936e-06 -1.8401609971708284e-05 -3.7221737098236101e-05 7.3329182892928069e-06 -6.4319043693799572e-06 0.00067995858631857262 1.3233635263266494e-05 2.4273176871749217e-05 2.2866877045805126e-05
leaf_weight=29.288977056741714 135.12753702700138 18.632916688919067 7.2643899768590918 9.4398880302906054 7.9955925345420829 7.7470059245824796 8.46992379426956 8.7146526277065259 242.98347660899162 5.567132204771041 5.5710517317056656 8.9584615826606733
leaf_count=121 558 77 30 39 33 32 35 36 1004 23 23 37
internal_value=0 -0.000680543 0.000565991 -0.000786972 0.00063613 0.000654703 -0.000806556 0.000668505 0.000675736 -6.95934e-05 -1.28027e-05 1.75086e-05
internal_weight=0 180.629 315.132 161.996 280.276 272.281 143.597 258.963 250.248 34.8561 13.3181 18.3983
internal_count=2048 746 1302 669 1158 1125 593 1070 1034 144 55 76
is_linear=0
shrinkage=0.0339163


Tree=11
num_leaves=9
num_cat=0
split_feature=9 10 5 3 3 7 3 3
split_gain=4.32146 2.87218 0.917879 0.326128 0.163864 0.0101798 0.00347887 0.0056059
threshold=1.0000000180025095e-35 1.0000000180025095e-35 3.5000000000000004 5.8165579823390017 13.892252996394474 364.50000000000006 13.378177436543396 14.201800603423296
decision_type=2 2 2 2 2 2 2 2
left_child=1 3 4 -1 -2 -5 -3 -8
right_child=2 6 -4 5 -6 -7 7 -9
leaf_value=-3.2986211638991507e-05 -0.0008059652997115626 -0.00030132416403094709 0.00010668969242251342 0.00089957960807885492 1.7507711039611576e-05 -4.8499539029324907e-07 2.3175956901324435e-05 -2.2393172338929061e-05
leaf_weight=7.0224376022815695 143.61691954731941 69.008281603455544 18.632561266422272 221.39633962512016 18.398321807384491 5.8136020153760901 6.0511491000652295 5.8114093989133835
leaf_count=29 593 285 77 915 76 24 25 24
internal_value=0 0.000565148 -0.000679968 0.000865221 -0.000786384 0.00089816 -0.000299981 6.40161e-07
internal_weight=0 315.103 180.648 234.232 162.015 227.21 80.8708 11.8626
internal_count=2048 1302 746 968 669 939 334 49
is_linear=0
shrinkage=0.0339163


Tree=12
num_leaves=7
num_cat=0
split_feature=11 5 3 3 3 3
split_gain=3.46958 3.30455 0.126895 0.126615 0.024699 0.00679034
threshold=1.0000000180025095e-35 3.5000000000000004 7.2012579628656725 13.803843402754621 14.551252675535888 16.300098887351016
decision_type=2 2 2 2 2 2
left_child=2 3 -1 -2 -5 -6
right_child=1 -3 -4 4 5 -7
leaf_value=-2.1346328976232068e-05 -0.00093078121664556888 0.00032734984502114095 0.0005401158485021033 5.3198153275451306e-05 -5.4474563330531433e-05 1.1409424088275672e-05
leaf_weight=6.5301721245050421 295.18856759369373 50.337656736373901 111.96321289241314 12.829447358846666 12.350530907511713 6.5394454896450034
leaf_count=27 1219 208 463 53 51 27
internal_value=0 -0.000598251 0.000518449 -0.000916487 1.0095e-05 -4.2888e-05
internal_weight=0 377.246 118.493 326.908 31.7194 18.89
internal_count=2048 1558 490 1350 131 78
is_linear=0
shrinkage=0.0339163


Tree=13
num_leaves=5
num_cat=0
split_feature=6 5 13 6
split_gain=13.7865 8.26883 0.443753 0.0614618
threshold=652.15000000000009 3.5000000000000004 0.19111904299404303 588.86575385755953
decision_type=2 2 2 2
left_child=1 -1 -2 -3
right_child=2 3 -4 -5
leaf_value=-0.0016090012906158637 -3.6381261082718564e-05 0.00047702351542037162 0.0011092976404070926 -1.1578002998798895e-05
leaf_weight=262.18211762607098 6.058279260993003 59.040683209896088 162.6846519857645 5.8080090731382361
leaf_count=1082 25 244 673 24
internal_value=0 -0.00114658 0.00107265 0.000464971
internal_weight=0 327.031 168.743 64.8487
internal_count=2048 1350 698 268
is_linear=0
shrinkage=0.0339163


Tree=14
num_leaves=7
num_cat=0
split_feature=11 8 3 3 3 3
split_gain=3.45454 0.297351 0.157305 0.0214014 0.00950915 0.00389772
threshold=1.0000000180025095e-35 1.0000000180025095e-35 13.803843402754621 14.551252675535888 8.0022036151649072 16.300098887351016
decision_type=2 2 2 2 2 2
left_child=1 4 -2 -4 -1 -5
right_child=2 -3 3 5 -6 -7
leaf_value=-9.5354403206653636e-07 -0.00061978092922276742 -4.7759568757768694e-05 5.6716586160393339e-05 -4.3196263926830373e-05 0.00056869695807554462 8.2224172960753854e-06
leaf_weight=9.9157940298318845 343.18109661340714 15.47669669985771 13.798194721341131 13.562850385904314 93.092608511447906 6.7824521511793128
leaf_count=41 1417 64 57 56 385 28
internal_value=0 0.000518214 -0.000595897 2.16642e-05 0.000566723 -3.48021e-05
internal_weight=0 118.485 377.325 34.1435 103.008 20.3453
internal_count=2048 490 1558 141 426 84
is_linear=0
shrinkage=0.0339163


Tree=15
num_leaves=8
num_cat=0
split_feature=9 2 5 14 1 14 4
split_gain=4.31227 1.14487 0.914837 0.355013 0.0196762 0.0358268 0.00243159
threshold=1.0000000180025095e-35 18.500000000000004 3.5000000000000004 0.38698649795626622 1.0000000180025095e-35 1.0557632482094992 7.5000000000000009
decision_type=2 2 2 2 2 2 2
left_child=1 3 4 6 -2 -6 -1
right_child=2 -3 -4 -5 5 -7 -8
leaf_value=-4.6551647172228102e-05 -0.00078754349273644857 -0.00014549770730059301 0.00010663210791314956 0.00075481249196364788 -5.6950607112702263e-05 5.8222577267531539e-05 4.6555252891745103e-06
leaf_weight=13.800054430961611 144.8905910551548 51.835580110549927 18.63064768910408 234.2374454587698 10.900521963834764 6.2946521937847129 15.248250067234038
leaf_count=57 598 214 77 968 45 26 63
internal_value=0 0.000565732 -0.000677865 0.000711144 -0.000784217 1.08496e-06 -4.16502e-05
internal_weight=0 315.121 180.716 263.286 162.086 17.1952 29.0483
internal_count=2048 1302 746 1088 669 71 120
is_linear=0
shrinkage=0.0339163


Tree=16
num_leaves=7
num_cat=0
split_feature=9 8 3 14 14 14
split_gain=4.30184 6.34802 0.206976 0.180275 0.000147931 7.11299e-05
threshold=1.0000000180025095e-35 1.0000000180025095e-35 13.706968021324693 1.800844573756047 1.1867073794531071 0.7908143506482066
decision_type=2 2 2 2 2 2
left_child=1 -1 3 -2 5 -4
right_child=2 -3 4 -5 -6 -7
leaf_value=0.0010880035498806266 -0.0007279713406667498 -0.00052887142881442265 2.3175650925047372e-06 2.2181301064453895e-05 2.6412735007421223e-05 -2.8157556408682916e-06
leaf_weight=235.66194640100002 149.0196505188942 79.429131358861923 5.5672977715730685 10.652645364403723 9.9278885722160322 5.5686271190643311
leaf_count=974 615 328 23 44 41 23
internal_value=0 0.000564857 -0.000677266 -0.000704952 2.58685e-05 -3.54973e-07
internal_weight=0 315.091 180.736 159.672 21.0638 11.1359
internal_count=2048 1302 746 659 87 46
is_linear=0
shrinkage=0.0339163


Tree=17
num_leaves=5
num_cat=0
split_feature=13 5 7 4
split_gain=7.45581 6.9109 0.332119 0.26778
threshold=0.23171711712595097 3.5000000000000004 234.50000000000003 1.5000000000000002
decision_type=2 2 2 2
left_child=1 3 -2 -1
right_child=2 -3 -4 -5
leaf_value=1.5851223771508763e-05 -3.6727532259106069e-05 0.00047440114969707559 0.00081803205235947212 -0.0013397320902678788
leaf_weight=23.493928924202919 11.364095389842985 65.319841712713242 127.76246644556522 267.86715114116669
leaf_count=97 47 270 529 1105
internal_value=0 -0.000852945 0.000780439 -0.00131955
internal_weight=0 356.681 139.127 291.361
internal_count=2048 1472 576 1202
is_linear=0
shrinkage=0.0339163


Tree=18
num_leaves=5
num_cat=0
split_feature=6 5 3 6
split_gain=13.723 8.23668 0.289947 0.0614257
threshold=652.15000000000009 3.5000000000000004 16.300098887351016 588.86575385755953
decision_type=2 2 2 2
left_child=1 2 -1 -3
right_child=-2 3 -4 -5
leaf_value=-0.001621328123409826 0.0010711728235664835 0.00047647696974299243 1.5670861792049961e-05 -1.1584938423769932e-05
leaf_weight=256.50820782780647 168.69110408425331 59.022420391440392 5.8155346512794486 5.8077794164419165
leaf_count=1058 698 244 24 24
internal_value=0 -0.00114285 -0.00160468 0.000464418
internal_weight=0 327.154 262.324 64.8302
internal_count=2048 1350 1082 268
is_linear=0
shrinkage=0.0339163


Tree=19
num_leaves=5
num_cat=0
split_feature=6 5 3 6
split_gain=13.6866 8.22262 0.289526 0.0614038
threshold=652.15000000000009 3.5000000000000004 16.300098887351016 588.86575385755953
decision_type=2 2 2 2
left_child=1 2 -1 -3
right_child=-2 3 -4 -5
leaf_value=-0.0016191269511047388 0.0010702170104064969 0.00047632510973063283 1.5670364686071113e-05 -1.1584571277338536e-05
leaf_weight=256.58032773435116 168.6581018269062 59.017353937029839 5.8155186474323264 5.8077914863824835
leaf_count=1058 698 244 24 24
internal_value=0 -0.00114083 -0.00160249 0.000464267
internal_weight=0 327.221 262.396 64.8251
internal_count=2048 1350 1082 268
is_linear=0
shrinkage=0.0339163


Tree=20
num_leaves=5
num_cat=0
split_feature=13 5 3 4
split_gain=7.398 6.87536 0.32202 0.242113
threshold=0.23171711712595097 3.5000000000000004 16.300098887351016 1.5000000000000002
decision_type=2 2 2 2
left_child=1 2 3 -1
right_child=-2 -3 -4 -5
leaf_value=1.3891123276630286e-05 0.00077881557112433844 0.0004739182712064942 2.1431705043573893e-05 -0.001354528038365275
leaf_weight=23.260781317949295 139.06980830430984 65.303717091679573 7.0260711908340445 261.25230145454407
leaf_count=96 576 270 29 1077
internal_value=0 -0.000848053 -0.00131413 -0.0013362
internal_weight=0 356.843 291.539 284.513
internal_count=2048 1472 1202 1173
is_linear=0
shrinkage=0.0339163


Tree=21
num_leaves=6
num_cat=0
split_feature=13 5 11 7 1
split_gain=7.37806 6.86318 0.497081 0.331162 0.0182679
threshold=0.23171711712595097 3.5000000000000004 1.0000000180025095e-35 234.50000000000003 1.0000000180025095e-35
decision_type=2 2 2 2 2
left_child=1 2 4 -2 -1
right_child=3 -3 -4 -5 -6
leaf_value=-2.9150912051477352e-05 -3.6722660529965581e-05 0.00047375131558133825 -0.0013510671284886501 0.00081582386084310895 5.7480972105359952e-05
leaf_weight=49.170968353748322 11.364174321293829 65.298131868243217 234.44150666892529 127.6855766326189 7.987464413046836
leaf_count=203 47 270 966 529 33
internal_value=0 -0.000846379 -0.00131227 0.000778239 2.77742e-05
internal_weight=0 356.898 291.6 139.05 57.1584
internal_count=2048 1472 1202 576 236
is_linear=0
shrinkage=0.0339163


Tree=22
num_leaves=6
num_cat=0
split_feature=11 5 4 14 14
split_gain=3.41729 3.26224 0.209239 0.0687383 0.00617587
threshold=1.0000000180025095e-35 3.5000000000000004 1.5000000000000002 0.37017870970306321 2.6600435454361739
decision_type=2 2 2 2 2
left_child=3 2 4 -1 -2
right_child=1 -3 -4 -5 -6
leaf_value=-1.1637337090566095e-05 3.5265039778779163e-05 0.00032643366763682229 -0.00092885396901973597 0.00052971601114784779 -1.6121953412394437e-05
leaf_weight=5.8058543950319281 15.01045858860016 50.307183817028999 303.95684495568275 112.65816333889961 8.2386529445648176
leaf_count=24 62 208 1254 466 34
internal_value=0 -0.000590026 -0.000907303 0.000517659 1.89928e-05
internal_weight=0 377.513 327.206 118.464 23.2491
internal_count=2048 1558 1350 490 96
is_linear=0
shrinkage=0.0339163


Tree=23
num_leaves=8
num_cat=0
split_feature=9 2 5 7 1 7 7
split_gain=4.29002 1.13736 0.906964 0.0274631 0.0232246 0.00939723 0.00981073
threshold=1.0000000180025095e-35 18.500000000000004 3.5000000000000004 232.50000000000003 1.0000000180025095e-35 284.50000000000006 262.50000000000006
decision_type=2 2 2 2 2 2 2
left_child=1 3 4 -1 -2 6 -3
right_child=2 5 -4 -5 -6 -7 -8
leaf_value=-3.0974780263291495e-06 -0.00078304167086097295 -2.7456314293914065e-05 0.00010638588884035306 0.00071497319547974235 1.5236720456111381e-06 -0.00015046159010981394 3.3046006591871385e-05
leaf_weight=5.559344917535781 145.03291046619415 7.0245950669050243 18.622472211718559 257.72205296158791 17.208888798952103 35.392093002796173 9.4500887393951398
leaf_count=23 598 29 77 1065 71 146 39
internal_value=0 0.000566785 -0.000673203 0.000711247 -0.000779297 -0.000144503 5.45144e-06
internal_weight=0 315.148 180.864 263.281 162.242 51.8668 16.4747
internal_count=2048 1302 746 1088 669 214 68
is_linear=0
shrinkage=0.0339163


Tree=24
num_leaves=10
num_cat=0
split_feature=11 12 4 12 12 7 12 12 12
split_gain=3.40696 0.645005 0.598851 0.135934 0.017759 0.0141124 0.00790175 0.00162422 0.00133973
threshold=1.0000000180025095e-35 0.69799991173346954 2.5000000000000004 1.1651926802589381 0.2745113312302912 339.50000000000006 0.65669998289920495 0.38484805637849001 0.33764608726768636
decision_type=2 2 2 2 2 2 2 2 2
left_child=5 2 6 -3 -4 -1 7 8 -2
right_child=1 3 4 -5 -6 -7 -8 -9 -10
leaf_value=0.00051999808877753408 1.0267007278103178e-05 0.00015848524920834755 1.6593200716646714e-06 -7.8660137355826768e-05 -0.00075789414420439078 -1.9882291157339508e-06 -9.1335404446083421e-06 8.0657214766318428e-05 -1.2058527163772315e-05
leaf_weight=109.24916894733906 5.8171608746051771 103.36321371793747 6.061444789171218 34.39810399711132 170.96149192750454 9.1973167955875379 6.0562905818223944 44.587559789419174 6.3078566342592239
leaf_count=452 24 427 25 142 705 38 25 184 26
internal_value=0 -0.000588817 -0.000680379 8.01075e-05 -0.00075542 0.000517148 6.94546e-05 7.87231e-05 -1.6479e-06
internal_weight=0 377.553 239.792 137.761 177.023 118.446 62.7689 56.7126 12.125
internal_count=2048 1558 989 569 730 490 259 234 50
is_linear=0
shrinkage=0.0339163


Tree=25
num_leaves=7
num_cat=0
split_feature=13 7 1 0 0 0
split_gain=7.35307 0.330406 0.310678 0.0710872 0.019493 0.00560396
threshold=0.23171711712595097 234.50000000000003 1.0000000180025095e-35 158.50000000000003 134.50000000000003 173.50000000000003
decision_type=2 2 2 2 2 2
left_child=2 -2 3 -1 -4 -5
right_child=1 -3 4 5 -6 -7
leaf_value=-0.00088606500744502702 -3.666101888321218e-05 0.00081530797967831572 6.0104796690457521e-05 2.5932231082320456e-05 -2.9913075493498039e-05 -1.9963482530403172e-05
leaf_weight=300.24443399906158 11.366179242730139 127.66731812059879 27.634829014539719 11.628532171249391 8.4915688931941968 8.9757430702447873
leaf_count=1238 47 529 114 48 35 37
internal_value=0 0.000777784 -0.000843979 -0.000877574 3.01002e-05 5.82609e-06
internal_weight=0 139.033 356.975 320.849 36.1264 20.6043
internal_count=2048 576 1472 1323 149 85
is_linear=0
shrinkage=0.0339163


Tree=26
num_leaves=6
num_cat=0
split_feature=13 11 7 3 3
split_gain=7.336 2.21867 0.330157 0.0978386 0.0864575
threshold=0.23171711712595097 1.0000000180025095e-35 234.50000000000003 16.487945351929149 8.0022036151649072
decision_type=2 2 2 2 2
left_child=1 4 -2 -3 -1
right_child=2 3 -4 -5 -6
leaf_value=-3.5168882741935063e-05 -3.6658745638679625e-05 -0.0010462929094550745 0.00081475309100839427 8.0537602298695779e-06 0.0002260838691065682
leaf_weight=6.7823761701583853 11.366254627704619 275.20463767647743 127.64792694151402 5.5762414485216132 69.457509219646454
leaf_count=28 47 1134 529 23 287
internal_value=0 -0.000842606 0.000777232 -0.00103754 0.000190918
internal_weight=0 357.021 139.014 280.781 76.2399
internal_count=2048 1472 576 1157 315
is_linear=0
shrinkage=0.0339163


Tree=27
num_leaves=4
num_cat=0
split_feature=6 6 6
split_gain=13.0622 0.294206 0.228224
threshold=657.20148324526735 508.97977690536402 480.7000000000001
decision_type=2 2 2
left_child=1 2 -1
right_child=-2 -3 -4
leaf_value=-0.00013765609832873973 0.0010439138676801749 -0.0011484509613414488 0.00015241172174525398
leaf_weight=50.712076932191849 162.79753865301609 228.03342559933662 49.433387756347656
leaf_count=209 674 940 204
internal_value=0 -0.00111675 1.44683e-05
internal_weight=0 328.179 100.145
internal_count=2027 1353 413
is_linear=0
shrinkage=0.0339163


Tree=28
num_leaves=5
num_cat=0
split_feature=6 5 1 6
split_gain=13.0351 7.54572 1.018 0.0362014
threshold=657.20148324526735 3.5000000000000004 1.0000000180025095e-35 587.80293952196746
decision_type=2 2 2 2
left_child=1 2 -1 -3
right_child=-2 3 -4 -5
leaf_value=-0.0016127218447044328 0.0010430139822590228 0.00044763209849624518 5.4154190686441731e-05 -7.1278540987513759e-06
leaf_weight=233.80999578535557 162.76625345647335 55.870511755347252 32.252388745546341 6.2908628582954398
leaf_count=963 674 231 133 26
internal_value=0 -0.00111538 -0.00155235 0.000439977
internal_weight=0 328.224 266.062 62.1614
internal_count=2027 1353 1096 257
is_linear=0
shrinkage=0.0339163


Tree=29
num_leaves=9
num_cat=0
split_feature=5 4 14 3 3 14 3 3
split_gain=3.08063 1.80676 0.268887 0.217116 0.0931229 0.0243926 0.0195901 0.0123195
threshold=3.5000000000000004 2.5000000000000004 1.271378929279577 15.611746967849058 7.2012579628656725 2.5487860958177619 13.770935450388341 12.300588463710525
decision_type=2 2 2 2 2 2 2 2
left_child=1 4 3 -3 -1 6 -6 -7
right_child=-2 2 -4 -5 5 7 -8 -9
leaf_value=-3.5079052759203758e-05 0.00049123200852537493 -0.00082651657211023518 3.0358833290530219e-05 2.3707736496747122e-05 0.00025972054013767001 -3.8381712452822558e-05 -6.718849505961298e-06 2.9686868742895137e-05
leaf_weight=9.7009506374597532 69.636444702744484 299.78214539587498 7.9925581663846961 7.268949717283248 77.739316016435623 7.0242334306240064 6.30378434062004 5.5693374574184418
leaf_count=40 288 1237 33 30 321 29 26 23
internal_value=0 -0.000561628 -0.000772792 -0.000802841 0.000208543 0.0002436 0.000252683 -8.55126e-06
internal_weight=0 421.381 315.044 307.051 106.338 96.6367 84.0431 12.5936
internal_count=2027 1739 1300 1267 439 399 347 52
is_linear=0
shrinkage=0.0339163


Tree=30
num_leaves=11
num_cat=0
split_feature=13 11 7 12 14 14 3 12 12 12
split_gain=6.167 2.14807 0.645161 0.21644 0.200829 0.108236 0.0300191 0.0225324 0.0022481 0.000356942
threshold=0.21735094764122068 1.0000000180025095e-35 241.50000000000003 0.4129594199974867 2.1954503524734048 0.46906077468923818 7.1946274511781718 0.29904258578431381 0.55594201024144507 0.2745113312302912
decision_type=2 2 2 2 2 2 2 2 2 2
left_child=1 5 -2 -4 7 -1 -5 9 -6 -3
right_child=2 4 3 6 8 -7 -8 -9 -10 -11
leaf_value=-4.1740297085291585e-05 -7.5611338281517142e-05 -5.2677150000922815e-06 -2.4498794965164743e-05 -2.7921408950876384e-06 2.5641222336916558e-05 0.00023836726267755656 0.0008060722488190073 -0.0010052838319998152 -8.0155020464176463e-06 6.2486939721877344e-06
leaf_weight=10.178110525012015 17.172727286815643 7.0357327014207822 5.5734945386648169 7.9700348526239386 6.3003027588129026 54.216845765709877 149.24561665952206 221.23252257704735 5.5770262777805328 6.5487808138132095
leaf_count=42 71 29 23 33 26 224 618 911 23 27
internal_value=0 -0.000784527 0.000701547 0.000777461 -0.000983403 0.000196459 0.000802196 -0.00100222 1.74681e-05 8.36741e-07
internal_weight=0 311.089 179.962 162.789 246.694 64.395 157.216 234.817 11.8773 13.5845
internal_count=2027 1282 745 674 1016 266 651 967 49 56
is_linear=0
shrinkage=0.0339163


Tree=31
num_leaves=6
num_cat=0
split_feature=6 5 2 1 6
split_gain=12.986 7.52635 1.9647 1.01751 0.0361707
threshold=657.20148324526735 3.5000000000000004 19.500000000000004 1.0000000180025095e-35 587.80293952196746
decision_type=2 2 2 2 2
left_child=1 3 -2 -1 -3
right_child=2 4 -4 -5 -6
leaf_value=-0.001609338224929265 0.0011928007938852934 0.00044749018667799916 -0.00015059682617803112 5.4257101736768125e-05 -7.1239434830560227e-06
leaf_weight=233.91704393923283 144.83535233139992 55.865711644291878 17.899943053722382 32.255529597401619 6.290983870625495
leaf_count=963 600 231 74 133 26
internal_value=0 -0.00111209 0.00104214 -0.00154888 0.000439839
internal_weight=0 328.329 162.735 266.173 62.1567
internal_count=2027 1353 674 1096 257
is_linear=0
shrinkage=0.0339163


Tree=32
num_leaves=9
num_cat=0
split_feature=11 4 12 3 12 3 12 12
split_gain=3.45828 1.10368 0.184668 0.153479 0.0953814 0.085131 0.0105418 0.00139694
threshold=1.0000000180025095e-35 2.5000000000000004 0.69488968211500091 8.0022036151649072 1.0618311036789301 7.2012579628656725 0.38283695756298503 1.4411670485075538
decision_type=2 2 2 2 2 2 2 2
left_child=3 5 -3 -1 -4 -2 -7 -8
right_child=1 2 4 -5 -6 6 7 -9
leaf_value=-2.5320046275810642e-05 -4.4133312620840597e-05 -0.00076075929920882185 0.00010145683017688026 0.0005467159920664183 -8.6344926499890614e-05 -5.03318160093044e-06 0.00018384801960553409 -4.7572536378071577e-07
leaf_weight=12.580159783363341 7.5298324376344672 173.769525796175 76.994124293327332 99.093188092112541 38.269635438919067 11.160591840744017 65.880827367305756 5.813516989350318
leaf_count=52 31 716 318 410 158 46 272 24
internal_value=0 -0.000594092 -0.000732124 0.000520564 1.5409e-05 0.000133718 0.000177624 0.000183066
internal_weight=0 379.418 289.033 111.673 115.264 90.3848 82.8549 71.6943
internal_count=2027 1565 1192 462 476 373 342 296
is_linear=0
shrinkage=0.0339163


Tree=33
num_leaves=7
num_cat=0
split_feature=13 14 7 0 14 14
split_gain=6.13502 1.57253 0.643578 0.0594731 0.0221512 0.00548801
threshold=0.21735094764122068 1.1610956181482706 241.50000000000003 51.500000000000007 2.6099463938466525 0.69347393358309595
decision_type=2 2 2 2 2 2
left_child=1 -1 -2 5 -3 -4
right_child=2 4 3 -5 -6 -7
leaf_value=-0.00093692972144638037 -7.5541067100329823e-05 0.00016172926793062571 -2.5869728164789505e-05 0.00078390182475159291 -1.2437234060565732e-05 1.9607614047986981e-05
leaf_weight=232.14900162816048 17.174921929836273 69.81811948120594 6.0444867461919767 150.4212077409029 9.2122700363397581 6.2812458127737045
leaf_count=956 71 288 25 623 38 26
internal_value=0 -0.000781689 0.000700435 0.000776277 0.000149052 -6.1123e-06
internal_weight=0 311.179 179.922 162.747 79.0304 12.3257
internal_count=2027 1282 745 674 326 51
is_linear=0
shrinkage=0.0339163


Tree=34
num_leaves=8
num_cat=0
split_feature=11 14 14 7 7 3 3
split_gain=3.45042 0.980728 0.158518 0.0511501 0.0418002 0.0362714 0.00355676
threshold=1.0000000180025095e-35 1.271378929279577 0.43162741369666752 346.50000000000006 356.50000000000006 14.403546172162384 9.2262838559123548
decision_type=2 2 2 2 2 2 2
left_child=2 3 6 -2 -5 -3 -1
right_child=1 5 -4 4 -6 -7 -8
leaf_value=-3.5467763701295851e-05 -0.00072497126957387725 0.00014510064209514773 0.00054727912725910897 6.4670904481925882e-05 -5.9756901503815095e-05 -2.2956030525402052e-05 9.1664349906977503e-06
leaf_weight=5.5721009224653226 281.06007917225361 63.449185326695442 98.594007447361946 12.847087979316713 15.786159500479696 6.3083629161119452 7.4975002706050873
leaf_count=23 1159 262 408 53 65 26 31
internal_value=0 -0.000593043 0.00052029 -0.000717122 4.73102e-06 0.000122089 -2.61241e-05
internal_weight=0 379.451 111.664 309.693 28.6332 69.7575 13.0696
internal_count=2027 1565 462 1277 118 288 54
is_linear=0
shrinkage=0.0339163


Tree=35
num_leaves=5
num_cat=0
split_feature=6 1 13 3
split_gain=12.9298 1.10742 0.0722045 0.0410367
threshold=657.20148324526735 1.0000000180025095e-35 0.19338246462980643 9.1510587494111064
decision_type=2 2 2 2
left_child=1 -1 -2 -3
right_child=2 3 -4 -5
leaf_value=-0.0011937596458849776 -5.7541709636848563e-06 -3.27892092820848e-05 0.0010476880965620938 0.00011524545007996795
leaf_weight=292.55861248075962 5.8196279704570761 9.9448040276765806 156.87447716295719 25.940721422433853
leaf_count=1205 24 41 650 107
internal_value=0 -0.00110848 0.00104098 8.22667e-05
internal_weight=0 328.444 162.694 35.8855
internal_count=2027 1353 674 148
is_linear=0
shrinkage=0.0339163


Tree=36
num_leaves=10
num_cat=0
split_feature=9 10 11 3 7 3 3 3 3
split_gain=4.09089 3.5342 0.203269 0.139396 0.0361299 0.0401976 0.0190273 0.00665124 0.000396742
threshold=1.0000000180025095e-35 1.0000000180025095e-35 1.0000000180025095e-35 5.6083774968830111 234.50000000000003 7.2012579628656725 10.300283676367597 6.5848561531852319 15.064362144172808
decision_type=2 2 2 2 2 2 2 2 2
left_child=1 3 6 -1 -5 7 -2 -6 -4
right_child=2 -3 8 4 5 -7 -8 -9 -10
leaf_value=-1.3499013810439492e-05 -3.0967232809135119e-05 -0.00035334792666882723 -0.00068734568985427582 -3.07195565481731e-06 2.3316802577008787e-05 0.00092785427033120998 5.6694179006056813e-05 -2.6393492952302119e-05 -1.2584692669087739e-07
leaf_weight=5.5758939981460562 10.173164740204813 81.228804513812065 146.89230747520924 5.5601130276918402 6.0550675541162473 202.99656058847904 20.317034676671028 6.5427335500717163 5.8246697783470145
leaf_count=23 42 335 605 23 25 839 84 27 24
internal_value=0 0.000552708 -0.00065858 0.00090518 0.00091915 0.000923056 2.5593e-05 -2.93278e-06 -0.000686979
internal_weight=0 307.959 183.207 226.73 221.154 215.594 30.4902 12.5978 152.717
internal_count=2027 1272 755 937 914 891 126 52 629
is_linear=0
shrinkage=0.0339163


Tree=37
num_leaves=8
num_cat=0
split_feature=13 5 11 3 5 5 3
split_gain=6.10269 6.16146 0.692795 0.117419 0.0652582 0.020468 0.00118213
threshold=0.21735094764122068 3.5000000000000004 1.0000000180025095e-35 7.6095208696769987 2.5000000000000004 3.5000000000000004 6.5848561531852319
decision_type=2 2 2 2 2 2 2
left_child=1 2 -1 6 -5 -6 -2
right_child=3 -3 -4 4 5 -7 -8
leaf_value=4.5215826986316056e-05 5.4369600411815141e-06 0.00045534547829541972 -0.0012814404794937275 0.00072434061112408782 -4.7257524529031902e-05 4.0061455359292761e-05 -1.97361460488697e-05
leaf_weight=46.041961282491684 6.5222086608409908 61.446276515722275 203.78402760624886 144.36517602205276 12.576015606522562 6.7517087161540976 9.6671302914619428
leaf_count=190 27 254 838 598 52 28 40
internal_value=0 -0.000778767 -0.00122837 0.000699347 0.000715081 -7.08316e-06 -1.41443e-05
internal_weight=0 311.272 249.826 179.882 163.693 19.3277 16.1893
internal_count=2027 1282 1028 745 678 80 67
is_linear=0
shrinkage=0.0339163


Tree=38
num_leaves=8
num_cat=0
split_feature=13 11 7 1 3 4 4
split_gain=6.08846 2.1342 0.641657 0.141833 0.119632 0.0506677 0.0439854
threshold=0.21735094764122068 1.0000000180025095e-35 241.50000000000003 1.0000000180025095e-35 7.2012579628656725 2.5000000000000004 6.5000000000000009
decision_type=2 2 2 2 2 2 2
left_child=1 6 -2 -3 -4 -5 -1
right_child=2 3 4 5 -6 -7 -8
leaf_value=0.00021547023464404743 -7.5482110226190012e-05 -0.00099114779734734131 -1.3329320677279809e-05 7.4414727045024061e-05 0.00078886265622569551 -6.2955331524227649e-05 -1.8664483740782179e-05
leaf_weight=57.612840548157692 17.176726892590523 222.87671208381653 9.182537227869032 8.0052848011255282 153.50368310511112 16.028775408864021 6.7862947136163703
leaf_count=238 71 917 38 33 636 66 28
internal_value=0 -0.00077756 0.000698796 -0.000976499 0.000774578 1.12063e-05 0.000196602
internal_weight=0 311.31 179.863 246.911 162.686 24.0341 64.3991
internal_count=2027 1282 745 1016 674 99 266
is_linear=0
shrinkage=0.0339163


Tree=39
num_leaves=8
num_cat=0
split_feature=9 5 3 3 3 12 1
split_gain=4.08018 1.04589 0.87474 0.190909 0.151456 0.0553294 0.0265012
threshold=1.0000000180025095e-35 3.5000000000000004 7.9045705233496166 15.322537912566718 15.135783372321439 2.4949678998379947 1.0000000180025095e-35
decision_type=2 2 2 2 2 2 2
left_child=2 4 -1 5 6 -4 -2
right_child=1 -3 3 -5 -6 -7 -8
leaf_value=-0.00011794704920430782 -0.00080089296586555332 0.00012282731758949617 0.00070249362528822929 -2.4890809026264754e-05 1.7048521453488066e-05 -6.8005722150460789e-06 2.0032384540591793e-06
leaf_weight=45.330149412155151 143.76788344979286 18.625198155641556 249.03268945217133 7.2768404781818381 6.5444634705781928 6.3012006133794776 14.306801944971083
leaf_count=187 592 77 1029 30 27 26 59
internal_value=0 -0.000657338 0.000552312 0.000670305 -0.000779411 0.000695133 -0.000796995
internal_weight=0 183.244 307.941 262.611 164.619 255.334 158.075
internal_count=2027 755 1272 1085 678 1055 651
is_linear=0
shrinkage=0.0339163


Tree=40
num_leaves=10
num_cat=0
split_feature=13 14 7 12 12 3 12 14 12
split_gain=6.0739 1.56957 0.64095 0.215381 0.180517 0.0301561 0.0223382 0.0095166 0.00210084
threshold=0.21735094764122068 1.1610956181482706 241.50000000000003 0.4129594199974867 0.29904258578431381 7.1946274511781718 0.38484805637849001 2.6099463938466525 0.25947028316244919
decision_type=2 2 2 2 2 2 2 2 2
left_child=1 4 -2 -4 8 -5 -3 -8 -1
right_child=2 6 3 5 -6 -7 7 -9 -10
leaf_value=-7.868714252791948e-06 -7.5478776171639532e-05 -1.2458085074733181e-05 -2.4493446080482378e-05 -2.8262083402478871e-06 -0.00095031053901752744 0.00080239998371893799 0.00016766423301512761 -5.0102206852269314e-06 2.4406957099265947e-05
leaf_weight=5.581378608942031 17.176800265908241 12.127842292189596 5.5735357701778403 7.9687799066305152 218.22063833475113 149.11517927050591 58.673091143369675 8.2447603493928892 8.4919319599866849
leaf_count=23 71 50 23 33 898 618 242 34 35
internal_value=0 -0.000776594 0.000697992 0.000773768 -0.000932266 0.000798496 0.000149559 0.000162339 1.63844e-05
internal_weight=0 311.34 179.834 162.657 232.294 157.084 79.0457 66.9179 14.0733
internal_count=2027 1282 745 674 956 651 326 276 58
is_linear=0
shrinkage=0.0339163


Tree=41
num_leaves=9
num_cat=0
split_feature=13 11 14 14 8 14 14 14
split_gain=6.06041 2.13004 0.200441 0.107767 0.105992 0.0274883 0.00763658 0.000261306
threshold=0.21735094764122068 1.0000000180025095e-35 2.1954503524734048 0.46906077468923818 1.0000000180025095e-35 0.29461021976113333 0.8301863223511462 2.6600435454361739
decision_type=2 2 2 2 2 2 2 2
left_child=1 3 -3 -1 5 -2 -6 -4
right_child=4 2 7 -5 6 -7 -8 -9
leaf_value=-4.1559366769692789e-05 -3.095617530712239e-06 -0.00099343553933681369 1.8902831342536146e-05 0.00023835824571046606 -3.3473506112513982e-05 0.00071595638714462074 2.1049097672408201e-05 -1.1378697922922188e-06
leaf_weight=10.183793619275091 5.5588249117135993 235.091204687953 5.5738030672073346 54.216030240058899 13.522620007395746 150.11653606593609 10.614239066839216 6.3077059537172318
leaf_count=42 23 967 23 224 56 622 44 26
internal_value=0 -0.000775562 -0.000974506 0.00019663 0.000697366 0.000712169 -1.22706e-05 1.7604e-05
internal_weight=0 311.373 246.973 64.3998 179.812 155.675 24.1369 11.8815
internal_count=2027 1282 1016 266 745 645 100 49
is_linear=0
shrinkage=0.0339163


Tree=42
num_leaves=6
num_cat=0
split_feature=6 11 3 13 6
split_gain=12.8349 2.21133 0.124909 0.0708823 0.0195717
threshold=657.20148324526735 1.0000000180025095e-35 8.2062116342622851 0.19338246462980643 601.45000000000016
decision_type=2 2 2 2 2
left_child=1 2 -1 -2 -4
right_child=3 -3 4 -5 -6
leaf_value=-5.4884389592299988e-05 -5.6555451504050588e-06 -0.0012648064468353437 0.00021809422193497772 0.0010448129258297709 -7.9876431401203479e-06
leaf_weight=9.9363664388656598 5.8226832300424567 262.27395056188107 45.501267075538635 156.771141320467 10.895821362733839
leaf_count=41 24 1079 188 650 45
internal_value=0 -0.00110326 0.000154779 0.0010382 0.000209643
internal_weight=0 328.607 66.3335 162.594 56.3971
internal_count=2027 1353 274 674 233
is_linear=0
shrinkage=0.0339163


Tree=43
num_leaves=6
num_cat=0
split_feature=9 8 10 5 1
split_gain=4.0694 4.89564 5.30646 1.04471 0.0843836
threshold=1.0000000180025095e-35 1.0000000180025095e-35 1.0000000180025095e-35 3.5000000000000004 1.0000000180025095e-35
decision_type=2 2 2 2 2
left_child=1 2 -1 4 -2
right_child=3 -3 -4 -5 -6
leaf_value=0.0013561373677525356 -0.00078848758903645138 -0.00044632729282923623 -0.00035260478370975124 0.0001229331065499519 8.823303248594467e-06
leaf_weight=150.28982755541801 149.62814825773239 76.391536682844162 81.250085547566414 18.628475427627563 15.035800710320471
leaf_count=622 616 315 335 77 62
internal_value=0 0.000552248 0.00099451 -0.000655699 -0.000777871
internal_weight=0 307.931 231.54 183.292 164.664
internal_count=2027 1272 957 755 678
is_linear=0
shrinkage=0.0339163


Tree=44
num_leaves=7
num_cat=0
split_feature=13 2 11 7 1 7
split_gain=6.02934 2.20709 2.12119 0.433484 0.144013 0.00090195
threshold=0.21735094764122068 16.500000000000004 1.0000000180025095e-35 235.50000000000003 1.0000000180025095e-35 338.50000000000006
decision_type=2 2 2 2 2 2
left_child=2 3 5 -2 -4 -1
right_child=1 -3 4 -5 -6 -7
leaf_value=0.00019691955710644414 -4.0991256049528722e-05 -0.00022114354701434154 -0.00098658077651306839 0.00095687831347991313 1.1480494242429798e-05 -1.7050161290689792e-07
leaf_weight=57.367408037185669 10.886839658021925 22.021589353680611 223.01745799183846 146.85673144459724 24.042490616440773 7.0242433696985236
leaf_count=237 45 91 917 609 99 29
internal_value=0 0.000696081 -0.000773003 0.000915056 -0.000971683 0.000196388
internal_weight=0 179.765 311.452 157.744 247.06 64.3917
internal_count=2027 745 1282 654 1016 266
is_linear=0
shrinkage=0.0339163


Tree=45
num_leaves=8
num_cat=0
split_feature=11 5 4 3 1 3 3
split_gain=3.40146 3.23434 0.503765 0.153018 0.0747951 0.00591629 0.000575292
threshold=1.0000000180025095e-35 3.5000000000000004 2.5000000000000004 8.0022036151649072 1.0000000180025095e-35 12.25126000532642 13.770935450388341
decision_type=2 2 2 2 2 2 2
left_child=3 2 4 -1 5 -2 -7
right_child=1 -3 -4 -5 -6 6 -8
leaf_value=-2.5352084439008954e-05 -7.1450136979806094e-05 0.00032536351719384527 -0.00095537931692530828 0.00054445122327953814 0.00010762075458798409 1.1968756279935278e-05 -4.3576680635624355e-06
leaf_weight=12.578715518116949 52.628710746765137 48.899577260017395 252.1756771504879 99.012914597988129 11.623399689793585 7.7572392970323545 6.5491556525230408
leaf_count=52 217 202 1039 410 48 32 27
internal_value=0 -0.000586844 -0.000902704 0.000518272 4.2704e-05 -6.37471e-05 7.46122e-06
internal_weight=0 379.634 330.734 111.592 78.5585 66.9351 14.3064
internal_count=2027 1565 1363 462 324 276 59
is_linear=0
shrinkage=0.0339163


Tree=46
num_leaves=8
num_cat=0
split_feature=9 10 14 14 7 14 7
split_gain=4.06004 3.51539 0.338315 0.229973 0.0372 0.00592046 0.000872814
threshold=1.0000000180025095e-35 1.0000000180025095e-35 0.30926728996111846 1.271378929279577 234.50000000000003 1.9491809501720712 304.50000000000006
decision_type=2 2 2 2 2 2 2
left_child=1 2 6 -2 -4 -5 -1
right_child=3 -3 4 5 -6 -7 -8
leaf_value=2.1794537180334998e-06 -0.00068665792970718951 -0.00035214923917609636 -3.101927949224146e-06 4.1967789497458857e-05 0.00094061014112569201 -1.2931365110575158e-05 -3.4738464973886507e-05
leaf_weight=5.5619096010923368 146.7332900762558 81.263831615447998 5.5590296685695639 25.687211394309998 208.74199986457825 10.911796078085898 6.7949680984020233
leaf_count=23 604 335 23 106 863 45 28
internal_value=0 0.000552108 0.00090341 -0.000654375 0.000936656 2.88741e-05 -3.23876e-05
internal_weight=0 307.922 226.658 183.332 214.301 36.599 12.3569
internal_count=2027 1272 937 755 886 151 51
is_linear=0
shrinkage=0.0339163


Tree=47
num_leaves=6
num_cat=0
split_feature=6 5 1 6 11
split_gain=12.7774 7.48192 1.01489 0.0356461 0.00075274
threshold=657.20148324526735 3.5000000000000004 1.0000000180025095e-35 587.80293952196746 1.0000000180025095e-35
decision_type=2 2 2 2 2
left_child=1 2 -1 -3 -4
right_child=-2 3 4 -5 -6
leaf_value=-0.0015980559441108914 0.0010365768632809649 0.00044808750100755197 5.5907942554996047e-05 -7.0049731172313336e-06 -9.959334535715308e-07
leaf_weight=234.26271425187588 162.53448681533337 55.884806424379349 7.2509713023900977 6.2947919219732276 25.012597888708115
leaf_count=963 674 231 30 26 103
internal_value=0 -0.00110003 -0.00153738 0.000440553 5.45467e-05
internal_weight=0 328.706 266.526 62.1796 32.2636
internal_count=2027 1353 1096 257 133
is_linear=0
shrinkage=0.0339163


Tree=48
num_leaves=8
num_cat=0
split_feature=6 14 13 6 1 6 6
split_gain=12.7454 1.22545 0.0705816 0.0589002 0.0626057 0.0296946 0.00552153
threshold=657.20148324526735 1.271378929279577 0.19338246462980643 552.18527969625904 1.0000000180025095e-35 479.23811417034239 644.1500000000002
decision_type=2 2 2 2 2 2 2
left_child=1 -1 -2 5 6 -3 -5
right_child=2 3 -4 4 -6 -7 -8
leaf_value=-0.0011955749508430883 -5.6452352007906252e-06 -1.8299927709723443e-05 0.0010422835700833481 -0.00010451655823634691 5.8092145670111097e-05 0.00014867131708613769 4.7108290790431428e-06
leaf_weight=259.91101436316967 5.8229433298110953 6.7976771444082251 156.67983826994896 19.179220288991935 6.2900124937295905 30.770816698670387 5.8138192743062964
leaf_count=1069 24 28 650 79 26 127 24
internal_value=0 -0.00109821 0.00103568 8.81373e-05 -4.14782e-05 0.000130158 -9.95802e-05
internal_weight=0 328.763 162.503 68.8515 31.2831 37.5685 24.993
internal_count=2027 1353 674 284 129 155 103
is_linear=0
shrinkage=0.0339163


Tree=49
num_leaves=6
num_cat=0
split_feature=13 11 0 0 0
split_gain=5.98383 2.11347 0.120168 0.0280221 0.00066039
threshold=0.21735094764122068 1.0000000180025095e-35 51.500000000000007 173.50000000000003 38.500000000000007
decision_type=2 2 2 2 2
left_child=1 -1 4 -4 -2
right_child=2 -3 3 -5 -6
leaf_value=0.00019651682197178248 3.2466518164483158e-06 -0.00096760989769980829 0.00071443146056959349 -3.1732897285928517e-06 -1.8146747607246277e-05
leaf_weight=64.395214423537254 6.2816859781742078 247.18293757736683 160.38256421685219 5.5561175346374503 7.4867234230041504
leaf_count=266 26 1016 665 23 31
internal_value=0 -0.00076885 0.000694545 0.000710576 -1.4743e-05
internal_weight=0 311.578 179.707 165.939 13.7684
internal_count=2027 1282 745 688 57
is_linear=0
shrinkage=0.0339163


Tree=50
num_leaves=11
num_cat=0
split_feature=13 11 7 12 1 3 12 12 12 7
split_gain=5.96944 2.10994 0.636939 0.214135 0.145952 0.0312274 0.00267825 0.00243142 0.00221389 0.000870368
threshold=0.21735094764122068 1.0000000180025095e-35 241.50000000000003 0.4129594199974867 1.0000000180025095e-35 7.1946274511781718 0.36858653853651296 0.4839750240865634 0.73683312373845966 338.50000000000006
decision_type=2 2 2 2 2 2 2 2 2 2
left_child=1 9 -2 -4 -3 -5 -6 -8 -9 -1
right_child=2 4 3 5 6 -7 7 8 -10 -11
leaf_value=0.00019696475171540896 -7.5412739308427495e-05 -0.00098147937398683949 -2.448025193097874e-05 -2.9709633114665267e-06 -1.0836901102779875e-05 0.00079839405151657574 3.0225794651836381e-05 -1.8494462001763316e-05 1.1024286711233648e-05 -1.5550014055759664e-07
leaf_weight=57.368315726518631 17.178402215242386 223.17156483232975 5.573776736855506 7.9636606723070136 5.8313066810369518 148.9697657674551 5.5864896476268795 5.590703070163725 7.0419479459524155 7.0246487706899634
leaf_count=237 71 917 23 33 24 618 23 23 29 29
internal_value=0 -0.000767666 0.000693939 0.000769642 -0.000966347 0.000794354 1.17431e-05 2.2712e-05 -7.3164e-06 0.000196448
internal_weight=0 311.615 179.686 162.507 247.222 156.933 24.0504 18.2191 12.6327 64.393
internal_count=2027 1282 745 674 1016 651 99 75 52 266
is_linear=0
shrinkage=0.0339163


Tree=51
num_leaves=7
num_cat=0
split_feature=13 14 0 0 14 14
split_gain=5.95568 1.56561 0.120351 0.0280226 0.0219449 0.00508567
threshold=0.21735094764122068 1.1610956181482706 51.500000000000007 173.50000000000003 2.6099463938466525 0.65942796075415711
decision_type=2 2 2 2 2 2
left_child=1 -1 5 -4 -3 -2
right_child=2 4 3 -5 -6 -7
leaf_value=-0.00092326691205102493 -3.0383524527583284e-05 0.00016317603095996054 0.00071325711893611391 -3.1798841894957806e-06 -1.2206272298287166e-05 1.5420203479439205e-05
leaf_weight=232.56796653568745 5.5592217594385138 69.861261829733849 160.34082332253456 5.5558814555406562 9.2192871421575529 8.2074479311704618
leaf_count=956 23 288 665 23 38 34
internal_value=0 -0.000766581 0.000693318 0.000709396 0.000150725 -1.47943e-05
internal_weight=0 311.649 179.663 165.897 79.0805 13.7667
internal_count=2027 1282 745 688 326 57
is_linear=0
shrinkage=0.0339163


Tree=52
num_leaves=7
num_cat=0
split_feature=13 11 12 10 12 12
split_gain=5.94226 2.1067 0.324778 0.103131 0.0446988 0.000499743
threshold=0.21735094764122068 1.0000000180025095e-35 0.47366563860667638 1.0000000180025095e-35 0.29904258578431381 0.25947028316244919
decision_type=2 2 2 2 2 2
left_child=1 -1 -2 -4 5 -3
right_child=2 4 3 -5 -6 -7
leaf_value=0.0001965744542336919 -3.9942056479507619e-05 -5.372655235207428e-06 0.00074732440004092449 -1.1371992899856053e-05 -0.0009694950810041343 8.5289995512195143e-06
leaf_weight=64.397022113204002 15.720575392246245 5.8311147987842551 142.67166538536549 21.24959871172905 232.94630835950375 8.5072400569915754
leaf_count=266 65 24 592 88 957 35
internal_value=0 -0.000765519 0.000692713 0.000733575 -0.000964299 3.013e-06
internal_weight=0 311.682 179.642 163.921 247.285 14.3384
internal_count=2027 1282 745 680 1016 59
is_linear=0
shrinkage=0.0339163


Tree=53
num_leaves=8
num_cat=0
split_feature=9 5 14 0 12 12 11
split_gain=4.0484 1.04091 0.728834 0.181753 0.0555294 0.0164379 0.0133166
threshold=1.0000000180025095e-35 3.5000000000000004 0.31930445963984477 33.500000000000007 0.35546666865528337 0.29904258578431381 1.0000000180025095e-35
decision_type=2 2 2 2 2 2 2
left_child=2 6 -1 -4 5 -5 -2
right_child=1 -3 3 4 -6 -7 -8
leaf_value=-0.00010195363816502558 0 0.00012310699872821905 -2.4202487227751424e-05 3.6105682513903766e-05 0.00068550851159798309 -4.208212235426794e-05 -0.00077719049726182729
leaf_weight=20.628274857997894 27.100342333316803 18.633646413683891 9.6992104947566968 10.918744444847109 250.17088462412357 16.512357905507088 137.67429952323437
leaf_count=85 112 77 40 45 1034 68 566
internal_value=0 -0.000651655 0.000552866 0.000652526 0.000676841 -5.85597e-06 -0.000773984
internal_weight=0 183.408 307.929 287.301 277.602 27.4311 164.775
internal_count=2027 755 1272 1187 1147 113 678
is_linear=0
shrinkage=0.0339163


Tree=54
num_leaves=7
num_cat=0
split_feature=9 12 11 7 7 12
split_gain=3.5425 0.391132 0.184015 0.177893 0.107756 0.0410386
threshold=1.0000000180025095e-35 0.38484805637849001 1.0000000180025095e-35 365.50000000000006 235.50000000000003 0.29904258578431381
decision_type=2 2 2 2 2 2
left_child=1 5 -2 4 -3 -1
right_child=2 3 -4 -5 -6 -7
leaf_value=3.9618713826087411e-05 2.7637055398703304e-05 -1.4304533619483167e-05 -0.00058350920905200906 -2.4800119871288849e-05 0.00066714448781168714 -9.5509177007357634e-05
leaf_weight=11.887060657143591 30.724674761295319 9.6666421443223935 149.51540422439575 6.0784760266542426 258.86251753568649 23.576755359768867
leaf_count=49 127 40 615 25 1070 97
internal_value=0 0.000570837 -0.000553573 0.000627757 0.000652279 -5.5716e-05
internal_weight=0 310.071 180.24 274.608 268.529 35.4638
internal_count=2023 1281 742 1135 1110 146
is_linear=0
shrinkage=0.0339163


Tree=55
num_leaves=12
num_cat=0
split_feature=9 10 3 11 4 3 3 4 3 3 3
split_gain=3.53408 3.40972 0.193596 0.183831 0.0690163 0.0394297 0.0317078 0.00384089 0.00173727 0.000947098 0.000641138
threshold=1.0000000180025095e-35 1.0000000180025095e-35 5.6083774968830111 1.0000000180025095e-35 1.5000000000000002 13.892252996394474 14.551252675535888 5.5000000000000009 8.8002716732118689 10.271603709887952 14.828893568563586
decision_type=2 2 2 2 2 2 2 2 2 2 2
left_child=1 2 -1 7 9 -6 -4 8 -2 -5 -7
right_child=3 -3 6 4 5 10 -8 -9 -10 -11 -12
leaf_value=-1.8779995473134413e-05 -3.7632342270516347e-06 -0.00033968162972874478 0.00093133941952045841 -5.4877702358238165e-06 -0.00060069343845092521 1.0860803189703357e-05 -2.2858117887905445e-06 -9.4374673469951059e-06 4.1145379445828382e-05 1.5707891842898381e-05 -5.3937583074628777e-06
leaf_weight=5.5811148285865775 6.0530596524477067 77.888552352786064 216.86865259706974 5.827484726905821 125.02017456293106 7.0359286665916425 9.702533155679701 6.0460084080696097 18.625454515218735 5.8160933256149292 5.8301370143890381
leaf_count=23 25 321 897 24 514 29 40 25 77 24 24
internal_value=0 0.000569951 0.000908527 -0.000553113 -0.000583042 -0.00059412 0.000927588 2.76324e-05 3.7211e-05 1.00678e-05 5.32023e-06
internal_weight=0 310.041 232.152 180.254 149.53 137.886 226.571 30.7245 24.6785 11.6436 12.8661
internal_count=2023 1281 960 742 615 567 937 127 102 48 53
is_linear=0
shrinkage=0.0339163


Tree=56
num_leaves=5
num_cat=0
split_feature=6 6 1 6
split_gain=12.8992 1.25159 0.409678 0.332381
threshold=672.8839069022514 513.19637830058593 1.0000000180025095e-35 480.7000000000001
decision_type=2 2 2 2
left_child=1 3 -3 -1
right_child=-2 2 -4 -5
leaf_value=-0.00013487222615227005 0.0011026090592336929 -0.0011831394276602927 2.924558449240407e-05 0.0002261391440690246
leaf_weight=50.107648178935051 147.92766591906548 204.19996835291386 28.374317467212677 59.665739327669144
leaf_count=206 614 840 117 246
internal_value=0 -0.00104267 -0.00114947 9.06064e-05
internal_weight=0 342.348 232.574 109.773
internal_count=2023 1409 957 452
is_linear=0
shrinkage=0.0339163


Tree=57
num_leaves=5
num_cat=0
split_feature=6 5 1 6
split_gain=12.8741 7.83333 0.373077 0.197365
threshold=672.8839069022514 3.5000000000000004 1.0000000180025095e-35 599.37226316220051
decision_type=2 2 2 2
left_child=1 2 -1 -3
right_child=-2 3 -4 -5
leaf_value=-0.0015334782755783071 0.0011017438326427964 0.00050605045931409801 1.7988053185205607e-05 -3.5775636799991863e-05
leaf_weight=238.71475914120674 147.89659123122692 62.197523191571236 35.912359640002251 5.5616436898708335
leaf_count=981 614 257 148 23
internal_value=0 -0.00104146 -0.00150752 0.000470039
internal_weight=0 342.386 274.627 67.7592
internal_count=2023 1409 1129 280
is_linear=0
shrinkage=0.0339163


Tree=58
num_leaves=11
num_cat=0
split_feature=13 7 3 3 12 7 13 3 12 7
split_gain=5.82341 0.496399 0.30684 0.219705 0.198743 0.151326 0.0883378 0.0334821 0.00804347 0.00114463
threshold=0.21939235072836133 252.50000000000003 13.304300512023715 7.1011218818174537 0.29563255772190916 254.50000000000003 0.28659468441224561 14.403546172162384 0.89606480511908704 309.50000000000006
decision_type=2 2 2 2 2 2 2 2 2 2
left_child=2 6 4 -3 -1 -6 -2 -4 9 -9
right_child=1 3 7 -5 5 -7 -8 8 -10 -11
leaf_value=2.3194263115206857e-05 -0.00012241916600982771 -2.3821991716271733e-05 7.636269498212076e-05 0.0008257785003729849 1.7248680103062976e-05 -0.00077960637294799146 6.6645365095383433e-05 -5.6115360017474099e-05 1.3622727861862444e-05 1.7171109880092954e-06
leaf_weight=13.60041807591915 13.814683049917223 10.395886614918707 24.541150003671646 136.06013141572475 9.4673682153224927 249.01120300590992 13.247220978140829 6.8098655641078967 5.5792783796787253 7.7783200591802597
leaf_count=56 57 43 101 565 39 1024 55 28 23 32
internal_value=0 0.000743194 -0.000698308 0.000800976 -0.000737738 -0.000761743 -5.55189e-05 3.57276e-05 -4.04053e-05 -5.41873e-05
internal_weight=0 173.518 316.788 146.456 272.079 258.479 27.0619 44.7086 20.1675 14.5882
internal_count=2023 720 1303 608 1119 1063 112 184 83 60
is_linear=0
shrinkage=0.0339163


Tree=59
num_leaves=6
num_cat=0
split_feature=13 5 7 11 13
split_gain=5.8105 6.18401 0.495981 0.396139 0.0883248
threshold=0.21939235072836133 3.5000000000000004 252.50000000000003 1.0000000180025095e-35 0.28659468441224561
decision_type=2 2 2 2 2
left_child=1 3 4 -1 -2
right_child=2 -3 -4 -5 -6
leaf_value=2.5883351838554194e-05 -0.00012240993736144459 0.00047966566063765249 0.00080037971434265517 -0.0012039802089976025 6.6640552053974988e-05
leaf_weight=46.287172853946686 13.814978167414667 64.62679049372673 146.43454127013683 205.90524807572365 13.247052192687987
leaf_count=191 57 267 608 845 55
internal_value=0 -0.000697305 0.000742605 -0.00117015 -5.55145e-05
internal_weight=0 316.819 173.497 252.192 27.062
internal_count=2023 1303 720 1036 112
is_linear=0
shrinkage=0.0339163


Tree=60
num_leaves=9
num_cat=0
split_feature=13 14 7 12 13 12 0 14
split_gain=5.79637 1.2431 0.495545 0.165564 0.0883117 0.0796067 0.036432 0.00835038
threshold=0.21939235072836133 1.0991397563852079 252.50000000000003 0.29563255772190916 0.28659468441224561 0.43804070410205365 44.500000000000007 2.6099463938466525
decision_type=2 2 2 2 2 2 2 2
left_child=1 3 4 -1 -2 -4 -3 -8
right_child=2 6 5 -5 -6 -7 7 -9
leaf_value=1.7069238157991519e-05 -0.0001224007082278355 -2.1866138199294084e-05 -8.6155110110163199e-06 -0.00085331899391619115 6.6635738847372662e-05 0.00080902864343835278 0.00015790732978361439 -4.6046638976731506e-06
leaf_weight=11.177185356616972 13.815273210406305 5.8272849023342124 5.5561975389719001 210.0552766174078 13.246883630752562 140.85593800246716 77.418532118201256 12.374505698680876
leaf_count=46 57 24 23 863 55 585 319 51
internal_value=0 -0.00069618 0.000741989 -0.000835185 -5.55101e-05 0.000799757 0.000131071 0.000152908
internal_weight=0 316.853 173.474 221.232 27.0622 146.412 95.6203 89.793
internal_count=2023 1303 720 909 112 608 394 370
is_linear=0
shrinkage=0.0339163


Tree=61
num_leaves=8
num_cat=0
split_feature=11 5 12 14 12 14 14
split_gain=2.64758 2.86164 1.8205 0.192402 0.123782 0.0574821 0.00313871
threshold=1.0000000180025095e-35 3.5000000000000004 0.69799991173346954 1.8673711834431905 1.7315388257575761 0.37816666666666671 2.5487860958177619
decision_type=2 2 2 2 2 2 2
left_child=-1 2 3 -2 5 -4 -5
right_child=1 -3 4 6 -6 -7 -8
leaf_value=0.00051125409754971759 -0.0009810255592025668 0.00033188711417902404 -2.1867950818651876e-05 2.7404416761245611e-05 -5.2372461325055189e-05 0.00023907508297560921 -1.050686540892359e-05
leaf_weight=112.21160580217838 178.60724082589149 51.340255737304688 14.058119416236876 8.2420656681060809 17.214689299464226 100.41614238917828 8.2421480417251569
leaf_count=465 734 212 58 34 71 415 34
internal_value=0 -0.000461104 -0.000782756 -0.000962095 0.000164727 0.000216882 1.67325e-05
internal_weight=0 378.121 326.78 195.091 131.689 114.474 16.4842
internal_count=2023 1558 1346 802 544 473 68
is_linear=0
shrinkage=0.0339163


Tree=62
num_leaves=5
num_cat=0
split_feature=6 5 6 11
split_gain=12.7954 7.80661 0.197451 0.186854
threshold=672.8839069022514 3.5000000000000004 599.37226316220051 1.0000000180025095e-35
decision_type=2 2 2 2
left_child=1 3 -3 -1
right_child=-2 2 -4 -5
leaf_value=5.2501381270008782e-06 0.0010997146150396795 0.00050594484626152205 -3.5799054953973745e-05 -0.0015196189623999672
leaf_weight=49.406142875552177 147.82131364941597 62.193928986787796 5.5607866644859305 225.3607531785965
leaf_count=204 614 257 23 925
internal_value=0 -0.00103695 0.000469911 -0.00150283
internal_weight=0 342.522 67.7547 274.767
internal_count=2023 1409 280 1129
is_linear=0
shrinkage=0.0339163


Tree=63
num_leaves=4
num_cat=0
split_feature=9 8 11
split_gain=3.51853 5.01522 0.182301
threshold=1.0000000180025095e-35 1.0000000180025095e-35 1.0000000180025095e-35
decision_type=2 2 2
left_child=1 -1 -2
right_child=2 -3 -4
leaf_value=0.0010149697022242188 2.7541333438443817e-05 -0.00044764911710705094 -0.00058014239780444614
leaf_weight=229.24158349633217 30.720242261886597 80.789786070585251 149.60882736742496
leaf_count=948 127 333 615
internal_value=0 0.000570349 -0.000550316
internal_weight=0 310.031 180.329
internal_count=2023 1281 742
is_linear=0
shrinkage=0.0339163


Tree=64
num_leaves=12
num_cat=0
split_feature=13 14 7 3 12 13 3 3 14 3 14
split_gain=5.76856 1.24071 0.494531 0.219743 0.165449 0.0881156 0.0277143 0.0122375 0.0377976 0.0230218 0.00380864
threshold=0.21939235072836133 1.0991397563852079 252.50000000000003 7.1011218818174537 0.29563255772190916 0.28659468441224561 8.557556881644528 12.39936746895521 2.6099463938466525 13.304300512023715 1.8361684032805543
decision_type=2 2 2 2 2 2 2 2 2 2 2
left_child=1 4 5 -4 -1 -2 -3 8 -8 -9 -11
right_child=2 6 3 -5 -6 -7 7 9 -10 10 -12
leaf_value=1.7102069852048513e-05 -0.00012229126094196095 -1.7102802684543368e-05 -2.3901911254632147e-05 0.00082332403946830477 -0.00085125582077181443 6.6547149384497541e-05 0.00017579085836316041 -4.9746630288098692e-05 -1.9706655463947571e-05 4.9865083219805373e-05 -6.9229588584345822e-06
leaf_weight=11.177937820553778 13.818617627024652 6.3202835172414771 10.392991989850996 135.96976163983345 210.11400376260281 13.243662327527998 50.684989809989929 9.2390585690736753 6.066937953233718 15.297545820474626 8.012883707880972
leaf_count=46 57 26 43 565 863 55 209 38 25 63 33
internal_value=0 -0.000694029 0.000740704 0.000798447 -0.000833094 -5.54894e-05 0.000131166 0.000148316 0.000155932 -6.72929e-06 4.27525e-05
internal_weight=0 316.914 173.425 146.363 221.292 27.0623 95.6217 89.3014 56.7519 32.5495 23.3104
internal_count=2023 1303 720 608 909 112 394 368 234 134 96
is_linear=0
shrinkage=0.0339163


Tree=65
num_leaves=7
num_cat=0
split_feature=13 5 7 11 13 4
split_gain=5.75668 6.15596 0.494114 0.393927 0.0881026 0.0116294
threshold=0.21939235072836133 3.5000000000000004 252.50000000000003 1.0000000180025095e-35 0.28659468441224561 2.5000000000000004
decision_type=2 2 2 2 2 2
left_child=1 3 4 5 -2 -1
right_child=2 -3 -4 -5 -6 -7
leaf_value=4.8286656866472861e-05 -0.00012228203981375381 0.00047934849006898322 0.00079785326239118002 -0.0011993873436466909 6.6542345278675294e-05 -2.2112562288503208e-05
leaf_weight=15.24858622252941 13.818911105394365 64.615985915064812 146.34117299318314 206.03914006054401 13.243493407964705 31.037138551473618
leaf_count=63 57 267 608 845 55 128
internal_value=0 -0.000693143 0.000740117 -0.00116563 -5.5485e-05 2.58463e-05
internal_weight=0 316.941 173.404 252.325 27.0624 46.2857
internal_count=2023 1303 720 1036 112 191
is_linear=0
shrinkage=0.0339163


Tree=66
num_leaves=9
num_cat=0
split_feature=9 3 14 3 14 11 3 3
split_gain=3.50796 0.633913 0.324976 0.251182 0.212914 0.0706269 0.00281947 0.000714302
threshold=1.0000000180025095e-35 7.2012579628656725 0.30165967810512212 14.551252675535888 1.0991397563852079 1.0000000180025095e-35 10.271603709887952 16.104084308467641
decision_type=2 2 2 2 2 2 2 2
left_child=1 -1 -3 -4 5 -2 -6 -5
right_child=4 2 3 7 6 -7 -8 -9
leaf_value=-8.7667525667636237e-05 9.7135139171578766e-06 -4.2416497921439853e-05 0.00072964623251392253 -3.2905891479850597e-05 -6.6477595029952052e-06 -0.00059623145081059493 3.8415679371330091e-05 1.8612978574289257e-06
leaf_weight=27.420760482549667 23.46744766831398 9.4679746031761152 258.30447237193584 8.7391725927591306 10.937241390347479 113.68750946223736 32.263246119022369 6.067355051636695
leaf_count=113 97 39 1068 36 45 467 133 25
internal_value=0 0.000569649 0.000656413 0.0006982 -0.00054934 -0.000584346 3.1593e-05 -3.08724e-05
internal_weight=0 310 282.579 273.111 180.355 137.155 43.2005 14.8065
internal_count=2023 1281 1168 1129 742 564 178 61
is_linear=0
shrinkage=0.0339163


Tree=67
num_leaves=6
num_cat=0
split_feature=9 8 10 5 4
split_gain=3.4998 5.00272 5.11433 0.748623 0.000996
threshold=1.0000000180025095e-35 1.0000000180025095e-35 1.0000000180025095e-35 3.5000000000000004 1.5000000000000002
decision_type=2 2 2 2 2
left_child=1 2 -1 4 -2
right_child=3 -3 -4 -5 -6
leaf_value=0.001360462834667958 -3.2874879075419494e-07 -0.00044738863886749515 -0.00033877764187593203 0.00010490738805707141 -0.00065399052367508292
leaf_weight=151.25907038152218 11.650063902139662 80.796286702156067 77.911040633916855 18.403867498040199 150.31217634677887
leaf_count=627 48 333 321 76 618
internal_value=0 0.000568687 0.00101304 -0.000548986 -0.000653254
internal_weight=0 309.966 229.17 180.366 161.962
internal_count=2023 1281 948 742 666
is_linear=0
shrinkage=0.0339163


Tree=68
num_leaves=10
num_cat=0
split_feature=11 4 3 3 3 3 3 3 3
split_gain=2.62669 0.590356 0.067211 0.0254458 0.0250232 0.0242253 0.00871389 0.00145653 0.000638615
threshold=1.0000000180025095e-35 2.5000000000000004 7.1011218818174537 13.000859144000897 14.551252675535888 8.2062116342622851 13.969309746899752 7.0956566708176387 16.104084308467641
decision_type=2 2 2 2 2 2 2 2 2
left_child=5 2 -2 -3 -5 7 -4 -1 -6
right_child=1 3 6 4 8 -7 -8 -9 -10
leaf_value=9.8243589829229889e-06 -4.4795059815099631e-05 -0.00056240879630440276 0.00014384196671760928 4.9166531948889244e-05 -4.8255700019681793e-05 0.00051440312791444735 -5.4084332217847632e-06 -1.3671959195680688e-05 1.0615747957045695e-06
leaf_weight=5.8022661507129651 6.8216353952884665 243.0312036126852 79.020962208509445 26.937743470072746 9.9714327454566973 99.578598871827126 5.8298355787992469 6.7701926231384277 6.5565753728151313
leaf_count=24 28 1001 326 111 41 413 24 28 27
internal_value=0 -0.000458941 9.37449e-05 -0.00055649 2.09474e-06 0.000509595 0.000138227 -3.7028e-06 -4.70023e-05
internal_weight=0 378.169 91.6724 286.497 43.4658 112.151 84.8508 12.5725 16.528
internal_count=2023 1558 378 1180 179 465 350 52 68
is_linear=0
shrinkage=0.0339163


end of trees

feature_importances:
total_intl_minutes=82
avg_intl_call_charge=53
avg_call_charge=40
avg_mt_charge=39
total_calls=36
state_other=36
number_customer_service_calls=33
total_minutes=32
international_plan=21
total_intl_calls=15
area_code_area_code_415=15
account_length=12
number_vmail_messages=7
area_code_area_code_510=7
area_code_area_code_408=6

parameters:
[boosting: gbdt]
[objective: binary]
[metric: auc]
[tree_learner: serial]
[device_type: cpu]
[data: ]
[valid: ]
[num_iterations: 5000]
[learning_rate: 0.0339163]
[num_leaves: 65]
[num_threads: 0]
[deterministic: 0]
[force_col_wise: 1]
[force_row_wise: 0]
[histogram_pool_size: -1]
[max_depth: 48]
[min_data_in_leaf: 23]
[min_sum_hessian_in_leaf: 0.001]
[bagging_fraction: 0.459107]
[pos_bagging_fraction: 1]
[neg_bagging_fraction: 1]
[bagging_freq: 27]
[bagging_seed: 59]
[feature_fraction: 0.400153]
[feature_fraction_bynode: 1]
[feature_fraction_seed: 59]
[extra_trees: 0]
[extra_seed: 14098]
[early_stopping_round: 50]
[first_metric_only: 0]
[max_delta_step: 0]
[lambda_l1: 0.0261693]
[lambda_l2: 6205.52]
[linear_lambda: 0]
[min_gain_to_split: 0]
[drop_rate: 0.1]
[max_drop: 50]
[skip_drop: 0.5]
[xgboost_dart_mode: 0]
[uniform_drop: 0]
[drop_seed: 26648]
[top_rate: 0.2]
[other_rate: 0.1]
[min_data_per_group: 100]
[max_cat_threshold: 32]
[cat_l2: 10]
[cat_smooth: 10]
[max_cat_to_onehot: 4]
[top_k: 20]
[monotone_constraints: ]
[monotone_constraints_method: basic]
[monotone_penalty: 0]
[feature_contri: ]
[forcedsplits_filename: ]
[refit_decay_rate: 0.9]
[cegb_tradeoff: 1]
[cegb_penalty_split: 0]
[cegb_penalty_feature_lazy: ]
[cegb_penalty_feature_coupled: ]
[path_smooth: 0]
[interaction_constraints: ]
[verbosity: 0]
[saved_feature_importance_type: 0]
[linear_tree: 0]
[max_bin: 255]
[max_bin_by_feature: ]
[min_data_in_bin: 3]
[bin_construct_sample_cnt: 200000]
[data_random_seed: 231]
[is_enable_sparse: 1]
[enable_bundle: 1]
[use_missing: 1]
[zero_as_missing: 0]
[feature_pre_filter: 0]
[pre_partition: 0]
[two_round: 0]
[header: 0]
[label_column: ]
[weight_column: ]
[group_column: ]
[ignore_column: ]
[categorical_feature: ]
[forcedbins_filename: ]
[precise_float_parser: 0]
[objective_seed: 27591]
[num_class: 1]
[is_unbalance: 0]
[scale_pos_weight: 1]
[sigmoid: 1]
[boost_from_average: 1]
[reg_sqrt: 0]
[alpha: 0.9]
[fair_c: 1]
[poisson_max_delta_step: 0.7]
[tweedie_variance_power: 1.5]
[lambdarank_truncation_level: 30]
[lambdarank_norm: 1]
[label_gain: ]
[eval_at: ]
[multi_error_top_k: 1]
[auc_mu_weights: ]
[num_machines: 1]
[local_listen_port: 12400]
[time_out: 120]
[machine_list_filename: ]
[machines: ]
[gpu_platform_id: -1]
[gpu_device_id: -1]
[gpu_use_dp: 0]
[num_gpu: 1]

end of parameters

pandas_categorical:[]
