tree
version=v3
num_class=1
num_tree_per_iteration=1
label_index=0
max_feature_idx=15
objective=binary sigmoid:1
feature_names=account_length international_plan number_vmail_messages total_intl_minutes total_intl_calls number_customer_service_calls total_minutes total_calls area_code_area_code_408 area_code_area_code_415 area_code_area_code_510 state_other avg_mt_charge avg_call_charge avg_intl_call_charge both_plans
feature_infos=[1:232] [0:1] [0:50] [0:20] [0:20] [0:9] [305.60000000000002:876.89999999999998] [188:410] [0:1] [0:1] [0:1] [0:1] [0.17467955068801708:68.060000000000002] [0.063580901856763919:0.40254807692307693] [0:4.54] [0:1]
tree_sizes=651 682 895 900 679 790 687 1329 465 576 1222 903 902 462 896 897 903 682 570 678 789 683 1011 576 1342 901 1226 354 570 1007 1230 675 1448 1218 1456 680 1017 685 1114 1119 1446 907 896 798 1003 900 910 570 682 800 1116 1000 1023 1122 576 795 897 786 1226 684 1116 690 676 472 1440 789 1341 799 1010

Tree=0
num_leaves=5
num_cat=0
split_feature=13 5 2 7
split_gain=8.87152 6.85994 2.49715 0.0441652
threshold=0.21812862089006715 3.5000000000000004 15.500000000000002 227.50000000000003
decision_type=2 2 2 2
left_child=1 -1 3 -2
right_child=2 -3 -4 -5
leaf_value=0.36757056021340345 0.36892219166589957 0.36938501966627429 0.36871484331213261 0.37001652794464673
leaf_weight=250.14158762991428 5.5587019473314276 58.487211793661118 20.301346242427826 160.71899108588696
leaf_count=1035 23 242 84 665
internal_value=0.368925 0.368025 0.369804 0.370012
internal_weight=0 308.629 186.579 166.278
internal_count=2049 1277 772 688
is_linear=0
shrinkage=1


Tree=1
num_leaves=5
num_cat=0
split_feature=13 5 1 12
split_gain=8.8464 6.84865 0.500157 0.383593
threshold=0.21812862089006715 3.5000000000000004 1.0000000180025095e-35 0.4746289579295247
decision_type=2 2 2 2
left_child=1 2 -1 -2
right_child=3 -3 -4 -5
leaf_value=-0.0013880176855379448 -3.7680751436546632e-05 0.00045956251437391423 3.0307591513375176e-05 0.00091626202804000678
leaf_weight=223.85338175296783 13.049001604318617 58.48230391740799 26.349912106990814 173.49878263473511
leaf_count=926 54 242 109 718
internal_value=0 -0.000898764 -0.00135296 0.000877595
internal_weight=0 308.686 250.203 186.548
internal_count=2049 1277 1035 772
is_linear=0
shrinkage=0.0339163


Tree=2
num_leaves=7
num_cat=0
split_feature=13 2 11 3 3 14
split_gain=8.82346 2.49399 1.65671 0.16642 0.0228601 0.017599
threshold=0.21812862089006715 15.500000000000002 1.0000000180025095e-35 13.100293684588673 14.059760174916894 0.41056669031082793
decision_type=2 2 2 2 2 2
left_child=2 -2 5 -4 -5 -1
right_child=1 -3 3 4 -6 -7
leaf_value=-1.0504367066067161e-05 0.0010854006208145626 -0.00021053166138964031 -0.0010606861626998409 5.193593752245001e-05 -4.0636505731019903e-05 0.00015215058611934415
leaf_weight=6.5276576727628699 166.21953940391541 20.299235165119171 208.16454608738422 19.824772864580154 18.616613388061523 55.603332296013832
leaf_count=27 688 84 861 82 77 230
internal_value=0 0.000876758 -0.000897283 -0.00104346 1.11315e-05 0.000141439
internal_weight=0 186.519 308.737 246.606 38.4414 62.131
internal_count=2049 772 1277 1020 159 257
is_linear=0
shrinkage=0.0339163


Tree=3
num_leaves=7
num_cat=0
split_feature=13 14 0 14 14 0
split_gain=8.80321 0.902583 0.0719498 0.0636724 0.0552166 0.00131984
threshold=0.21812862089006715 1.03668984633372 165.50000000000003 1.6603858613598719 0.2884260679340484 177.50000000000003
decision_type=2 2 2 2 2 2
left_child=1 2 -1 -3 -2 -4
right_child=4 3 5 -5 -6 -7
leaf_value=-0.00099323179807432453 -5.1973105633046351e-06 0.00012400416053290372 1.4275167916410924e-05 -4.7113154854394174e-05 0.00088191756196944555 -8.5032966073389094e-06
leaf_weight=196.34619575738907 6.5225538760423651 72.049677759408951 6.2859030961990339 28.532289609313011 179.96388493478298 5.5612812340259552
leaf_count=812 27 298 26 118 745 23
internal_value=0 -0.000896173 -0.000985806 7.67275e-05 0.000875828 5.62494e-06
internal_weight=0 308.775 208.193 100.582 186.486 11.8472
internal_count=2049 1277 861 416 772 49
is_linear=0
shrinkage=0.0339163


Tree=4
num_leaves=5
num_cat=0
split_feature=13 5 1 12
split_gain=8.78518 6.83461 0.501016 0.383636
threshold=0.21812862089006715 3.5000000000000004 1.0000000180025095e-35 0.4746289579295247
decision_type=2 2 2 2
left_child=1 2 -1 -2
right_child=3 -3 -4 -5
leaf_value=-0.001384745555857776 -3.779408198633137e-05 0.00045978228000510905 3.0450236056129977e-05 0.0009137623039183417
leaf_weight=223.96484342217445 13.045193642377852 58.489718154072762 26.354665130376816 173.41206845641136
leaf_count=926 54 242 109 718
internal_value=0 -0.000895193 -0.00134956 0.00087499
internal_weight=0 308.809 250.32 186.457
internal_count=2049 1277 1035 772
is_linear=0
shrinkage=0.0339163


Tree=5
num_leaves=6
num_cat=0
split_feature=13 5 1 7 8
split_gain=8.76237 6.82412 0.500302 0.2653 0.130446
threshold=0.21812862089006715 3.5000000000000004 1.0000000180025095e-35 233.50000000000003 1.0000000180025095e-35
decision_type=2 2 2 2 2
left_child=1 2 -1 -2 -5
right_child=3 -3 -4 4 -6
leaf_value=-0.0013830973886500848 -2.6393046468597179e-05 0.00045963703263578415 3.0445864945187055e-05 0.00091570739342504437 -1.1585494704505017e-05
leaf_weight=224.02070043981075 10.144673883914946 58.484813451766968 26.354519426822662 156.23906865715981 20.044392853975296
leaf_count=926 42 242 109 647 83
internal_value=0 -0.000893716 -0.00134792 0.000874156 0.00090139
internal_weight=0 308.86 250.375 186.428 176.283
internal_count=2049 1277 1035 772 730
is_linear=0
shrinkage=0.0339163


Tree=6
num_leaves=5
num_cat=0
split_feature=13 11 7 8
split_gain=8.74043 1.65679 0.265058 0.130313
threshold=0.21812862089006715 1.0000000180025095e-35 233.50000000000003 1.0000000180025095e-35
decision_type=2 2 2 2
left_child=1 -1 -2 -4
right_child=2 -3 3 -5
leaf_value=0.00014209329876406404 -2.6391584642325273e-05 -0.0010389993460069363 0.00091494849356191623 -1.1584227890692799e-05
leaf_weight=62.152764901518822 10.144723221659659 246.7578082382679 156.21262843906879 20.044436022639275
leaf_count=257 42 1020 647 83
internal_value=0 -0.000892239 0.000873403 0.000900635
internal_weight=0 308.911 186.402 176.257
internal_count=2049 1277 772 730
is_linear=0
shrinkage=0.0339163


Tree=7
num_leaves=11
num_cat=0
split_feature=13 14 14 3 3 3 3 14 3 3
split_gain=8.72028 0.911699 0.0634837 0.0593099 0.0328766 0.0206566 0.0119954 0.00642104 0.00476797 0.0013911
threshold=0.21812862089006715 1.03668984633372 1.6603858613598719 7.2044457721735089 13.100293684588673 8.6035642965151631 14.059760174916894 0.39309523809523811 9.6985790529175375 13.100293684588673
decision_type=2 2 2 2 2 2 2 2 2 2
left_child=1 4 5 7 -1 -3 -6 -2 -4 -10
right_child=3 2 8 -5 6 -7 -8 -9 9 -11
leaf_value=-0.0009863162728742604 -2.7132824149060012e-05 -1.3605812381243904e-05 7.9164639309154094e-06 0.00087971158621581128 3.403717182133943e-05 0.00013856132614099056 -3.2603623374660633e-05 2.1880616390969316e-05 -5.7062387590781122e-05 2.0775856993061809e-06
leaf_weight=187.52738864719868 6.5192964971065503 6.7734905481338492 6.7724988460540798 172.13092245161533 11.368407413363459 65.302896112203598 9.4357752650976163 7.7251896858215332 12.097320124506952 9.677230551838873
leaf_count=775 27 28 28 713 47 270 39 32 50 40
internal_value=0 -0.000890944 7.79669e-05 0.000872651 -0.000981718 0.000124806 1.29895e-06 -5.09874e-06 -4.6667e-05 -5.47576e-05
internal_weight=0 308.955 100.623 186.375 208.332 72.0764 20.8042 14.2445 28.547 21.7746
internal_count=2049 1277 416 772 861 298 86 59 118 90
is_linear=0
shrinkage=0.0339163


Tree=8
num_leaves=3
num_cat=0
split_feature=6 11
split_gain=16.6207 1.14523
threshold=655.25000000000011 1.0000000180025095e-35
decision_type=2 2
left_child=1 -1
right_child=-2 -3
leaf_value=7.4633444516005292e-05 0.001213682218068357 -0.0013051147628389511
leaf_weight=61.900413379073143 174.34195093810558 259.09154589474201
leaf_count=256 722 1071
internal_value=0 -0.00122093
internal_weight=0 320.992
internal_count=2049 1327
is_linear=0
shrinkage=0.0339163


Tree=9
num_leaves=4
num_cat=0
split_feature=13 2 1
split_gain=8.68336 2.48607 0.640846
threshold=0.21812862089006715 15.500000000000002 1.0000000180025095e-35
decision_type=2 2 2
left_child=2 -2 -1
right_child=1 -3 -4
leaf_value=-0.00095065986774522807 0.0010801369507603957 -0.00021089548790083077 5.9910121495561178e-05
leaf_weight=278.31578886508942 166.03566889464855 20.286978304386139 30.716208204627037
leaf_count=1150 688 84 127
internal_value=0 0.000871153 -0.000888691
internal_weight=0 186.323 309.032
internal_count=2049 772 1277
is_linear=0
shrinkage=0.0339163


Tree=10
num_leaves=10
num_cat=0
split_feature=9 3 5 3 3 14 14 14 7
split_gain=3.32318 1.01313 0.837705 0.168323 0.135596 0.123849 0.0227141 0.0197676 0.00757909
threshold=1.0000000180025095e-35 7.8011253052479441 3.5000000000000004 14.614912165018419 14.700683113913396 2.5825135926167797 0.72015788645874446 2.2770907024694633 315.50000000000006
decision_type=2 2 2 2 2 2 2 2 2
left_child=1 6 4 5 7 -3 -1 -2 -5
right_child=2 3 -4 8 -6 -7 -8 -9 -10
leaf_value=-0.0001530159231171936 -0.00069973267181606686 0.00069875139023610326 0.00011315070517391926 -3.9705698369092292e-05 1.7549934722374992e-05 -1.5913067515821186e-05 1.3526443792831981e-05 2.1624526309803296e-06 1.7588389858047607e-05
leaf_weight=35.309211283922195 154.52928684651852 250.64071267843246 15.2305601388216 7.497053459286688 6.0456881374120703 6.5292639881372443 7.9779232144355765 5.5622055977582923 6.046991378068924
leaf_count=146 639 1037 63 31 25 27 33 23 25
internal_value=0 0.000521997 -0.000566997 0.000659962 -0.000678962 0.000682612 -0.000139229 -0.000696872 -2.19572e-05
internal_weight=0 314.001 181.368 270.714 166.137 257.17 43.2871 160.091 13.544
internal_count=2049 1299 750 1120 687 1064 179 662 56
is_linear=0
shrinkage=0.0339163


Tree=11
num_leaves=7
num_cat=0
split_feature=9 10 5 3 3 1
split_gain=3.31429 4.51457 0.83692 0.265386 0.135477 0.0277923
threshold=1.0000000180025095e-35 1.0000000180025095e-35 3.5000000000000004 5.8093993065791443 14.700683113913396 1.0000000180025095e-35
decision_type=2 2 2 2 2 2
left_child=1 3 4 -1 5 -2
right_child=2 -3 -4 -5 -6 -7
leaf_value=-2.4580434732841595e-05 -0.00070068415026735534 -0.00043104512193121395 0.00011314131561522712 0.00097367041057929977 1.7549356122938983e-05 2.7171099034722512e-06
leaf_weight=6.7715813517570487 145.61086167395115 81.501187309622765 15.230247199535368 225.69745780527592 6.0456689447164527 14.500149756669996
leaf_count=28 602 337 63 934 25 60
internal_value=0 0.000521117 -0.000566431 0.00094879 -0.000678385 -0.000696294
internal_weight=0 313.97 181.387 232.469 166.157 160.111
internal_count=2049 1299 750 962 687 662
is_linear=0
shrinkage=0.0339163


Tree=12
num_leaves=7
num_cat=0
split_feature=5 11 1 3 3 0
split_gain=2.68867 2.74824 0.660287 0.0884656 0.0300827 0.00301073
threshold=3.5000000000000004 1.0000000180025095e-35 1.0000000180025095e-35 10.10218883268521 8.3003538566044011 92.500000000000014
decision_type=2 2 2 2 2 2
left_child=1 4 -3 -4 5 -1
right_child=-2 2 3 -5 -6 -7
leaf_value=-2.1409268857924247e-05 0.0004865761027389576 -0.00086793410103388243 -6.2559951510250117e-05 0.00013050469153274706 0.00031875921841785005 1.2964362104364591e-05
leaf_weight=6.5280671119689924 65.015787914395332 303.71802879869938 13.295854791998861 22.471187829971313 78.754202529788017 5.5582204610109329
leaf_count=27 269 1256 55 93 326 23
internal_value=0 -0.000493422 -0.00079845 6.77498e-05 0.000309814 -8.29663e-06
internal_weight=0 430.326 339.485 35.767 90.8405 12.0863
internal_count=2049 1780 1404 148 376 50
is_linear=0
shrinkage=0.0339163


Tree=13
num_leaves=3
num_cat=0
split_feature=6 5
split_gain=16.5511 7.95069
threshold=655.25000000000011 3.5000000000000004
decision_type=2 2
left_child=1 -1
right_child=-2 -3
leaf_value=-0.0016510277956440075 0.0012118070475654118 0.00043604089056148584
leaf_weight=262.85073502361774 174.27571046352386 58.251779466867447
leaf_count=1086 722 241
internal_value=0 -0.00121768
internal_weight=0 321.103
internal_count=2049 1327
is_linear=0
shrinkage=0.0339163


Tree=14
num_leaves=7
num_cat=0
split_feature=2 8 3 0 3 3
split_gain=3.84281 2.06448 1.26929 0.154825 0.024188 0.0100373
threshold=11.500000000000002 1.0000000180025095e-35 7.8011253052479441 22.500000000000004 13.301520686411203 14.186330439534549
decision_type=2 2 2 2 2 2
left_child=1 2 -1 -4 -2 -6
right_child=4 -3 3 -5 5 -7
leaf_value=-0.00012479806320440595 -0.00062022454326735846 -0.0002377198486531679 -1.4866286854119537e-05 0.00092790490606770222 3.1989159871880777e-05 -2.9037855459559293e-05
leaf_weight=48.371888861060143 78.414021834731102 53.199977308511734 6.0475692152976981 296.07539644837379 7.0142259448766691 6.2885324954986572
leaf_count=200 324 220 25 1225 29 26
internal_value=0 0.000555219 0.0007868 0.000912716 -0.000615999 2.80899e-06
internal_weight=0 403.695 350.495 302.123 91.7168 13.3028
internal_count=2049 1670 1450 1250 379 55
is_linear=0
shrinkage=0.0339163


Tree=15
num_leaves=7
num_cat=0
split_feature=2 9 5 14 14 14
split_gain=3.8323 2.06714 0.566929 0.495508 0.189443 0.032814
threshold=11.500000000000002 1.0000000180025095e-35 3.5000000000000004 0.3222916666666667 1.107305005964055 2.5825135926167797
decision_type=2 2 2 2 2 2
left_child=1 3 -2 -1 -3 -5
right_child=2 4 -4 5 -6 -7
leaf_value=-5.2936252389262257e-05 -0.0006913412233011465 -0.0002912330553942524 7.5205499927956477e-05 0.00085000880819753827 5.9164998770293817e-05 -3.0547987661285397e-06
leaf_weight=16.685571536421776 80.606972172856331 102.55688135325909 11.118481829762457 239.91610366106033 38.928789153695107 5.5607668161392203
leaf_count=69 333 424 46 993 161 23
internal_value=0 0.000553909 -0.000615737 0.00079295 -0.000231098 0.000846197
internal_weight=0 403.648 91.7255 262.162 141.486 245.477
internal_count=2049 1670 379 1085 585 1016
is_linear=0
shrinkage=0.0339163


Tree=16
num_leaves=7
num_cat=0
split_feature=9 8 3 3 14 14
split_gain=3.29579 5.00405 0.48483 0.232717 0.0115492 0.00639729
threshold=1.0000000180025095e-35 1.0000000180025095e-35 7.2044457721735089 13.301520686411203 0.50433267370690493 1.8598498663058143
decision_type=2 2 2 2 2 2
left_child=1 2 4 5 -1 -2
right_child=3 -3 -4 -5 -6 -7
leaf_value=-5.9968729864840094e-05 -0.00060237975129605618 -0.00046402711036361305 0.0010220965429496185 3.4545249899525107e-05 1.7708623202325158e-05 4.6639812842314307e-07
leaf_weight=13.549276024103166 149.2732293009758 74.977962866425514 218.13549187779427 24.424594312906265 7.2514035403728476 7.7391090989112845
leaf_count=56 617 310 903 101 30 32
internal_value=0 0.000519594 0.000977998 -0.000564919 -4.20863e-05 -0.000601052
internal_weight=0 313.914 238.936 181.437 20.8007 157.012
internal_count=2049 1299 989 750 86 649
is_linear=0
shrinkage=0.0339163


Tree=17
num_leaves=5
num_cat=0
split_feature=13 5 1 7
split_gain=8.63417 6.78057 0.501491 0.264172
threshold=0.21812862089006715 3.5000000000000004 1.0000000180025095e-35 233.50000000000003
decision_type=2 2 2 2
left_child=1 2 -1 -2
right_child=3 -3 -4 -5
leaf_value=-0.001375666833778835 -2.6453841908563914e-05 0.00045933034319520553 3.0721487558495001e-05 0.00089571578568395729
leaf_weight=224.26907077431679 10.142544761300085 58.474324256181717 26.363589033484459 176.0829304009676
leaf_count=926 42 242 109 730
internal_value=0 -0.000886432 -0.00134026 0.000868431
internal_weight=0 309.107 250.633 186.225
internal_count=2049 1277 1035 772
is_linear=0
shrinkage=0.0339163


Tree=18
num_leaves=4
num_cat=0
split_feature=6 5 3
split_gain=16.4815 7.92245 0.0395681
threshold=655.25000000000011 3.5000000000000004 16.120326260814476
decision_type=2 2 2
left_child=1 2 -1
right_child=-2 -3 -4
leaf_value=-0.0016509116040374647 0.0012089660157872184 0.00043529180651296896 1.2746578550694476e-06
leaf_weight=256.90216636657715 174.17456570267677 58.226390555500984 6.0491453856229773
leaf_count=1061 722 241 25
internal_value=0 -0.00121541 -0.00164801
internal_weight=0 321.178 262.951
internal_count=2049 1327 1086
is_linear=0
shrinkage=0.0339163


Tree=19
num_leaves=5
num_cat=0
split_feature=6 5 1 3
split_gain=16.4382 7.90908 0.512308 0.0922936
threshold=655.25000000000011 3.5000000000000004 1.0000000180025095e-35 10.10218883268521
decision_type=2 2 2 2
left_child=1 2 -1 -4
right_child=-2 -3 3 -5
leaf_value=-0.0016770645472482749 0.0012078541806473649 0.00043515489581108025 -8.1093992260076775e-05 0.00010518736210094006
leaf_weight=232.07082164287567 174.1350978910923 58.221742928028107 11.856259897351267 19.099293172359467
leaf_count=958 722 241 49 79
internal_value=0 -0.00121333 -0.00164576 2.39994e-05
internal_weight=0 321.248 263.026 30.9556
internal_count=2049 1327 1086 128
is_linear=0
shrinkage=0.0339163


Tree=20
num_leaves=6
num_cat=0
split_feature=13 5 1 3 3
split_gain=8.56998 6.74888 0.502058 0.0600718 0.000191541
threshold=0.21812862089006715 3.5000000000000004 1.0000000180025095e-35 7.2044457721735089 6.5007103256008092
decision_type=2 2 2 2 2
left_child=1 2 -1 4 -2
right_child=3 -3 -4 -5 -6
leaf_value=-0.0013708355158990812 2.228092003371522e-06 0.00045889428776071868 3.088835705620236e-05 0.00087351969021913598 -7.609582735151694e-06
leaf_weight=224.42832098901272 7.9651211500167829 58.459522679448128 26.369076997041702 171.91045327484608 6.274716854095459
leaf_count=926 33 242 109 713 26
internal_value=0 -0.000881938 -0.00133528 0.000866344 -5.23129e-06
internal_weight=0 309.257 250.797 186.15 14.2398
internal_count=2049 1277 1035 772 59
is_linear=0
shrinkage=0.0339163


Tree=21
num_leaves=5
num_cat=0
split_feature=13 5 1 7
split_gain=8.54798 6.73851 0.501343 0.263129
threshold=0.21812862089006715 3.5000000000000004 1.0000000180025095e-35 233.50000000000003
decision_type=2 2 2 2
left_child=1 2 -1 -2
right_child=3 -3 -4 -5
leaf_value=-0.0013692010890527925 -2.643665438250236e-05 0.00045874939983918167 3.0883927417013312e-05 0.00089281584526456292
leaf_weight=224.48198944330215 10.143047824501989 58.454593300819397 26.368930503726006 175.97890418767929
leaf_count=926 42 242 109 730
internal_value=0 -0.000880473 -0.00133366 0.000865551
internal_weight=0 309.306 250.851 186.122
internal_count=2049 1277 1035 772
is_linear=0
shrinkage=0.0339163


Tree=22
num_leaves=8
num_cat=0
split_feature=5 11 14 14 4 14 4
split_gain=2.65148 2.72692 0.134985 0.0165645 0.0116487 0.00424391 0.000747069
threshold=3.5000000000000004 1.0000000180025095e-35 1.1621415858563113 1.3851679969754256 1.5000000000000002 2.8122905646728475 2.5000000000000004
decision_type=2 2 2 2 2 2 2
left_child=1 -1 -3 6 5 -5 -4
right_child=-2 2 3 4 -6 -7 -8
leaf_value=0.0003095612279772261 0.00048485343522099552 -0.0008124684485633386 4.6260855986264096e-05 3.2075311642392102e-05 -5.4065651520666842e-05 -1.2150298181973811e-05 -1.3105623461344851e-06
leaf_weight=90.82804074883461 64.957065179944038 262.98928707838058 13.296392828226089 13.536180987954141 29.512888878583908 7.5054442137479773 12.820823475718498
leaf_count=376 269 1087 55 56 122 31 53
internal_value=0 -0.000488235 -0.000792938 1.0291e-05 -3.4065e-05 1.97702e-05 4.47155e-05
internal_weight=0 430.489 339.661 76.6717 50.5545 21.0416 26.1172
internal_count=2049 1780 1404 317 209 87 108
is_linear=0
shrinkage=0.0339163


Tree=23
num_leaves=4
num_cat=0
split_feature=2 9 5
split_gain=3.82596 2.04228 0.563479
threshold=11.500000000000002 1.0000000180025095e-35 3.5000000000000004
decision_type=2 2 2
left_child=1 -1 -2
right_child=2 -3 -4
leaf_value=0.00079173517519022009 -0.00068888698242589789 -0.00022859685850896226 7.5014713656291462e-05
leaf_weight=262.11104670166969 80.685546204447746 141.56487189233303 11.112071454524992
leaf_count=1085 333 585 46
internal_value=0 0.000555111 -0.000613477
internal_weight=0 403.676 91.7976
internal_count=2049 1670 379
is_linear=0
shrinkage=0.0339163


Tree=24
num_leaves=11
num_cat=0
split_feature=11 12 12 12 10 4 4 4 4 4
split_gain=2.53189 0.918572 0.208548 0.0591536 0.0253795 0.0184514 0.0067975 0.00568824 0.00396483 0.00184566
threshold=1.0000000180025095e-35 0.64018680909503767 0.29806371634230877 2.0799780908458838 1.0000000180025095e-35 3.5000000000000004 3.5000000000000004 9.5000000000000018 2.5000000000000004 1.5000000000000002
decision_type=2 2 2 2 2 2 2 2 2 2
left_child=4 2 6 7 -1 -5 -2 -3 9 -4
right_child=1 3 8 5 -6 -7 -8 -9 -10 -11
leaf_value=0.00047564564150916541 4.3321441267745326e-05 0.00016414783030592957 -1.4082991373246053e-05 2.7664916452151033e-05 -4.1662411936233771e-06 -6.153008727039084e-05 -1.441939625183938e-05 -2.9972657595345143e-06 -0.00065391587606291864 1.2077350473582813e-05
leaf_weight=93.20446203649044 8.2285522520542127 158.9871629178524 13.791460692882536 8.9361285865306836 16.675758361816406 6.297051563858985 7.2625497579574576 5.5624362081289283 142.15203233063221 34.353221565485001
leaf_count=386 34 658 57 37 69 26 30 23 587 142
internal_value=0 -0.000480596 -0.000621319 0.000127625 0.000470144 -3.36621e-05 2.87279e-05 0.000160943 -0.000650905 -1.81299e-06
internal_weight=0 385.571 205.788 179.783 109.88 15.2332 15.4911 164.55 190.297 48.1447
internal_count=2049 1594 850 744 455 63 64 681 786 199
is_linear=0
shrinkage=0.0339163


Tree=25
num_leaves=7
num_cat=0
split_feature=13 1 7 0 0 0
split_gain=8.52152 0.634051 0.262729 0.165603 0.00757603 0.00123243
threshold=0.21812862089006715 1.0000000180025095e-35 233.50000000000003 165.50000000000003 178.50000000000003 137.50000000000003
decision_type=2 2 2 2 2 2
left_child=1 3 -2 -1 -5 -3
right_child=2 5 -4 4 -6 -7
leaf_value=-0.00095713261413721696 -2.6423695713323971e-05 6.1809316992706001e-05 0.0008919068744830406 3.487324972703023e-05 -2.0048731101130128e-05 -1.6778224164599506e-06
leaf_weight=262.91261751949787 10.143446877598761 24.426204264163974 175.94603906571865 9.6787627637386304 6.0566326826810828 6.290529489517211
leaf_count=1085 42 101 730 40 25 26
internal_value=0 -0.000878648 0.000864656 -0.000940589 1.46791e-05 5.99334e-05
internal_weight=0 309.365 186.089 278.648 15.7354 30.7167
internal_count=2049 1277 772 1150 65 127
is_linear=0
shrinkage=0.0339163


Tree=26
num_leaves=10
num_cat=0
split_feature=13 11 7 3 3 3 3 3 3
split_gain=8.50075 1.64671 0.262464 0.186641 0.0531072 0.0226955 0.00373377 0.00306386 0.000268422
threshold=0.21812862089006715 1.0000000180025095e-35 233.50000000000003 13.100293684588673 7.2044457721735089 14.059760174916894 8.8003691581028409 7.7950052024040017 6.5007103256008092
decision_type=2 2 2 2 2 2 2 2 2
left_child=1 6 -2 -3 8 -5 7 -1 -4
right_child=2 3 4 5 -6 -7 -8 -9 -10
leaf_value=1.5757623809337056e-05 -2.6422232260142968e-05 -0.0010442126788187608 3.1603145822465978e-06 5.2943236061811426e-05 0.00089738980500697391 -3.9568919777911662e-05 0.00014575628128121293 -1.798217013562656e-05 -7.6592988953998559e-06
leaf_weight=7.0189830809831601 10.143496260046957 208.71007564663887 7.4795727729797346 19.857444658875465 162.16369499266148 18.651321217417717 48.877810567617416 6.2928431034088135 6.2730071693658829
leaf_count=29 42 861 31 82 673 77 202 26 26
internal_value=0 -0.000877341 0.000863829 -0.00102507 0.000891077 1.31999e-05 0.000143244 -2.07747e-06 -4.35025e-06
internal_weight=0 309.408 186.06 247.219 175.916 38.5088 62.1896 13.3118 13.7526
internal_count=2049 1277 772 1020 730 159 257 55 57
is_linear=0
shrinkage=0.0339163


Tree=27
num_leaves=2
num_cat=0
split_feature=6
split_gain=12.8333
threshold=654.4225629424019
decision_type=2
left_child=-1
right_child=-2
leaf_value=-0.0010586124132349365 0.0010808676327230492
leaf_weight=319.50276651978493 171.38417200744152
leaf_count=1319 711
internal_value=0
internal_weight=0
internal_count=2030
is_linear=0
shrinkage=0.0339163


Tree=28
num_leaves=4
num_cat=0
split_feature=6 5 1
split_gain=12.8004 7.64044 0.439647
threshold=654.4225629424019 3.5000000000000004 1.0000000180025095e-35
decision_type=2 2 2
left_child=1 2 -1
right_child=-2 -3 -4
leaf_value=-0.0015399909412588664 0.001079888455333821 0.00045833270226519802 2.272439194497076e-05
leaf_weight=230.37231646478176 171.34908653795719 60.161749050021172 29.028203010559082
leaf_count=950 711 249 120
internal_value=0 -0.00105684 -0.00151102
internal_weight=0 319.562 259.401
internal_count=2030 1319 1070
is_linear=0
shrinkage=0.0339163


Tree=29
num_leaves=8
num_cat=0
split_feature=5 14 3 4 14 3 3
split_gain=2.75523 0.730014 0.0633137 0.0618883 0.0405387 0.0192121 0.00807725
threshold=3.5000000000000004 1.0700789617067221 15.502010279776249 2.5000000000000004 2.4018761568123996 13.965695917041208 12.659723234272635
decision_type=2 2 2 2 2 2 2
left_child=1 2 3 -1 5 -3 -6
right_child=-2 4 -4 -5 6 -7 -8
leaf_value=8.5324954067044922e-06 0.00050920491806468154 0.00014718834793451207 9.190508630323413e-06 -0.00061450670323663832 -4.4380495858310696e-05 -1.1842160460662462e-05 1.6751422276238651e-05
leaf_weight=13.310599148273466 66.419994533061981 87.545578673481941 7.4984569996595374 289.78365126252174 9.9225253164768237 9.9162485748529416 6.5352920144796363
leaf_count=55 275 362 31 1198 41 41 27
internal_value=0 -0.00048244 -0.000595366 -0.000604961 0.000107603 0.000135138 -2.74665e-05
internal_weight=0 424.512 310.593 303.094 113.92 97.4618 16.4578
internal_count=2030 1755 1284 1253 471 403 68
is_linear=0
shrinkage=0.0339163


Tree=30
num_leaves=10
num_cat=0
split_feature=13 11 7 12 3 14 12 14 3
split_gain=5.47184 1.37283 0.525615 0.17373 0.14916 0.0424215 0.0199293 0.0179759 0.00962237
threshold=0.21812862089006715 1.0000000180025095e-35 255.50000000000003 0.26921816461609283 7.2044457721735089 0.73057683896658954 0.41043884113731005 1.3407793658194176 8.0717307349017471
decision_type=2 2 2 2 2 2 2 2 2
left_child=1 5 7 -3 -4 6 -1 8 -2
right_child=2 3 4 -5 -6 -7 -8 -9 -10
leaf_value=3.2979048246813571e-05 9.5823924972200762e-06 1.8081056860503578e-05 -1.6762534403885049e-05 -0.00085963361391308828 0.00078645152953250288 0.00016991471493779119 -5.5822309084636346e-05 2.0273673445814584e-05 -9.1346786089016759e-05
leaf_weight=6.5304898619651821 6.9949911385774639 7.2635568827390662 10.618049815297125 237.39189875125885 143.07384130358696 38.482040151953697 14.537895828485487 5.7869318872690192 20.276132151484489
leaf_count=27 29 30 44 979 594 159 60 24 84
internal_value=0 -0.00069217 0.000704822 -0.000841112 0.000768613 0.000146622 -2.27192e-05 -6.11477e-05 -8.15506e-05
internal_weight=0 304.206 186.75 244.655 153.692 59.5504 21.0684 33.0581 27.2711
internal_count=2030 1255 775 1009 638 246 87 137 113
is_linear=0
shrinkage=0.0339163


Tree=31
num_leaves=5
num_cat=0
split_feature=6 5 2 1
split_gain=12.7536 7.62249 2.17203 0.440431
threshold=654.4225629424019 3.5000000000000004 18.500000000000004 1.0000000180025095e-35
decision_type=2 2 2 2
left_child=1 3 -2 -1
right_child=2 -3 -4 -5
leaf_value=-0.0015370135724139301 0.0012388367670355558 0.00045819210283824032 -0.00016043195166158777 2.2829361032682589e-05
leaf_weight=230.46841552853584 154.40860450267792 60.156935706734657 16.903321847319603 29.031603813171387
leaf_count=950 641 249 70 120
internal_value=0 -0.00105395 0.00107887 -0.00150796
internal_weight=0 319.657 171.312 259.5
internal_count=2030 1319 711 1070
is_linear=0
shrinkage=0.0339163


Tree=32
num_leaves=12
num_cat=0
split_feature=11 12 12 1 7 3 12 4 4 7 3
split_gain=1.95517 0.744996 0.106913 0.104535 0.0555603 0.0587161 0.044679 0.0246049 0.0191663 0.00963705 0.00543324
threshold=1.0000000180025095e-35 0.58608534946236579 1.3566323981246664 1.0000000180025095e-35 241.50000000000003 7.2044457721735089 0.26921816461609283 3.5000000000000004 2.5000000000000004 325.50000000000006 9.3003802137329163
decision_type=2 2 2 2 2 2 2 2 2 2 2
left_child=-1 3 4 6 -3 9 -2 10 -5 -6 -4
right_child=1 2 7 8 5 -7 -8 -9 -10 -11 -12
leaf_value=0.00042753449635354114 6.9030193861006754e-06 -2.5562293327575815e-05 -1.2545461551104527e-05 5.1252601355575629e-05 -4.4187535283057925e-05 0.00022299849433827384 -0.0005656401883447305 -8.3621213545767377e-05 -3.4560468495077484e-05 2.0105676234570475e-05 3.9756175190151425e-05
leaf_weight=100.94936242699623 6.0544083565473548 9.6554886698722822 6.2915089726448121 5.5603309720754615 11.128752857446672 158.98725241422653 150.28150264918804 14.519573092460631 10.403105333447455 6.2976182401180258 10.859536349773405
leaf_count=418 25 40 26 23 46 658 620 60 43 26 45
internal_value=0 -0.000407703 0.000117993 -0.000540596 0.00017362 0.000198916 -0.000558222 -5.62622e-05 1.64947e-05 -2.39305e-05 2.70498e-05
internal_weight=0 390.039 217.74 172.299 186.069 176.414 156.336 31.6706 15.9634 17.4264 17.151
internal_count=2030 1612 901 711 770 730 645 131 66 72 71
is_linear=0
shrinkage=0.0339163


Tree=33
num_leaves=10
num_cat=0
split_feature=13 14 7 0 0 14 14 7 0
split_gain=5.44278 0.642009 0.524421 0.244456 0.11047 0.0658429 0.0179591 0.0077135 0.00635198
threshold=0.21812862089006715 1.053663946502148 255.50000000000003 153.50000000000003 68.500000000000014 2.4018761568123996 1.3407793658194176 341.50000000000006 169.50000000000003
decision_type=2 2 2 2 2 2 2 2 2
left_child=1 3 6 -1 -3 7 -2 -6 -5
right_child=2 4 -4 8 5 -7 -8 -9 -10
leaf_value=-0.00079866615717570134 -8.150825434019423e-05 -7.1372106757509686e-05 0.00076731853290292634 4.127559756071267e-05 0.00018072594943004236 -3.4252673583761796e-05 2.0265173979185764e-05 -3.7274578265495207e-06 -1.4140802842338498e-05
leaf_weight=190.67080609500408 27.272355556488037 21.07999461889267 153.64459836483002 12.110816702246668 57.885005608201027 9.2127101868391019 5.78661224246025 6.0546741783618918 7.2715068012475959
leaf_count=786 113 87 638 50 239 38 24 25 30
internal_value=0 -0.000689711 0.000703566 -0.000769945 7.12515e-05 0.000142412 -6.11138e-05 0.000176717 2.69715e-05
internal_weight=0 304.286 186.704 210.053 94.2324 73.1524 33.059 63.9397 19.3823
internal_count=2030 1255 775 866 389 302 137 264 80
is_linear=0
shrinkage=0.0339163


Tree=34
num_leaves=12
num_cat=0
split_feature=11 14 8 14 3 7 7 7 14 14 7
split_gain=1.95189 0.572737 0.0579191 0.0441292 0.0269967 0.0229457 0.0363225 0.0196598 0.0166723 0.00436427 0.000122655
threshold=1.0000000180025095e-35 1.1167564894028721 1.0000000180025095e-35 0.43683333333333341 14.311493011609391 343.50000000000006 358.50000000000006 341.50000000000006 2.4018761568123996 0.67207261554303921 349.50000000000006
decision_type=2 2 2 2 2 2 2 2 2 2 2
left_child=2 5 3 -1 7 -2 10 8 -3 -4 -7
right_child=1 4 9 -5 -6 6 -8 -9 -10 -11 -12
leaf_value=-8.6169834314140775e-06 -0.00051521129126564356 0.0001444639724578335 1.5015232935913475e-05 0.00044907739210863287 -2.0582078881185943e-05 -1.4702493699339943e-08 -5.6628488251338063e-05 -1.3412673622991939e-05 -1.0435975651639476e-05 -2.6797665167057401e-05 5.9510847626134027e-05
leaf_weight=9.6742055863141996 261.55495019257069 68.917575910687447 5.7934774011373502 78.94205117225647 8.9556583315134031 7.0288647711277035 10.910428360104559 6.7794112116098395 10.646282464265822 6.5300968140363693 15.258454650640486
leaf_count=40 1081 285 24 327 37 29 45 28 44 27 63
internal_value=0 -0.000407267 0.00042727 0.000439737 9.96165e-05 -0.000509934 2.61436e-06 0.000120228 0.000133757 -1.16305e-05 5.92865e-05
internal_weight=0 390.052 100.94 88.6163 95.2989 294.753 33.1977 86.3433 79.5639 12.3236 22.2873
internal_count=2030 1612 418 367 394 1218 137 357 329 51 92
is_linear=0
shrinkage=0.0339163


Tree=35
num_leaves=5
num_cat=0
split_feature=6 1 13 3
split_gain=12.7034 0.569487 0.0761482 0.030679
threshold=654.4225629424019 1.0000000180025095e-35 0.19271244386133121 12.499917457502933
decision_type=2 2 2 2
left_child=1 -1 -2 -3
right_child=2 3 -4 -5
leaf_value=-0.0010996563194364669 -5.7531699229794498e-06 -3.5092750125236105e-05 0.0010843815419782563 8.0495777224739138e-05
leaf_weight=288.29938355088234 7.0203866213560095 21.536010846495632 164.23958326876163 9.9118805229663831
leaf_count=1189 29 89 682 41
internal_value=0 -0.00105117 0.00107744 4.50385e-05
internal_weight=0 319.747 171.26 31.4479
internal_count=2030 1319 711 130
is_linear=0
shrinkage=0.0339163


Tree=36
num_leaves=8
num_cat=0
split_feature=9 10 11 3 3 3 3
split_gain=2.83153 4.25081 0.202088 0.105774 0.0348626 0.0243809 0.00126159
threshold=1.0000000180025095e-35 1.0000000180025095e-35 1.0000000180025095e-35 5.8093993065791443 15.335617081324054 11.101664090751116 14.700683113913396
decision_type=2 2 2 2 2 2 2
left_child=1 3 5 -1 -5 -2 -4
right_child=2 -3 6 4 -6 -7 -8
leaf_value=-9.8501313326812335e-06 -3.3580276448429151e-05 -0.00042009398765435768 -0.00054166814758340202 0.00093108558228216141 -2.9105432545747181e-06 6.6947643664047688e-05 -6.5924489713363864e-12
leaf_weight=7.7489369213581076 15.235534876585008 84.241897419095039 144.88363316655159 210.14703297615051 5.5653176158666602 14.975336775183676 8.2302772253751737
leaf_count=32 63 348 598 870 23 62 34
internal_value=0 0.000498878 -0.000506061 0.00091655 0.000927325 3.31421e-05 -0.000541107
internal_weight=0 307.703 183.325 223.461 215.712 30.2109 153.114
internal_count=2030 1273 757 925 893 125 632
is_linear=0
shrinkage=0.0339163


Tree=37
num_leaves=5
num_cat=0
split_feature=13 5 8 11
split_gain=5.41607 6.26863 0.365681 0.32937
threshold=0.21812862089006715 3.5000000000000004 1.0000000180025095e-35 1.0000000180025095e-35
decision_type=2 2 2 2
left_child=1 3 -2 -1
right_child=2 -3 -4 -5
leaf_value=2.1087151143919354e-05 0.00074779284926848448 0.00048770773910818523 -4.3763302868461722e-05 -0.0011968050011602397
leaf_weight=44.59250508248806 163.51303957402706 60.40717226266861 23.14354544878006 199.35571932792664
leaf_count=184 679 250 96 821
internal_value=0 -0.000687551 0.000702303 -0.00116796
internal_weight=0 304.355 186.657 243.948
internal_count=2030 1255 775 1005
is_linear=0
shrinkage=0.0339163


Tree=38
num_leaves=9
num_cat=0
split_feature=13 11 7 1 3 3 7 7
split_gain=5.4026 1.36504 0.523858 0.167589 0.149124 0.015591 0.0105859 0.00159148
threshold=0.21812862089006715 1.0000000180025095e-35 255.50000000000003 1.0000000180025095e-35 7.2044457721735089 7.5657776916389796 318.50000000000006 335.50000000000006
decision_type=2 2 2 2 2 2 2 2
left_child=1 6 5 -3 -4 -2 -1 -8
right_child=2 3 4 -5 -6 -7 7 -9
leaf_value=0.00015337457662468792 1.8048405724316418e-05 -0.00085458423411039494 -1.682980373556824e-05 1.6450686288994109e-05 0.0007833894428977043 -7.9383411679247152e-05 -1.5578767011123874e-05 9.3980474230900644e-06
leaf_weight=41.392823755741119 5.545373171567916 221.83722469210625 10.61561845242977 22.997489914298058 142.96204850077629 27.510289564728737 10.657234221696855 7.505414515733718
leaf_count=171 23 914 44 95 594 114 44 31
internal_value=0 -0.000686463 0.000701662 -0.000835515 0.000765491 -6.12018e-05 0.000146793 -6.03541e-06
internal_weight=0 304.39 186.633 244.835 153.578 33.0557 59.5555 18.1626
internal_count=2030 1255 775 1009 638 137 246 75
is_linear=0
shrinkage=0.0339163


Tree=39
num_leaves=9
num_cat=0
split_feature=9 5 3 3 3 12 12 12
split_gain=2.82342 0.950691 0.230389 0.152079 0.134533 0.0540837 0.0177112 0.000504909
threshold=1.0000000180025095e-35 3.5000000000000004 7.2044457721735089 14.186330439534549 15.24421457494604 2.0799780908458838 0.53863104563941466 0.5842487882476658
decision_type=2 2 2 2 2 2 2 2
left_child=2 4 6 5 -2 -4 -1 -5
right_child=1 -3 3 7 -6 -7 -8 -9
leaf_value=-6.4057133259814682e-05 -0.00065852288329931318 0.00013634193265473922 0.00057105149579878532 -2.600238757800864e-05 1.8494261211780626e-05 -8.2130692262295774e-06 2.5444687882929484e-05 1.6485748182414907e-06
leaf_weight=10.676819086074831 160.63057903945446 17.162077352404594 254.68481554090977 7.7564930319786098 5.5601965934038153 9.1705660670995695 16.930065855383873 8.4618108123540861
leaf_count=44 663 71 1054 32 23 38 70 35
internal_value=0 -0.000505128 0.000498373 0.000537478 -0.000639781 0.000562215 -3.83396e-05 -2.41778e-05
internal_weight=0 183.353 307.681 280.074 166.191 263.855 27.6069 16.2183
internal_count=2030 757 1273 1159 686 1092 114 67
is_linear=0
shrinkage=0.0339163


Tree=40
num_leaves=12
num_cat=0
split_feature=13 14 7 3 12 12 14 3 14 3 7
split_gain=5.39063 0.644444 0.523316 0.148824 0.116036 0.0715046 0.0576735 0.0205072 0.0179296 0.00958094 0.00242171
threshold=0.21812862089006715 1.053663946502148 255.50000000000003 7.2044457721735089 0.26921816461609283 0.67465028826575346 2.4018761568123996 13.205542534580319 1.3407793658194176 8.0717307349017471 323.50000000000006
decision_type=2 2 2 2 2 2 2 2 2 2 2
left_child=1 4 8 -4 -1 6 -3 10 9 -2 -7
right_child=2 5 3 -5 -6 7 -8 -9 -10 -11 -12
leaf_value=1.3291619034180599e-05 9.5447163065644246e-06 0.00015829400025804002 -1.6811017900065957e-05 0.00078267032204513206 -0.00078012983835486921 -8.0072477828396887e-05 -3.3527743031180115e-05 2.4457470766711444e-05 2.0221851824460803e-05 -9.1305763700467809e-05 2.6212784101475447e-06
leaf_weight=5.5687914788722983 6.9935992807149914 57.173723265528679 10.616250857710837 142.9357647895813 204.59516800940037 16.004297703504569 7.5200898498296729 6.7776026725769034 5.7850881069898596 20.277143970131874 6.7775141447782508
leaf_count=23 29 236 44 594 843 66 31 28 24 84 28
internal_value=0 -0.000685614 0.000700971 0.000764791 -0.000766447 7.1921e-05 0.000124741 -5.26339e-05 -6.11959e-05 -8.15472e-05 -7.72283e-05
internal_weight=0 304.417 186.608 153.552 210.164 94.2532 64.6938 29.5594 33.0558 27.2707 22.7818
internal_count=2030 1255 775 638 866 389 267 122 137 113 94
is_linear=0
shrinkage=0.0339163


Tree=41
num_leaves=7
num_cat=0
split_feature=13 11 8 1 14 14
split_gain=5.37994 1.3628 0.366276 0.167527 0.0420625 0.00770528
threshold=0.21812862089006715 1.0000000180025095e-35 1.0000000180025095e-35 1.0000000180025095e-35 0.73057683896658954 1.1312852940771896
decision_type=2 2 2 2 2 2
left_child=1 4 -2 -3 -1 -4
right_child=2 3 5 -5 -6 -7
leaf_value=-2.2520156844924358e-05 0.00074605170897874937 -0.00085299694539233925 -5.6584571827955896e-05 1.648061338264494e-05 0.00016993750478410825 1.2480695062336882e-05
leaf_weight=21.07460643351078 163.44938662648201 221.88763107359409 17.595473021268848 22.998418658971786 38.482380598783493 5.5416610687971106
leaf_count=87 679 914 73 95 159 23
internal_value=0 -0.00068482 0.00070039 -0.000833904 0.000146842 -4.39463e-05
internal_weight=0 304.443 186.587 244.886 59.557 23.1371
internal_count=2030 1255 775 1009 246 96
is_linear=0
shrinkage=0.0339163


Tree=42
num_leaves=7
num_cat=0
split_feature=6 11 13 3 3 3
split_gain=12.6164 1.25694 0.0746249 0.0205464 0.00205676 0.000646358
threshold=654.4225629424019 1.0000000180025095e-35 0.19271244386133121 10.844949477236286 9.0944853733824775 7.4254535538741111
decision_type=2 2 2 2 2 2
left_child=1 3 -2 4 5 -1
right_child=2 -3 -4 -5 -6 -7
leaf_value=-4.6856241060471768e-06 -5.642379866497221e-06 -0.0011491777843435323 0.0010813310707908654 0.00011269695657613579 -2.4379464586708698e-05 1.2528012644972428e-05
leaf_weight=6.5391400456428546 7.023952215909957 260.58164685964584 164.12663979828358 30.493531182408333 15.011803388595579 7.260497659444809
leaf_count=27 29 1074 682 126 62 30
internal_value=0 -0.00104681 0.0010745 9.56077e-05 -1.65097e-05 7.69198e-06
internal_weight=0 319.887 171.151 59.305 28.8114 13.7996
internal_count=2030 1319 711 245 119 57
is_linear=0
shrinkage=0.0339163


Tree=43
num_leaves=6
num_cat=0
split_feature=9 8 10 5 1
split_gain=2.81487 4.31034 6.25063 0.950017 0.0494379
threshold=1.0000000180025095e-35 1.0000000180025095e-35 1.0000000180025095e-35 3.5000000000000004 1.0000000180025095e-35
decision_type=2 2 2 2 2
left_child=1 2 -1 4 -2
right_child=3 -3 -4 -5 -6
leaf_value=0.0013463736706197901 -0.00064631477955108714 -0.0004255430396754377 -0.00041950296669284425 0.00013648349595730662 6.2059502749551967e-06
leaf_weight=149.7790317684412 151.95667359232903 73.626372441649437 84.258475422859192 17.166670754551888 14.266381323337553
leaf_count=621 627 304 348 71 59
internal_value=0 0.000498098 0.000918874 -0.000503883 -0.00063867
internal_weight=0 307.664 234.038 183.39 166.223
internal_count=2030 1273 969 757 686
is_linear=0
shrinkage=0.0339163


Tree=44
num_leaves=8
num_cat=0
split_feature=13 2 11 1 7 7 7
split_gain=5.35186 2.56239 1.35757 0.167965 0.127609 0.010553 0.00159099
threshold=0.21812862089006715 15.500000000000002 1.0000000180025095e-35 1.0000000180025095e-35 232.50000000000003 318.50000000000006 335.50000000000006
decision_type=2 2 2 2 2 2 2
left_child=2 4 5 -4 -2 -1 -7
right_child=1 -3 3 -5 -6 6 -8
leaf_value=0.00015326234179064463 -1.1577795019429841e-05 -0.0002486899526423577 -0.00085074928234804472 1.6580318337454586e-05 0.00095742009175626118 -1.5567636586047261e-05 9.401970817138541e-06
leaf_weight=41.388922855257988 8.208251088857649 22.694975703954697 221.95841956138611 23.001586332917213 155.629011541605 10.657531306147577 7.5055115818977347
leaf_count=171 34 94 914 95 647 44 31
internal_value=0 0.000698943 -0.000682649 -0.000831568 0.000944752 0.000146696 -6.02038e-06
internal_weight=0 186.532 304.512 244.96 163.837 59.552 18.163
internal_count=2030 775 1255 1009 681 246 75
is_linear=0
shrinkage=0.0339163


Tree=45
num_leaves=7
num_cat=0
split_feature=5 11 1 3 4 3
split_gain=2.73534 2.40265 0.255067 0.0436546 0.0680612 0.0301486
threshold=3.5000000000000004 1.0000000180025095e-35 1.0000000180025095e-35 12.700396389821469 2.5000000000000004 7.4254535538741111
decision_type=2 2 2 2 2 2
left_child=1 5 -3 4 -4 -1
right_child=-2 2 3 -5 -6 -7
leaf_value=-9.1924286599745082e-06 0.00050967795177397869 -0.000789091409958043 5.7801476899711864e-05 7.9134731721541761e-05 -0.00010883753697959874 0.00029486834334886165
leaf_weight=6.0542747229337683 66.434895783662796 310.87749017775059 6.28027011454106 9.1820737570524198 14.755193710327147 77.462767496705055
leaf_count=25 275 1284 26 38 61 321
internal_value=0 -0.000478383 -0.000758758 2.78797e-05 -5.09207e-05 0.000285364
internal_weight=0 424.612 341.095 30.2175 21.0355 83.517
internal_count=2030 1755 1409 125 87 346
is_linear=0
shrinkage=0.0339163


Tree=46
num_leaves=7
num_cat=0
split_feature=9 10 14 11 14 14
split_gain=2.80767 4.23088 0.208034 0.199697 0.02691 0.00829456
threshold=1.0000000180025095e-35 1.0000000180025095e-35 0.27136363636363642 1.0000000180025095e-35 2.202707290867512 0.73057683896658954
decision_type=2 2 2 2 2 2
left_child=1 2 -1 5 -5 -2
right_child=3 -3 -4 4 -6 -7
leaf_value=-2.0019503466311795e-05 -1.5607124864966014e-05 -0.00041902081581851369 0.00093494459423436468 -0.00054240719653073023 4.1281746161193672e-06 4.8773620071858004e-05
leaf_weight=6.0567277818918219 13.056173279881479 84.273529186844826 217.32429388165474 145.71045655012131 7.5107443183660498 17.148034498095512
leaf_count=25 54 348 900 601 31 71
internal_value=0 0.000497963 0.000914583 -0.000502739 -0.000537593 3.2965e-05
internal_weight=0 307.655 223.381 183.425 153.221 30.2042
internal_count=2030 1273 925 757 632 125
is_linear=0
shrinkage=0.0339163


Tree=47
num_leaves=4
num_cat=0
split_feature=6 5 1
split_gain=12.5639 7.57997 0.439938
threshold=654.4225629424019 3.5000000000000004 1.0000000180025095e-35
decision_type=2 2 2
left_child=1 2 -1
right_child=-2 -3 -4
leaf_value=-0.0015274881590952301 0.0010728565576242845 0.00045859301567448106 2.298656323073972e-05
leaf_weight=230.76741349697113 171.0886839479208 60.169922515749931 29.036288544535637
leaf_count=950 711 249 120
internal_value=0 -0.00104404 -0.00149832
internal_weight=0 319.974 259.804
internal_count=2030 1319 1070
is_linear=0
shrinkage=0.0339163


Tree=48
num_leaves=5
num_cat=0
split_feature=6 1 14 13
split_gain=12.5323 0.565882 0.0799474 0.0743616
threshold=654.4225629424019 1.0000000180025095e-35 1.0609182397678987 0.19271244386133121
decision_type=2 2 2 2
left_child=1 -1 -3 -2
right_child=3 2 -4 -5
leaf_value=-0.0010908813357937493 -5.6368028556478454e-06 -6.6133958544264292e-05 0.00011159989198292735 0.0010787055911222489
leaf_weight=288.57685819268227 7.024095505475997 18.157716318964962 13.293046727776526 164.02904334664345
leaf_count=1189 29 75 55 682
internal_value=0 -0.00104234 4.51397e-05 0.00107189
internal_weight=0 320.028 31.4508 171.053
internal_count=2030 1319 130 711
is_linear=0
shrinkage=0.0339163


Tree=49
num_leaves=6
num_cat=0
split_feature=13 11 8 10 0
split_gain=5.30927 1.3535 0.366155 0.15234 0.00429465
threshold=0.21812862089006715 1.0000000180025095e-35 1.0000000180025095e-35 1.0000000180025095e-35 53.500000000000007
decision_type=2 2 2 2 2
left_child=1 4 3 -2 -1
right_child=2 -3 -4 -5 -6
leaf_value=-2.4229542785078978e-06 0.0007628021030400159 -0.00082791547299867422 -4.4118048932466084e-05 -1.6728995716827268e-05 0.00014965602558937292
leaf_weight=7.9822002053260794 136.60119625926018 245.07308581471443 23.130635872483253 26.73614539206028 51.576565518975258
leaf_count=33 568 1009 96 111 213
internal_value=0 -0.000678815 0.000697272 0.00074309 0.000146921
internal_weight=0 304.632 186.468 163.337 59.5588
internal_count=2030 1255 775 679 246
is_linear=0
shrinkage=0.0339163


Tree=50
num_leaves=9
num_cat=0
split_feature=13 11 7 12 3 1 12 3
split_gain=5.2972 1.35133 0.521856 0.173218 0.14903 0.0952228 0.019235 0.0155245
threshold=0.21812862089006715 1.0000000180025095e-35 255.50000000000003 0.26921816461609283 7.2044457721735089 1.0000000180025095e-35 1.0260585307180443 7.5657776916389796
decision_type=2 2 2 2 2 2 2 2
left_child=1 6 7 -3 -4 -5 -1 -2
right_child=2 3 4 5 -6 -7 -8 -9
leaf_value=0.00015816858410045229 1.7953792388137011e-05 1.8343154118384643e-05 -1.69293747804386e-05 -0.00085698666653672459 0.00077868636236651093 8.6717278115905621e-06 -1.1030580612149484e-05 -7.9457494793802618e-05
leaf_weight=51.330994501709938 5.5419641286134711 7.2717167288064948 10.611912995576857 216.2841235101223 142.78728540241718 21.551382675766945 8.2264072299003583 27.50677701830864
leaf_count=212 23 30 44 890 594 89 34 114
internal_value=0 -0.000677795 0.000696729 -0.000826844 0.000760698 -0.000845602 0.000146879 -6.137e-05
internal_weight=0 304.665 186.448 245.107 153.399 237.836 59.5574 33.0487
internal_count=2030 1255 775 1009 638 979 246 137
is_linear=0
shrinkage=0.0339163


Tree=51
num_leaves=8
num_cat=0
split_feature=13 14 0 0 14 14 0
split_gain=5.28563 0.654898 0.246509 0.110885 0.104059 0.065748 0.00631624
threshold=0.21812862089006715 1.053663946502148 153.50000000000003 68.500000000000014 0.28006166127140325 2.4018761568123996 169.50000000000003
decision_type=2 2 2 2 2 2 2
left_child=1 2 -1 -3 -2 -5 -4
right_child=4 3 6 5 -6 -7 -8
leaf_value=-0.00078884488835547894 -1.3087111763805225e-05 -7.0651540634367771e-05 4.1668863812509188e-05 0.0001783431765892329 0.00070970705408102445 -3.3887548185918347e-05 -1.39254028603536e-05
leaf_weight=190.97735826671124 6.2736320048570624 21.102058455348015 12.12271185219288 63.990058705210686 180.15291547775269 9.2239228636026365 7.2779383957386008
leaf_count=786 26 87 50 264 749 38 30
internal_value=0 -0.000676869 -0.000759563 7.39426e-05 0.000696153 0.000144398 2.75793e-05
internal_weight=0 304.694 210.378 94.316 186.427 73.214 19.4007
internal_count=2030 1255 866 389 775 302 80
is_linear=0
shrinkage=0.0339163


Tree=52
num_leaves=8
num_cat=0
split_feature=13 11 12 12 10 12 12
split_gain=5.27477 1.34926 0.353723 0.172943 0.0477082 0.0192073 0.00207441
threshold=0.21812862089006715 1.0000000180025095e-35 0.55192774450519855 0.26921816461609283 1.0000000180025095e-35 1.0260585307180443 0.45070962110913732
decision_type=2 2 2 2 2 2 2
left_child=1 5 6 -3 -4 -1 -2
right_child=2 3 4 -5 -6 -7 -8
leaf_value=0.00015821828675412105 3.9667299911615009e-06 1.8350022221516913e-05 0.00074746684446613885 -0.00084399718424677428 -4.3722425459742191e-06 -1.1010774859797566e-05 -4.6570824468859554e-05
leaf_weight=51.332556650042534 8.1889505833387393 7.2719436287879935 134.38042688369751 237.88594034314156 23.351496249437332 8.2270505875349027 20.480799719691277
leaf_count=212 34 30 559 979 97 34 85
internal_value=0 -0.000676134 0.000695478 -0.000825235 0.000740304 0.000146948 -4.24136e-05
internal_weight=0 304.717 186.402 245.158 157.732 59.5596 28.6698
internal_count=2030 1255 775 1009 656 246 119
is_linear=0
shrinkage=0.0339163


Tree=53
num_leaves=9
num_cat=0
split_feature=9 5 14 14 12 0 11 14
split_gain=2.79903 0.947263 0.346183 0.0950635 0.0607715 0.0502772 0.0303409 0.0108415
threshold=1.0000000180025095e-35 3.5000000000000004 0.42866071428571434 2.4018761568123996 0.65385135135135142 55.500000000000007 1.0000000180025095e-35 0.73057683896658954
decision_type=2 2 2 2 2 2 2 2
left_child=2 6 4 -4 -1 -6 7 -2
right_child=1 -3 3 -5 5 -7 -8 -9
leaf_value=-0.00010779593757885935 -3.0188996411093202e-05 0.00013671209124485793 0.00057091823554162289 -1.4818366628857386e-05 -4.6933850891120732e-05 9.8956468635373e-05 -0.00064138121062434382 3.3201325200451375e-05
leaf_weight=20.616824775934219 10.882061183452608 17.173934370279312 252.24946422874928 10.16469484567642 6.0693619847297695 18.551839619874954 139.96740674972534 15.456170096993445
leaf_count=85 45 71 1044 42 25 77 577 64
internal_value=0 -0.000500766 0.000498406 0.000555643 -5.54771e-05 5.19235e-05 -0.000635767 2.8868e-06
internal_weight=0 183.48 307.652 262.414 45.238 24.6212 166.306 26.3382
internal_count=2030 757 1273 1086 187 102 686 109
is_linear=0
shrinkage=0.0339163


Tree=54
num_leaves=4
num_cat=0
split_feature=9 7 7
split_gain=3.43837 0.168092 0.077982
threshold=1.0000000180025095e-35 366.50000000000006 234.50000000000003
decision_type=2 2 2
left_child=1 2 -1
right_child=-2 -3 -4
leaf_value=-1.110631572840105e-05 -0.00052882186570567399 -2.5288701891307549e-05 0.00061672044801648227
leaf_weight=9.4236989319324476 176.24879278242588 6.0630217641592017 298.13228319585323
leaf_count=39 727 25 1234
internal_value=0 0.000580299 0.000605094
internal_weight=0 313.619 307.556
internal_count=2025 1298 1273
is_linear=0
shrinkage=0.0339163


Tree=55
num_leaves=6
num_cat=0
split_feature=9 10 3 4 3
split_gain=3.42951 4.45946 0.271428 0.0225419 0.0119932
threshold=1.0000000180025095e-35 1.0000000180025095e-35 14.700683113913396 1.5000000000000002 15.335617081324054
decision_type=2 2 2 2 2
left_child=1 4 3 -2 -1
right_child=2 -3 -4 -5 -6
leaf_value=0.0009883057623363571 2.9828141865427724e-06 -0.00040896177276404422 4.3462202494985872e-05 -0.00057555265729532213 -5.1951621984800273e-07
leaf_weight=223.69682678580284 10.905496597290037 84.076788231730461 8.2322065234184247 157.12723329663277 5.8118368983268729
leaf_count=927 45 347 34 648 24
internal_value=0 0.000579347 -0.000528325 -0.000571519 0.000986774
internal_weight=0 313.585 176.265 168.033 229.509
internal_count=2025 1298 727 693 951
is_linear=0
shrinkage=0.0339163


Tree=56
num_leaves=7
num_cat=0
split_feature=6 1 6 6 6 6
split_gain=11.8952 0.503323 0.146575 0.0065984 0.0102938 0.000232541
threshold=655.25000000000011 1.0000000180025095e-35 383.2000000000001 541.79748548666873 590.70799935929028 498.06823699232154
decision_type=2 2 2 2 2 2
left_child=1 2 -1 5 -5 -3
right_child=-2 3 -4 4 -6 -7
leaf_value=1.2334993001265912e-05 0.0010735444982687429 -2.2539401799656163e-07 -0.0010458624693995692 -3.7038465900236481e-05 2.5674962083436703e-05 5.4142481637980561e-05
leaf_weight=6.0531689524650565 169.70626309514046 7.0224185436964026 281.16804821789265 7.7528149336576488 9.9027377516031247 8.2253805547952634
leaf_count=25 706 29 1158 32 41 34
internal_value=0 -0.000987213 -0.00103295 4.22527e-05 -1.11939e-05 5.37136e-05
internal_weight=0 320.125 287.221 32.9034 17.6556 15.2478
internal_count=2025 1319 1183 136 73 63
is_linear=0
shrinkage=0.0339163


Tree=57
num_leaves=6
num_cat=0
split_feature=6 5 1 13 6
split_gain=11.8662 7.16594 0.391668 0.103198 0.0728369
threshold=655.25000000000011 3.5000000000000004 1.0000000180025095e-35 0.19271244386133121 594.29197351674486
decision_type=2 2 2 2 2
left_child=1 2 -1 -2 -3
right_child=3 4 -4 -5 -6
leaf_value=-0.001462103538472365 -8.2148176563106478e-06 0.00046692882514535002 2.1160325301516604e-05 0.00108166910444051 -1.410842436223576e-05
leaf_weight=225.37800674140453 5.5705436915159217 59.232296168804169 30.007707998156548 164.09997798502445 5.5561874508857718
leaf_count=927 23 245 124 683 23
internal_value=0 -0.000985679 -0.00143475 0.00107258 0.000452398
internal_weight=0 320.174 255.386 169.671 64.7885
internal_count=2025 1319 1051 706 268
is_linear=0
shrinkage=0.0339163


Tree=58
num_leaves=10
num_cat=0
split_feature=13 7 12 3 7 3 7 7 7
split_gain=6.08679 0.417851 0.361392 0.21663 0.0900372 0.0850893 0.0800867 0.0394175 0.00655181
threshold=0.22422407034050182 255.50000000000003 0.29806371634230877 15.100000855958907 243.50000000000003 7.2044457721735089 348.50000000000006 362.50000000000006 313.50000000000006
decision_type=2 2 2 2 2 2 2 2 2
left_child=2 -2 8 4 -4 -3 -6 -8 -1
right_child=1 5 3 -5 6 -7 7 -9 -10
leaf_value=5.4939810677313484e-05 -4.4812234459981246e-05 -8.7605102610793721e-06 1.0229958317867032e-05 2.5287539508064753e-05 -0.00078808036381413944 0.00083562530447933595 6.4173242752696617e-05 -5.6772951246306813e-05 -1.0910514049785219e-05
leaf_weight=13.570074960589411 28.939620032906532 7.9523310214281073 5.8155381977558127 12.122563764452932 254.7286936044693 129.61629015207291 18.665153548121456 12.619953051209448 5.8288065195083609
leaf_count=56 120 33 24 50 1049 540 77 52 24
internal_value=0 0.000778121 -0.00069665 -0.000740804 -0.000766522 0.000825856 -0.000777134 7.29804e-06 4.38591e-05
internal_weight=0 166.508 323.351 303.952 291.829 137.569 286.014 31.2851 19.3989
internal_count=2025 693 1332 1252 1202 573 1178 129 80
is_linear=0
shrinkage=0.0339163


Tree=59
num_leaves=5
num_cat=0
split_feature=13 5 7 1
split_gain=6.07337 5.84452 0.417485 0.218883
threshold=0.22422407034050182 3.5000000000000004 255.50000000000003 1.0000000180025095e-35
decision_type=2 2 2 2
left_child=1 3 -2 -1
right_child=2 -3 -4 -5
leaf_value=-0.0011692484947327501 -4.4805177853705086e-05 0.00046114593305398682 0.0008252803625893114 1.4569817595688218e-05
leaf_weight=230.74836966395378 28.939863413572311 64.551030099391937 137.54699915647507 28.084994286298752
leaf_count=949 120 267 573 116
internal_value=0 -0.000695612 0.000777555 -0.00114998
internal_weight=0 323.384 166.487 258.833
internal_count=2025 1332 693 1065
is_linear=0
shrinkage=0.0339163


Tree=60
num_leaves=9
num_cat=0
split_feature=13 14 7 12 14 0 14 0
split_gain=6.05793 0.995233 0.417105 0.182339 0.0390256 0.0233283 0.0143476 0.00733131
threshold=0.22422407034050182 1.107305005964055 255.50000000000003 0.29247873656856205 2.504963195734438 92.500000000000014 1.1621415858563113 78.500000000000014
decision_type=2 2 2 2 2 2 2 2
left_child=1 3 6 -1 5 7 -2 -3
right_child=2 4 -4 -5 -6 -7 -8 -9
leaf_value=1.9487854572029021e-05 -6.5193696820236451e-05 1.9842116253275941e-05 0.00082467638990136455 -0.00082986334155815353 -2.6638775271658687e-05 0.00014918774735209894 2.0251472642132036e-05 -3.4034613796550105e-05
leaf_weight=10.910444796085356 21.954253375530246 19.156816855072979 137.52434615790844 222.78636126220226 11.166789561510084 47.268070966005325 6.9858533442020407 12.134939298033713
leaf_count=45 91 79 573 917 46 195 29 50
internal_value=0 -0.000694363 0.00077696 -0.000809506 0.000107739 0.000134425 -4.47981e-05 -1.39843e-05
internal_weight=0 323.423 166.464 233.697 89.7266 78.5598 28.9401 31.2918
internal_count=2025 1332 693 962 370 324 120 129
is_linear=0
shrinkage=0.0339163


Tree=61
num_leaves=5
num_cat=0
split_feature=14 5 10 11
split_gain=2.49073 1.24601 0.765904 0.427811
threshold=0.72015788645874446 3.5000000000000004 1.0000000180025095e-35 1.0000000180025095e-35
decision_type=2 2 2 2
left_child=1 3 -2 -1
right_child=2 -3 -4 -5
leaf_value=5.642397833655337e-05 0.00061666695291180164 0.00018334328735356193 -0.00011253123704153489 -0.00067989372882175175
leaf_weight=31.106411680579185 217.26303534209728 29.974940270185471 42.412085726857185 169.13868589699268
leaf_count=129 899 124 175 698
internal_value=0 -0.000440848 0.000503735 -0.000621519
internal_weight=0 230.22 259.675 200.245
internal_count=2025 951 1074 827
is_linear=0
shrinkage=0.0339163


Tree=62
num_leaves=5
num_cat=0
split_feature=6 5 3 6
split_gain=11.7925 7.14305 0.365872 0.0728792
threshold=655.25000000000011 3.5000000000000004 15.100000855958907 594.29197351674486
decision_type=2 2 2 2
left_child=1 2 -1 -3
right_child=-2 3 -4 -5
leaf_value=-0.001454141043262955 0.0010704078743496617 0.00046686162098005742 2.1866734183615481e-05 -1.4118947470676393e-05
leaf_weight=244.3608183413744 169.58684195578098 59.229979440569878 11.156883046030996 5.5557896941900244
leaf_count=1005 706 245 46 23
internal_value=0 -0.000981506 -0.00143045 0.000452321
internal_weight=0 320.303 255.518 64.7858
internal_count=2025 1319 1051 268
is_linear=0
shrinkage=0.0339163


Tree=63
num_leaves=3
num_cat=0
split_feature=9 8
split_gain=3.41373 4.59399
threshold=1.0000000180025095e-35 1.0000000180025095e-35
decision_type=2 2
left_child=1 -1
right_child=-2 -3
leaf_value=0.00099419342217117496 -0.00052566954991032375 -0.00041900543524342308
leaf_weight=241.62787815928459 176.3389984369278 71.941076323390007
leaf_count=1001 727 297
internal_value=0 0.000579611
internal_weight=0 313.569
internal_count=2025 1298
is_linear=0
shrinkage=0.0339163


Tree=64
num_leaves=12
num_cat=0
split_feature=13 14 7 12 3 3 14 14 3 3 3
split_gain=6.03021 0.992584 0.416312 0.181916 0.161318 0.0855189 0.0390041 0.014321 0.0142082 0.00900959 0.000945091
threshold=0.22422407034050182 1.107305005964055 255.50000000000003 0.29247873656856205 15.100000855958907 7.2044457721735089 2.504963195734438 1.1621415858563113 12.385033050361416 13.082959910670438 12.086919402271443
decision_type=2 2 2 2 2 2 2 2 2 2 2
left_child=1 3 7 -1 -5 -4 8 -2 -3 -10 -8
right_child=2 6 5 4 -6 -7 10 -9 9 -11 -12
leaf_value=1.9489000341345048e-05 -6.5164763961746852e-05 0.00014379370121123287 -8.8397320338518584e-06 -0.00084547540166852498 1.7092396186679372e-05 0.00083301663930253149 -2.9612687754318818e-05 2.0222677255168156e-05 -3.3650720246099244e-05 2.4712252066161834e-05 2.8156352485037878e-06
leaf_weight=10.910309433937071 21.954896286129955 51.388352036476135 7.9494781196117392 216.29734282195568 6.5458222925662986 129.51713098585606 5.5840293914079648 6.9847566336393347 6.3147697299718883 20.854928061366081 5.582911416888237
leaf_count=45 91 212 33 890 27 540 23 29 26 86 23
internal_value=0 -0.00069251 0.000775464 -0.000807604 -0.000827959 0.000823173 0.000107716 -4.47979e-05 0.000134393 -8.7085e-06 -2.66302e-05
internal_weight=0 323.478 166.406 233.753 222.843 137.467 89.725 28.9397 78.558 27.1697 11.1669
internal_count=2025 1332 693 962 917 573 370 120 324 112 46
is_linear=0
shrinkage=0.0339163


Tree=65
num_leaves=6
num_cat=0
split_feature=13 5 7 4 11
split_gain=6.01794 5.81951 0.415948 0.182707 0.0073936
threshold=0.22422407034050182 3.5000000000000004 255.50000000000003 1.5000000000000002 1.0000000180025095e-35
decision_type=2 2 2 2 2
left_child=1 3 -2 4 -1
right_child=2 -3 -4 -5 -6
leaf_value=3.3161016383667077e-05 -4.4790913418894568e-05 0.00046090228549129761 0.00082259983362617832 -0.0011616822932667514 -2.0563704792535131e-05
leaf_weight=6.5364043563604364 28.939893007278442 64.542590871453285 137.44487473368645 237.12591531872749 15.302595764398575
leaf_count=27 120 267 573 975 63
internal_value=0 -0.000691597 0.0007749 -0.00114568 1.23949e-05
internal_weight=0 323.508 166.385 258.965 21.839
internal_count=2025 1332 693 1065 90
is_linear=0
shrinkage=0.0339163


Tree=66
num_leaves=11
num_cat=0
split_feature=9 3 3 3 14 14 14 14 14 14
split_gain=3.40234 0.828584 0.269969 0.0859579 0.0360713 0.0200902 0.0192232 0.00907482 0.00289789 0.000581075
threshold=1.0000000180025095e-35 7.8011253052479441 14.700683113913396 15.335617081324054 0.42866071428571434 2.0128732060745311 0.70632226515674279 2.5825135926167797 0.37492714647398934 0.2884260679340484
decision_type=2 2 2 2 2 2 2 2 2 2
left_child=1 6 5 4 8 -2 -1 -6 9 -3
right_child=2 3 -4 -5 7 -7 -8 -9 -10 -11
leaf_value=-0.00012315328244141043 -0.00057138047192742012 -2.8796718168045597e-06 4.3516920458132594e-05 -1.0852855027920657e-05 0.00070690305742000174 2.6708376195477636e-06 1.4245055964325295e-05 -7.1673717455132646e-07 -1.798320121372563e-05 1.7907341711347958e-05
leaf_weight=35.387153878808022 158.44452293217182 5.5644600540399614 8.2336087077856046 7.0310502946376792 226.88903994858265 9.69421838223934 9.199822321534155 5.8045196533203116 11.606124401092528 12.055070623755453
leaf_count=146 653 23 34 29 940 40 38 24 48 50
internal_value=0 0.00057894 -0.000524526 0.000687964 0.000699274 -0.000567768 -0.000108666 0.000705436 -2.9431e-06 1.48746e-05
internal_weight=0 313.537 176.372 268.95 261.919 168.139 44.587 232.694 29.2257 17.6195
internal_count=2025 1298 727 1114 1085 693 184 964 121 73
is_linear=0
shrinkage=0.0339163


Tree=67
num_leaves=6
num_cat=0
split_feature=9 8 10 5 4
split_gain=3.39448 4.5831 6.36312 0.760877 0.00491573
threshold=1.0000000180025095e-35 1.0000000180025095e-35 1.0000000180025095e-35 3.5000000000000004 1.5000000000000002
decision_type=2 2 2 2 2
left_child=1 2 -1 4 -2
right_child=3 -3 -4 -5 -6
leaf_value=0.0014085881829681809 5.7156919174957136e-09 -0.00041874870935599575 -0.00040757410330489156 0.00010997823081071778 -0.00063466299359618518
leaf_weight=157.44572176039219 11.154458016157148 71.947784379124641 84.114820301532745 19.592647463083267 145.64061062037945
leaf_count=654 46 297 347 81 600
internal_value=0 0.000578131 0.000992452 -0.000524045 -0.000633405
internal_weight=0 313.508 241.561 176.388 156.795
internal_count=2025 1298 1001 727 646
is_linear=0
shrinkage=0.0339163


Tree=68
num_leaves=8
num_cat=0
split_feature=10 4 3 11 3 3 3
split_gain=2.05564 0.688663 0.397742 0.185143 0.0377149 0.0170487 0.00965342
threshold=1.0000000180025095e-35 5.5000000000000009 7.2044457721735089 1.0000000180025095e-35 12.206176126849838 7.0967590672137906 14.514845395814211
decision_type=2 2 2 2 2 2 2
left_child=1 2 -1 -2 5 -3 -6
right_child=3 4 -4 -5 6 -7 -8
leaf_value=-5.7716509038434838e-05 3.780077639490631e-05 1.0639821249603979e-05 0.00062072902161929239 -0.00044595918905823381 4.5297003126487693e-05 -0.00014552560263075785 -1.963591978698559e-05
leaf_weight=28.364288747310638 14.7440098375082 7.0282030105590811 287.56557567417622 69.376753255724907 19.60857076942921 57.12404091656208 6.0685028880834571
leaf_count=117 61 29 1190 286 81 236 25
internal_value=0 0.000451425 0.000562722 -0.000407389 -0.000108712 -0.000134678 2.55363e-05
internal_weight=0 405.759 315.93 84.1208 89.8293 64.1522 25.6771
internal_count=2025 1678 1307 347 371 265 106
is_linear=0
shrinkage=0.0339163


end of trees

feature_importances:
total_intl_minutes=75
avg_intl_call_charge=57
total_calls=37
avg_call_charge=34
number_customer_service_calls=31
international_plan=26
state_other=25
avg_mt_charge=25
total_minutes=20
account_length=17
total_intl_calls=15
area_code_area_code_415=15
area_code_area_code_408=11
area_code_area_code_510=11
number_vmail_messages=8

parameters:
[boosting: gbdt]
[objective: binary]
[metric: auc]
[tree_learner: serial]
[device_type: cpu]
[data: ]
[valid: ]
[num_iterations: 5000]
[learning_rate: 0.0339163]
[num_leaves: 65]
[num_threads: 0]
[deterministic: 0]
[force_col_wise: 0]
[force_row_wise: 0]
[histogram_pool_size: -1]
[max_depth: 48]
[min_data_in_leaf: 23]
[min_sum_hessian_in_leaf: 0.001]
[bagging_fraction: 0.459107]
[pos_bagging_fraction: 1]
[neg_bagging_fraction: 1]
[bagging_freq: 27]
[bagging_seed: 59]
[feature_fraction: 0.400153]
[feature_fraction_bynode: 1]
[feature_fraction_seed: 59]
[extra_trees: 0]
[extra_seed: 14098]
[early_stopping_round: 50]
[first_metric_only: 0]
[max_delta_step: 0]
[lambda_l1: 0.0261693]
[lambda_l2: 6205.52]
[linear_lambda: 0]
[min_gain_to_split: 0]
[drop_rate: 0.1]
[max_drop: 50]
[skip_drop: 0.5]
[xgboost_dart_mode: 0]
[uniform_drop: 0]
[drop_seed: 26648]
[top_rate: 0.2]
[other_rate: 0.1]
[min_data_per_group: 100]
[max_cat_threshold: 32]
[cat_l2: 10]
[cat_smooth: 10]
[max_cat_to_onehot: 4]
[top_k: 20]
[monotone_constraints: ]
[monotone_constraints_method: basic]
[monotone_penalty: 0]
[feature_contri: ]
[forcedsplits_filename: ]
[refit_decay_rate: 0.9]
[cegb_tradeoff: 1]
[cegb_penalty_split: 0]
[cegb_penalty_feature_lazy: ]
[cegb_penalty_feature_coupled: ]
[path_smooth: 0]
[interaction_constraints: ]
[verbosity: 0]
[saved_feature_importance_type: 0]
[linear_tree: 0]
[max_bin: 255]
[max_bin_by_feature: ]
[min_data_in_bin: 3]
[bin_construct_sample_cnt: 200000]
[data_random_seed: 231]
[is_enable_sparse: 1]
[enable_bundle: 1]
[use_missing: 1]
[zero_as_missing: 0]
[feature_pre_filter: 0]
[pre_partition: 0]
[two_round: 0]
[header: 0]
[label_column: ]
[weight_column: ]
[group_column: ]
[ignore_column: ]
[categorical_feature: ]
[forcedbins_filename: ]
[precise_float_parser: 0]
[objective_seed: 27591]
[num_class: 1]
[is_unbalance: 0]
[scale_pos_weight: 1]
[sigmoid: 1]
[boost_from_average: 1]
[reg_sqrt: 0]
[alpha: 0.9]
[fair_c: 1]
[poisson_max_delta_step: 0.7]
[tweedie_variance_power: 1.5]
[lambdarank_truncation_level: 30]
[lambdarank_norm: 1]
[label_gain: ]
[eval_at: ]
[multi_error_top_k: 1]
[auc_mu_weights: ]
[num_machines: 1]
[local_listen_port: 12400]
[time_out: 120]
[machine_list_filename: ]
[machines: ]
[gpu_platform_id: -1]
[gpu_device_id: -1]
[gpu_use_dp: 0]
[num_gpu: 1]

end of parameters

pandas_categorical:[]
